{"embeddings.word_embeddings.weight": [[0.0, 0.0, 0.0, 0.0, 0.0, 0.0, 0.0, 0.0, 0.0, 0.0, 0.0, 0.0, 0.0, 0.0, 0.0, 0.0, 0.0, 0.0, 0.0, 0.0, 0.0, 0.0, 0.0, 0.0, 0.0, 0.0, 0.0, 0.0, 0.0, 0.0, 0.0, 0.0], [-0.012864927761256695, 0.007156824227422476, 0.00089656887575984, -0.015752378851175308, -0.004945531953126192, 0.01765325665473938, -0.012156923301517963, 0.009154734201729298, -0.0257634948939085, -0.005257811397314072, -0.012580711394548416, -0.008161934092640877, 0.017840515822172165, 0.018861886113882065, 0.030326515436172485, 0.0021826201118528843, 0.0059546129778027534, -0.019654523581266403, 0.023416325449943542, 0.024824682623147964, 0.0007657973328605294, 0.003369283629581332, 0.0030841906554996967, 0.004864722955971956, -0.016482258215546608, -0.00925210677087307, -0.026786500588059425, -0.0382678285241127, -0.0064952862448990345, -0.011396586894989014, -0.005360803566873074, -0.015916530042886734], [6.730698078172281e-05, -0.0016716438112780452, 0.01638740673661232, 0.04062802344560623, -0.04412342607975006, 0.011127445846796036, -0.015249274671077728, -0.020785344764590263, -0.0059823207557201385, 0.008194549940526485, 0.018990540876984596, -0.0005738772451877594, 0.01931413635611534, 0.03302847221493721, 0.0015857539838179946, -0.003584465943276882, -0.03615596890449524, 0.0004100424994248897, 0.0173345860093832, 0.013902699574828148, -0.020851250737905502, -0.018752478063106537, 0.002857340732589364, 0.035302985459566116, -0.04071016609668732, -0.011567078530788422, -0.010159505531191826, -0.024134213104844093, 0.0065764253959059715, 0.006561069283634424, 0.0006394120864570141, -0.009555593132972717], [0.017020195722579956, 0.03290620818734169, -0.00015149377577472478, 0.0033634467981755733, 0.021494831889867783, -0.008212861604988575, -0.018922843039035797, -0.03522219881415367, -0.012636142782866955, 0.004847803618758917, 0.030372850596904755, -0.0014021808747202158, 0.002297651022672653, 0.017311077564954758, -0.01786481775343418, 0.0029229228384792805, -0.004861743189394474, 0.015776582062244415, -0.030598603188991547, 0.0662032812833786, -0.008291907608509064, 0.008889587596058846, -0.030985448509454727, -0.03649364039301872, 0.02231874130666256, 0.021810421720147133, -0.00613181060180068, -0.013517781160771847, -0.010667089372873306, 0.014110366813838482, -0.012347388081252575, 0.012373696081340313], [-0.003960426431149244, 0.022170403972268105, -0.011713280342519283, 0.0035187629982829094, 0.014406980015337467, -0.013880614191293716, 0.007516799494624138, -0.0055818259716033936, -0.026143589988350868, 0.012151694856584072, -0.0028501355554908514, 0.01585599221289158, 0.011853547766804695, -0.01042756624519825, 0.004836549516767263, -0.019311539828777313, 0.020472273230552673, 0.012938147410750389, 0.022760752588510513, -0.0023021928500384092, 0.020640119910240173, -0.0018304019467905164, 0.02001618593931198, -0.0014274467248469591, 0.0249173603951931, -0.02471901662647724, -0.029619809240102768, 0.010394688695669174, 0.036979060620069504, -0.015431005507707596, -0.021613704040646553, -0.033479876816272736], [-0.009134194813668728, 0.0026692128740251064, -0.025928856804966927, 0.004371076822280884, -0.014611921273171902, -0.009442048147320747, -0.012635508552193642, 0.006671970710158348, -0.010014161467552185, -0.019180042669177055, -0.020319191738963127, 0.0015625007217749953, 0.00996926799416542, -0.0036226098891347647, -0.012533576227724552, -0.02215815708041191, -0.0213748998939991, 0.016295665875077248, 0.004053398966789246, 0.007086497265845537, 0.032469652593135834, -0.014971820637583733, 0.014363988302648067, 0.020863069221377373, 0.003948739264160395, 0.02262207679450512, -0.023859547451138496, -0.00453012203797698, 0.009840293787419796, -0.01564055308699608, -0.0127262556925416, -0.009815288707613945], [-0.01640400104224682, 0.005226342938840389, -0.017619259655475616, -0.00603147316724062, 0.013771625235676765, -0.03474019467830658, -0.008772156201303005, -0.017047857865691185, -0.033326249569654465, -0.0030182492919266224, -9.986744771595113e-06, -0.013164381496608257, -0.008260410279035568, 0.024677397683262825, -0.022166116163134575, -0.02176518365740776, -0.010117853991687298, -0.02796599082648754, 0.016380658373236656, 0.021794583648443222, 0.015514843165874481, 0.0023849657736718655, -0.007714020553976297, -0.0154895493760705, -0.03863123431801796, -0.0031036087311804295, 0.029311848804354668, -0.035955511033535004, 0.007908403873443604, -0.01782926730811596, -0.01744678057730198, 0.018727794289588928], [-0.004025345202535391, 0.014289427548646927, -0.002623890060931444, 0.01857885718345642, -0.003425275208428502, -0.021953141316771507, 0.008229302242398262, 0.010632243007421494, -0.0029766717925667763, -0.008749245665967464, 0.03698696568608284, -0.03073485568165779, -0.017989983782172203, 0.023560259491205215, -0.03714660182595253, -0.027077147737145424, 0.018005698919296265, -0.01100661139935255, -0.002731184707954526, 0.008694780059158802, 0.002932427218183875, 0.0015877357218414545, -0.013388397172093391, 0.004491209983825684, 0.006008143071085215, 0.002098222728818655, 0.013566149398684502, -0.022732457146048546, -0.01901557482779026, 0.010882739908993244, -0.04622206091880798, -0.0014489544555544853], [-0.008837729692459106, 0.001551242545247078, -0.012902360409498215, -0.00905865989625454, 0.021341631188988686, 0.008470719680190086, 0.017882047221064568, -0.0025134163442999125, 0.0017901031533256173, 0.013393708504736423, 0.010909192264080048, 0.009923117235302925, 0.006819995120167732, 0.004132722970098257, -0.01598028652369976, 0.00629623094573617, 0.02423798106610775, 0.013931544497609138, -0.00041150287142954767, 0.00943242758512497, 0.007970675826072693, 0.019489813596010208, -0.005672022700309753, -0.009724806994199753, -0.010640298947691917, -0.010919333435595036, 0.013928959146142006, 0.007306595798581839, -0.0090625686571002, -0.026297656819224358, -0.016077427193522453, -0.028031472116708755], [-0.021109627559781075, 0.03856801986694336, -0.010287064127624035, 0.029696796089410782, 0.007172782905399799, 0.0007922395598143339, -0.012925449758768082, 0.01510575506836176, 0.041225507855415344, 0.015420603565871716, 0.029076095670461655, -0.03011207841336727, -0.006662117317318916, -0.027865834534168243, 0.01976853795349598, -0.000967692059930414, 0.00469229556620121, -0.009883686900138855, 0.041333071887493134, 0.03728245571255684, 0.020316872745752335, 0.026078680530190468, 0.028568962588906288, 0.016007836908102036, -0.013408019207417965, -0.019491080194711685, -0.01066064927726984, -0.03192829713225365, -0.016752630472183228, -0.023389415815472603, -0.00922924093902111, -0.008371850475668907], [0.030096787959337234, -0.021275581791996956, -0.004187063779681921, -0.010056748986244202, 0.015327375382184982, -0.0007879712502472103, 0.009023035876452923, -0.022097770124673843, 0.0042361612431705, 0.004877177532762289, 0.005280969198793173, 0.014880137518048286, 0.013975387439131737, -0.01928173378109932, 0.006372301373630762, -0.013268642127513885, 0.0006856348481960595, 0.006187730934470892, -0.02152419090270996, 0.0022665420547127724, -0.009368673898279667, 0.011630603112280369, -0.009938321076333523, 0.0036797109059989452, 0.042266491800546646, 0.007555789314210415, 0.019628485664725304, 0.016593782231211662, 0.02320835366845131, -0.017359914258122444, 0.04207364469766617, -0.027960948646068573], [0.021106356754899025, 0.030289504677057266, -0.04161516949534416, -0.009554404765367508, 0.045668844133615494, 0.024334430694580078, -0.020932184532284737, -0.017107756808400154, -0.0006210216670297086, -0.01776440627872944, 0.0002432228793622926, -0.01512230932712555, -0.03427024930715561, 0.02430424839258194, 0.02020834945142269, 0.008416956290602684, -0.004191442392766476, 0.030052607879042625, -0.004066107328981161, -0.02425418607890606, 0.004671928472816944, -0.004559770226478577, 0.015079779550433159, -0.0416446216404438, -0.0007435043225996196, 0.009398246183991432, -0.017869165167212486, -0.0050516859628260136, 0.030789831653237343, 0.006141068879514933, 0.007689043879508972, 0.0020279367454349995], [0.02266666665673256, 0.01664055697619915, -0.0504576712846756, -0.03229027986526489, -0.027067555114626884, 0.043164100497961044, 0.007616870105266571, 0.009132456965744495, 0.035478588193655014, 0.02965109795331955, -0.005620199255645275, 0.026800205931067467, -0.0377587229013443, -0.019269973039627075, 0.0015646065585315228, -0.00986841693520546, 0.0032264271285384893, -0.013356123119592667, 0.010598083958029747, -0.007838909514248371, -0.03156313672661781, -0.008632314391434193, -0.014261518605053425, 0.0027130672242492437, -0.005913419183343649, -0.005021626129746437, 0.005202930886298418, -0.00874507986009121, -0.01958373747766018, 0.01923363097012043, 0.035424795001745224, 0.04252178594470024], [0.003196227829903364, -0.030391057953238487, 0.020828962326049805, -0.003593518864363432, -0.022780869156122208, 0.01862931065261364, 0.00270357308909297, -0.032906197011470795, -0.008536775596439838, -0.01822204887866974, -0.01107804849743843, -0.00800219178199768, -0.01390153169631958, -0.005898653529584408, -0.004551945254206657, 0.023627983406186104, -0.006188687402755022, 0.036826055496931076, -0.013315798714756966, -0.009492176584899426, -0.04750431329011917, 0.004174783360213041, -0.005699965637177229, 0.03161585330963135, 0.011109094135463238, 0.0005482573178596795, 0.01718808338046074, 0.00036252429708838463, 0.03085164539515972, 0.008645439520478249, -0.008289649151265621, 0.0005066331941634417], [-0.035200778394937515, 0.005744691472500563, 0.006619982421398163, -0.0129060884937644, 0.01588435098528862, 0.0069703469052910805, -0.008625979535281658, 0.005629798863083124, 0.010455605573952198, 0.0038121091201901436, 0.038166411221027374, -0.006424968596547842, -0.02642011269927025, 0.017322637140750885, -0.0012371812481433153, 0.04969469830393791, 0.010636824183166027, -0.02757296897470951, -0.023123497143387794, -0.049683406949043274, -0.013539861887693405, 0.012096304446458817, 0.044490374624729156, 0.008046697825193405, -0.007046238053590059, 0.010519478470087051, -0.018961288034915924, 0.005779364611953497, -0.025425739586353302, -0.00823130365461111, 0.01470678299665451, -0.014678352512419224], [0.022943804040551186, 0.004081606399267912, 0.015342109836637974, -0.0034937961027026176, -0.013805799186229706, 0.012938062660396099, 0.005850797053426504, -0.025013109669089317, -0.028015295043587685, 0.01651228405535221, 0.0011569736525416374, -0.020720383152365685, -0.008354277350008488, 0.026624450460076332, 0.004228028003126383, -0.007370695937424898, -0.01406101230531931, -0.0027388243470340967, -0.0004916433244943619, -0.004381705541163683, -0.023855678737163544, 0.011488416232168674, 0.024066898971796036, 0.01071635540574789, -0.015614856034517288, -0.007545878179371357, 0.0016988534480333328, 0.005769822280853987, 0.0020565034355968237, 0.0422746017575264, 0.006705000996589661, -0.007823333144187927], [0.005916702561080456, 0.016596537083387375, 0.009937622584402561, 0.002573112491518259, 0.021826839074492455, 0.002915636170655489, 0.006670488975942135, 0.003072202205657959, 0.022260265424847603, 0.02301548421382904, 0.03138842061161995, 0.017129356041550636, -0.02462788112461567, -0.007040361408144236, 0.005595595575869083, 0.036093395203351974, -0.0028834801632910967, -0.008285758085548878, -0.018770677968859673, 0.030747992917895317, -0.005753448698669672, -0.035317812114953995, -0.008492866531014442, 0.00017239394946955144, 0.030759794637560844, 0.016437340527772903, -0.01439903024584055, -0.0033342032693326473, -0.004510918632149696, -0.017605304718017578, -0.031676117330789566, 0.011122051626443863], [-0.026969334110617638, 0.007152681704610586, -0.023540925234556198, 0.04229268431663513, 0.01898525282740593, -0.019337233155965805, -0.020035557448863983, -0.021926317363977432, -0.019545411691069603, 0.015834888443350792, -0.02327483333647251, 0.012195638380944729, 0.02444312535226345, 0.025113679468631744, 0.010814002715051174, -0.026057865470647812, -0.008173376321792603, -0.04415275901556015, -0.012312158942222595, -0.005737483501434326, -0.01411382295191288, -0.001969223143532872, 0.0032769604586064816, 0.008798389695584774, 0.00248119723983109, 0.0023221964947879314, -0.0199271347373724, 0.023852545768022537, 0.020084615796804428, -0.007467260584235191, -0.024221261963248253, 0.00020848111307714134], [-0.02024810202419758, 0.030282460153102875, -0.03376079350709915, 0.006885711569339037, -0.015531575307250023, -0.03761003538966179, 0.020473074167966843, -0.0014001638628542423, -0.0019499731715768576, 0.005345440935343504, -0.010227521881461143, 0.00623775040730834, -0.00020684185437858105, 0.01937994174659252, -0.014843112789094448, 0.026341259479522705, -0.0051126438193023205, -0.0007440064800903201, -0.0007889361004345119, -0.01103223580867052, 0.024137837812304497, -0.004217925481498241, 0.004366171080619097, 0.003990227356553078, 0.021901339292526245, 0.026785453781485558, 0.0033471016213297844, -0.018063535913825035, 0.0003802721621468663, -0.02330801822245121, 0.004344190936535597, 0.017497621476650238], [-0.0078632403165102, -0.008335583843290806, 0.036419305950403214, 0.006057586055248976, -0.013866371475160122, -0.032239314168691635, 0.004610124509781599, 0.0017059524543583393, -0.007884419523179531, -0.002188036683946848, 0.02871057204902172, -0.00076568458462134, 0.040983669459819794, -0.012281467206776142, -0.02431333251297474, 0.011889323592185974, -0.00040655798511579633, 0.023579923436045647, -0.005883893929421902, -0.012110140174627304, -0.01683560013771057, -0.020898127928376198, -0.0051891254261136055, -0.009736997075378895, -0.041215673089027405, 0.03202258422970772, -0.0023627777118235826, 0.030270826071500778, -0.013590558432042599, -0.005300020333379507, -0.002124370541423559, -0.03560405969619751], [-0.015247435308992863, -0.02343338169157505, -0.016701815649867058, 0.0030336950439959764, -0.031186232343316078, 0.029607415199279785, -0.022544043138623238, -0.008950049988925457, 0.015776459127664566, -0.017180737107992172, -0.027850773185491562, 0.00926867313683033, 0.00690012751147151, 0.015581153333187103, -0.015572169795632362, -0.03950759395956993, -0.0034148443955928087, -0.026014329865574837, 0.014111812226474285, -0.03809379041194916, -0.011642473749816418, 0.0025609235744923353, 0.017290957272052765, 0.010735881514847279, -0.014280229806900024, -0.01785208098590374, -0.010281317867338657, 0.014074007980525494, -0.03000759333372116, 0.001450495794415474, -0.021336639299988747, -0.021693309769034386], [-0.0005976773682050407, 0.01856849528849125, -0.010493241250514984, -0.025566551834344864, 0.0011120997369289398, 0.03178863227367401, -0.027209758758544922, 0.0025727367028594017, 0.020529504865407944, 0.001141283311881125, 0.031081225723028183, -0.018650993704795837, -0.01826193928718567, -0.009940453805029392, 0.003648624289780855, -0.0030692629516124725, 0.00047424505464732647, 0.005818450823426247, 0.00592870032414794, -0.00878156442195177, 0.04340586066246033, 0.007907170802354813, 0.028751468285918236, 0.018460536375641823, -0.04244107007980347, -0.021360397338867188, -0.0034697025548666716, -0.002353114541620016, -0.009852197952568531, 0.025286223739385605, -0.02503945119678974, 0.00041456075268797576], [-0.0010092202574014664, -0.0007166535360738635, -0.023608500137925148, -0.0014181084698066115, -0.018989192321896553, 0.0028305193409323692, 0.024238785728812218, -0.04274871572852135, 0.007495446130633354, -0.01688661240041256, -0.0034574323799461126, -0.0024460547138005495, 0.0024266468826681376, -0.027667101472616196, 0.026491457596421242, -0.024271301925182343, -0.0513300895690918, -0.008576443418860435, -0.020265361294150352, 0.008437125012278557, -0.015032632276415825, -0.009931406937539577, -0.007501074578613043, -0.003813102375715971, -0.0016528585692867637, 0.03302326425909996, 0.022116651758551598, 0.004642380867153406, 0.017178751528263092, -0.042604874819517136, -0.0006160067277960479, -0.01139314379543066], [0.0038298701401799917, -0.0019061327911913395, -0.04143669456243515, 0.023288661614060402, 0.02196410857141018, 0.006264133378863335, -0.024165334179997444, 0.001100914552807808, 0.010038086213171482, 0.017342889681458473, -0.0303603857755661, 0.007033852860331535, 0.018774650990962982, 0.02192142978310585, -0.011248741298913956, 0.022429339587688446, -0.02911665104329586, -0.02133864164352417, -0.04214368388056755, 0.00940304808318615, -0.01746039278805256, 0.018779341131448746, -0.02797410637140274, 0.009146622382104397, -0.016304824501276016, 0.006104477681219578, -0.016112234443426132, 0.003437533974647522, -0.002720092423260212, -0.0394362136721611, -0.015138060785830021, 0.0004557248903438449], [0.005609495565295219, -0.024960219860076904, -0.016795527189970016, -0.019919293001294136, 0.013399806804955006, -0.012884657829999924, 0.0029963126871734858, -0.014552058652043343, 0.022696958854794502, -0.002846140880137682, 0.014696075581014156, -0.015325786545872688, 0.04629300907254219, -0.007827449589967728, -0.029273459687829018, -0.018992645666003227, 0.023307297378778458, 0.0065195378847420216, -0.026748957112431526, 0.025091318413615227, 0.013656895607709885, -0.007851309143006802, 0.006301029119640589, -0.02125527150928974, 0.027257980778813362, -0.011422594077885151, -0.002895813900977373, -0.017549388110637665, 0.010068071074783802, 0.01848706230521202, 0.01092393510043621, -0.014611342921853065], [-0.0021295829210430384, 0.0012705102562904358, -0.021473757922649384, 0.016872910782694817, -0.014399560168385506, -0.005841100122779608, -0.03116532787680626, -0.010321024805307388, 0.00866540614515543, 0.011365341022610664, -0.03109239600598812, 0.007472541183233261, 0.0515228770673275, 0.0028372809756547213, -0.012349274940788746, 0.04729830473661423, 0.01143576204776764, -0.011562351137399673, 0.004050764255225658, 0.03331379219889641, 0.005430055782198906, -0.009987102821469307, -0.008659371174871922, 0.016676975414156914, 0.0033181251492351294, 0.01566498540341854, 0.002656354336068034, 0.008848334662616253, 0.03716419264674187, 0.0009577131131663918, 0.013511229306459427, -0.00949603971093893], [0.007996341213583946, 0.014879142865538597, -0.008188098669052124, -0.0017021822277456522, -6.906303315190598e-05, 0.023426152765750885, 0.027021365240216255, 0.012022015638649464, -0.040371306240558624, 0.03688221424818039, 0.003936163615435362, -0.023466739803552628, 0.0006217866321094334, 0.008271267637610435, -0.01102148275822401, -0.002848363248631358, -0.005509581882506609, 0.027682356536388397, -0.018838662654161453, -0.011039258912205696, 0.027113506570458412, 0.04438714310526848, 0.012450873851776123, 0.005184980574995279, 0.0014921711990609765, 0.01449473574757576, 0.013245361857116222, 0.007992965169250965, -0.024377664551138878, -0.02383587136864662, 0.00852279644459486, 0.015717744827270508], [-0.007507280446588993, 0.020417144522070885, -0.015240710228681564, -0.009225890040397644, 0.04811897501349449, -0.013208109885454178, 0.006635845173150301, 0.058314912021160126, 0.015425937250256538, 0.01961090788245201, -0.030226973816752434, 0.0023693102411925793, -0.01135106198489666, -0.010615035891532898, -0.03152340278029442, 0.005120096728205681, -0.009678489528596401, 0.0008283748757094145, -0.00036762712989002466, -0.01642022468149662, -0.013349322602152824, -0.00530690373852849, -0.05372624099254608, -0.01463750097900629, -0.010764970444142818, -0.035017505288124084, 0.029555853456258774, -0.005305059254169464, -0.01467403769493103, 0.03233150392770767, 0.013386365957558155, -0.0021271647419780493], [0.00996739137917757, -0.0010452755959704518, 0.01504864264279604, 0.008996439166367054, 0.007693606428802013, -0.013620458543300629, -0.008318192325532436, 0.009082553908228874, 0.020081808790564537, 0.024625377729535103, -0.012727583758533001, 0.015752026811242104, 0.02443837560713291, 0.023734556511044502, 0.02196589484810829, 0.022415531799197197, 0.04189777746796608, -0.022875869646668434, 0.014190666377544403, -0.018282201141119003, -0.01807796023786068, -0.012665746733546257, -0.004289489705115557, 0.011195591650903225, -0.020190641283988953, -0.004543907940387726, -0.018646448850631714, 0.006167795974761248, 0.011378554627299309, -0.02051573246717453, 0.01092828344553709, 0.0009392493520863354], [-0.019024236127734184, -0.021990014240145683, 0.00023813136795070022, 0.01586826704442501, 0.0016165664419531822, 0.02163204364478588, -0.011265854351222515, 0.02850787341594696, -0.03808726370334625, 0.01882595755159855, -0.0022670018952339888, -0.008601092733442783, -0.023614509031176567, 0.005283227656036615, -0.011450291611254215, -0.013664268888533115, 0.008085967041552067, -0.02247779071331024, -0.022753749042749405, 0.01724192313849926, 0.003233157331123948, -0.009356427006423473, -0.025482462719082832, 0.02453307807445526, -0.04476933553814888, -0.013407133519649506, 0.010387446731328964, -0.027807433158159256, -0.019123123958706856, 0.006459150929003954, -0.00592439342290163, -0.020445913076400757], [-0.011273384094238281, 0.003714547725394368, 0.030201362445950508, 0.04045640677213669, -0.011672424152493477, 0.002865099348127842, 0.008680029772222042, 0.0024372474290430546, -0.0012041231384500861, -0.0037578626070171595, 0.013552306219935417, -0.013259793631732464, -0.015948358923196793, -0.004945508670061827, -0.010937897488474846, -0.05559553578495979, -0.012320267036557198, 0.019879352301359177, -0.001149298856034875, 0.014540690928697586, 0.030945124104619026, -0.003773992182686925, -0.016069086268544197, -0.017210889607667923, 0.011934550479054451, 0.02566942572593689, 0.01542217843234539, -0.026532448828220367, -0.01168071012943983, 0.007767269853502512, -0.001117376028560102, -0.03417261689901352], [-0.012897812761366367, 0.017891548573970795, -0.014956029132008553, -0.019158270210027695, 0.03996039927005768, 0.010065113194286823, 0.0150412917137146, -0.009038060903549194, -0.003436672268435359, -0.03149542585015297, -0.024593515321612358, 0.0001727757917251438, 0.01834976114332676, 0.005537205841392279, 0.00351541000418365, -0.03014119155704975, -0.009236179292201996, -0.008278033696115017, 0.009287047199904919, -0.02350648120045662, 0.02623872645199299, 0.059321578592061996, 0.005634484812617302, 0.015474355779588223, 0.0019776704721152782, -0.034532707184553146, -0.012574340216815472, -0.02413197234272957, 0.0005753012374043465, -0.009652863256633282, -0.009556840173900127, 0.006435626186430454], [0.003215443342924118, -6.119711906649172e-05, -0.0007698991685174406, -0.005001659505069256, 0.009286335669457912, -0.051408275961875916, -0.014502325095236301, 0.01118149608373642, 0.030946535989642143, -0.0036377140786498785, -0.008022097870707512, -0.02781963348388672, -0.007081329822540283, -0.010223368182778358, -0.017531344667077065, -0.01954628713428974, -0.024061057716608047, 0.020184943452477455, -0.007990040816366673, 0.00629380252212286, 0.016244996339082718, 0.012521157041192055, 0.028087088838219643, 0.00358971138484776, -0.050845060497522354, -0.01012917049229145, -0.023857781663537025, 0.005404777359217405, 0.028681188821792603, 0.005312344990670681, 0.026631729677319527, 0.020737532526254654], [-0.025194624438881874, -0.0009227535920217633, -0.017373841255903244, 0.014149553142488003, -0.004274615086615086, 0.0358293242752552, -0.0021694465540349483, 0.019436078146100044, 0.006837388500571251, 0.010201172903180122, -0.009009744971990585, -0.007689025718718767, 0.007043004501610994, 0.022426124662160873, -0.030483238399028778, -0.026686903089284897, -0.018698114901781082, -0.007780998945236206, -0.007970869541168213, 0.033518943935632706, 0.02225259318947792, -0.005458517465740442, -0.025617925450205803, 0.022674640640616417, 0.000303880893625319, -0.002066147979348898, 0.010748323053121567, 0.004753261338919401, -0.02911587432026863, -0.010408809408545494, 0.014694147743284702, 0.010500640608370304], [-0.01731347106397152, -0.007012625690549612, -0.012179802171885967, 0.023697899654507637, -0.0005065624136477709, 0.0112158739939332, 0.0046080900356173515, 0.009516851045191288, -0.01225772500038147, 0.014696764759719372, -0.011338685639202595, 0.013331163674592972, -0.02784768119454384, 0.02024495229125023, -0.018624451011419296, -0.04170592874288559, -0.003689233213663101, 0.007785199210047722, 0.01782822422683239, -0.001746663823723793, -0.017056329175829887, -0.00872653629630804, 0.013698958791792393, -0.01436029002070427, -0.012285825796425343, 0.033249303698539734, 0.027513736858963966, 0.010833580046892166, 0.00040677489596419036, 0.008310873061418533, 0.009947330690920353, 0.015740564092993736], [-0.010388265363872051, -0.015485764481127262, 0.009016342461109161, 0.005299743264913559, -0.018672475591301918, 0.026062054559588432, 0.0023386566899716854, -0.012433210387825966, 0.01505275908857584, -0.018726717680692673, 0.01775069162249565, 0.01054098829627037, 0.0007261249120347202, -0.017485778778791428, -0.008527576923370361, -0.013381137512624264, 0.036605678498744965, -0.010206202045083046, 0.029249202460050583, 0.005686127580702305, -0.01882215216755867, 0.01867210492491722, -0.010016118176281452, -0.02088409848511219, 0.004712000954896212, 0.011761224828660488, -0.0163991991430521, -0.02911449782550335, -0.0121380053460598, 0.013270906172692776, 0.006171267479658127, -0.011790184304118156], [-0.012387133203446865, 0.005686113145202398, 0.021258985623717308, 0.0050940546207129955, 0.007452088408172131, 0.01305396668612957, 0.013498463667929173, 0.018650230020284653, 0.006467602681368589, -0.011114420369267464, -0.02010646089911461, 0.021587537601590157, 0.013113223947584629, -0.0001820546603994444, -0.027795754373073578, -0.043623488396406174, 0.011485631577670574, -0.003973052836954594, -0.017247185111045837, 0.006089594215154648, -0.01953265070915222, -0.016459636390209198, -0.012059378437697887, 0.005190102383494377, -0.014114069752395153, 0.022329101338982582, -0.007245330139994621, -0.029285460710525513, 0.022421052679419518, 0.0034941809717565775, 0.020175229758024216, -0.008180874399840832], [0.023701051250100136, -0.019341060891747475, -0.011434623971581459, -0.0038684469182044268, -0.004999215714633465, 0.02443268895149231, -0.032859042286872864, -0.00769558222964406, -0.05474931746721268, -0.02275962568819523, -0.0013878437457606196, -0.03244151175022125, 0.015460731461644173, 0.0014120287960395217, -0.000530879246070981, -0.014095325954258442, 0.018647830933332443, 0.016750657930970192, -0.06276550143957138, -0.01582363434135914, -0.019467025995254517, 0.022305985912680626, -0.021846506744623184, -0.0035641652066260576, 0.009884901344776154, 0.015516110695898533, -0.04665793851017952, 0.011594381183385849, 0.02932610921561718, 0.011050689965486526, -0.00891188345849514, -0.01423273328691721], [-0.020888568833470345, 0.013459397479891777, 0.01376516092568636, 0.029148481786251068, -0.007737392093986273, 0.012731505557894707, 0.028050925582647324, 0.03250092640519142, -0.016399262472987175, -0.017006635665893555, -0.03193557262420654, -0.02340558171272278, -0.002931346883997321, 0.015267109498381615, -0.0015509495278820395, 0.03637915477156639, 0.016890281811356544, 0.0196882002055645, 0.005102463997900486, 0.0016239825636148453, -0.014646433293819427, 0.009100787341594696, -0.03505340963602066, -0.006351039279252291, -0.004318919964134693, 0.027424892410635948, 0.008287085220217705, -0.04619492590427399, 0.017043503001332283, 0.03040645830333233, 0.002847647061571479, -0.0015802460256963968], [0.043197665363550186, -0.038665976375341415, -0.005638583563268185, -0.002608829876407981, 0.042414698749780655, -0.05974363535642624, 0.011148879304528236, 0.002809041179716587, -0.02591455914080143, 0.02124738320708275, -0.020075393840670586, 0.0391358882188797, -0.004718224052339792, -0.044668760150671005, -0.005257625598460436, -0.03510955348610878, -0.017241625115275383, -0.01983197219669819, 0.01969820261001587, -0.005227583460509777, -0.00765229994431138, 0.047453027218580246, -0.009158862754702568, -0.00901336595416069, 0.015201698057353497, -0.04862207919359207, 0.007018568925559521, 0.035329919308423996, -0.010519711300730705, -0.02652452327311039, -0.007094817701727152, -0.015498285181820393], [-0.040976643562316895, 0.027837533503770828, 0.024219872429966927, 0.02362099662423134, 0.01639479398727417, -0.026620754972100258, -0.0006525808712467551, -0.041725754737854004, 0.012539585120975971, 0.0050838110037148, -0.00757343927398324, 0.008521225303411484, 0.026579979807138443, -0.002440536627545953, 0.014738223515450954, -0.0023455379996448755, 0.012300587259232998, 0.023809196427464485, 0.002949500223621726, 0.008451665751636028, 0.005386820528656244, 0.025125497952103615, -0.01719736121594906, -0.004912282805889845, 0.01694982685148716, -0.009748546406626701, 0.0009498474537394941, 0.0032137061934918165, -0.0010227968450635672, 0.007451603654772043, 0.00606597401201725, 0.013980082236230373], [-0.03580231964588165, 0.013002433814108372, 0.006589564960449934, 0.008510597981512547, -0.013527135364711285, 0.007157766725867987, -0.025710755959153175, 0.015261958353221416, 0.0404198057949543, -0.01196691207587719, 0.0023041474632918835, -0.013802300207316875, 0.032795846462249756, -0.006301631219685078, -0.014779734425246716, -0.011088418774306774, -0.017715642228722572, 0.01071845181286335, 0.061599329113960266, 0.008160635828971863, -0.001455719699151814, 0.008304808288812637, -0.00878771860152483, -0.021645765751600266, -0.03985532745718956, -0.001161748543381691, 0.0027284217067062855, 0.0022088445257395506, 0.033254921436309814, -0.013810727745294571, -0.016181007027626038, 0.011129400692880154], [0.0188189297914505, 0.0069121974520385265, -0.009518452920019627, 0.03474268317222595, -0.027311667799949646, 0.02124808542430401, 0.01259175781160593, -0.00470912316814065, -0.02845505252480507, 0.018229203298687935, 0.0010862170020118356, -0.03758447244763374, 0.04451226443052292, 0.022926555946469307, -0.024421600624918938, -0.03968745470046997, 0.005665748380124569, 0.02924772910773754, -0.03177192434668541, -0.014063196256756783, 0.02975684031844139, 0.01024754997342825, -0.011596309952437878, -0.03378093242645264, 0.018260924145579338, -0.022081425413489342, 0.024889668449759483, 0.015415533445775509, -0.006072146352380514, 0.0005181804299354553, 0.0016727737383916974, -0.017396755516529083], [0.0216052383184433, -0.03654702007770538, -0.025957016274333, -0.0020486111752688885, -0.002720907563343644, -0.012163210660219193, 0.010500520467758179, -0.028892774134874344, 0.017208080738782883, -0.015101308934390545, -0.022355156019330025, -0.04072048142552376, -0.0028413613326847553, -0.023909417912364006, -0.02962261065840721, -0.0041658696718513966, -0.004437009803950787, 0.008988781832158566, -0.019920406863093376, -0.007855805568397045, -0.00692751444876194, 0.011000154539942741, -0.029565440490841866, -0.0019590980373322964, 0.03159663453698158, 0.02198217809200287, -0.004844645969569683, -0.010721019469201565, 0.007791064213961363, -0.005059493705630302, -0.026805002242326736, 0.013962619937956333], [0.006550814490765333, 0.020096933469176292, -0.013424907810986042, 0.003939003683626652, 0.009391611441969872, -0.022277124226093292, -0.015408206731081009, 0.005033062770962715, 0.007072725798934698, -0.035833314061164856, 0.019507769495248795, -0.00444466806948185, 0.006245368160307407, -0.0013699319679290056, -0.04226816073060036, -0.024820024147629738, 0.010950659401714802, -0.013467882759869099, 0.008891012519598007, 0.005893402732908726, -0.008882930502295494, -0.0017282271292060614, -0.01767740026116371, -0.02158687263727188, -0.018172264099121094, -0.013105836696922779, 0.02285192348062992, 0.002451515756547451, 0.028664832934737206, -0.015921732410788536, 0.0012351033510640264, 0.037885669618844986], [-0.028122812509536743, -0.0035779166501015425, -0.013547105714678764, 0.02964012883603573, 0.02306920476257801, -0.009050234220921993, -0.008360520005226135, 0.0009347395971417427, -0.011157208122313023, 0.023712268099188805, -0.04329327493906021, 0.008507015183568, 0.03563208878040314, -0.015196881256997585, -0.009329668246209621, -0.006540786009281874, 0.027630150318145752, -0.03141671046614647, -0.04678947851061821, 0.026908857747912407, 0.006030193530023098, -0.002390512265264988, -0.033185478299856186, -0.04126443713903427, -0.024330565705895424, -0.04409979656338692, 0.008728137239813805, 0.016422871500253677, -0.024944616481661797, -0.004659869708120823, -0.0331074520945549, -0.004539450630545616], [-0.013195409439504147, -0.011091620661318302, 0.021320955827832222, -0.01753794215619564, -0.005626162048429251, -0.018144743517041206, -0.012273704633116722, 0.033482689410448074, 0.02079167775809765, -0.0281322430819273, -0.0058134691789746284, 0.024357331916689873, 0.016614878550171852, 0.02259146422147751, -0.008440026082098484, -0.005583660677075386, -0.006807174999266863, 0.059707820415496826, 0.019654251635074615, 0.017169471830129623, 0.02079598791897297, 0.005119596142321825, -0.0010192999616265297, -0.014615464024245739, -0.02139674872159958, -0.005947413854300976, 0.0009808918694034219, 0.003133948426693678, -0.019629601389169693, -0.0445718988776207, 0.006011937279254198, -0.014462701976299286], [0.010591108351945877, -0.020357200875878334, 0.0007080862415023148, 0.012021909467875957, 0.0390656515955925, 0.02903219871222973, 0.00976225733757019, 0.0017732639098539948, 0.00745816295966506, 0.007605321705341339, -0.028310947120189667, -0.012548406608402729, -0.00029404100496321917, 0.00020300869073253125, -0.0023727426305413246, 0.0032020332291722298, 0.026576800271868706, 0.0021558983717113733, -0.012013260275125504, -0.018312541767954826, 0.008023050613701344, 0.008106067776679993, -0.020527169108390808, 0.007298783399164677, 0.016607318073511124, -0.0041641127318143845, -0.045490726828575134, -0.01814415492117405, -0.003343950491398573, -0.00727514922618866, 0.04661710560321808, 0.0036630721297115088], [-0.029015282168984413, 0.011261803098022938, -0.0036654050927609205, -0.011675515212118626, -0.01876605674624443, -0.022871358320116997, 0.02465362288057804, 0.01605316437780857, -0.01785522885620594, -0.028675708919763565, 0.0047589195892214775, 0.029975060373544693, -0.004952314309775829, 0.007407387252897024, 0.02546031028032303, -0.049442876130342484, -0.010792907327413559, 0.015725798904895782, 0.02330203726887703, -0.018158312886953354, 0.03543107584118843, -0.0005174939287826419, 0.0032118591479957104, 0.019119825214147568, -0.02445761114358902, 0.014402159489691257, -0.007853081449866295, -0.01089166384190321, 0.012829018756747246, -0.007722383365035057, 0.01576828770339489, 0.002401899779215455], [0.013319063931703568, 0.010406477376818657, 0.0022020682226866484, 0.006320764310657978, 0.02980836108326912, -0.008391335606575012, 0.03011045791208744, -0.004952846560627222, -0.014333673752844334, -0.013258119113743305, 0.005406099837273359, -0.012183144688606262, 0.006061151623725891, -0.0466676689684391, -0.006330579984933138, -0.035193681716918945, 0.021380586549639702, -0.011759919114410877, -0.012042639777064323, 0.03375406190752983, 0.012125696055591106, 0.0026865038089454174, 0.01010819524526596, -0.003179132239893079, -0.002898644655942917, -0.026877839118242264, -0.028060557320713997, 0.020175551995635033, 0.010634413920342922, -0.020314360037446022, -0.0019702985882759094, -0.008215176872909069], [0.009312528185546398, 0.029922189190983772, 0.023337963968515396, 0.008102310821413994, -0.03941672667860985, -0.024726981297135353, -0.02166084758937359, 0.021475696936249733, 0.020603852346539497, 0.020848099142313004, 0.022987334057688713, -0.013458306901156902, -0.035056985914707184, -0.012171268463134766, 0.012884872034192085, 0.04670245572924614, -0.0038689598441123962, 0.06217563897371292, 0.017896609380841255, -0.021602582186460495, -0.002352107549086213, 0.006567537784576416, 0.023250486701726913, -0.021696260198950768, -0.03924277424812317, -0.0006642108201049268, -0.004196815192699432, -0.006546406541019678, -0.024869656190276146, 0.021394142881035805, -0.00024759338703006506, 0.009381406009197235], [0.019563103094697, 0.008332854136824608, 0.004433562513440847, 0.0006436961120925844, -0.012545383535325527, 0.027239948511123657, -0.003740600310266018, 0.009023934602737427, -0.02040560357272625, -0.012626124545931816, -0.039799001067876816, 0.0026172157377004623, 0.009619219228625298, -0.005725387018173933, -0.00842841062694788, 0.00017617006960790604, -0.006506288889795542, 0.007436163257807493, 0.01642792671918869, -0.00011140573769807816, -0.0031890433747321367, 0.0007733634556643665, 0.001269152737222612, -0.0031311491038650274, -0.019602013751864433, 0.012955058366060257, 0.005005630664527416, -0.03130152076482773, 0.0033810515888035297, -0.03232627734541893, 0.021751727908849716, 0.03779573738574982], [0.0013741932343691587, -0.015558925457298756, -0.016232306137681007, 0.0038266556803137064, 0.024418260902166367, -0.0034387337509542704, 0.02924213372170925, -0.020502246916294098, -0.03339439257979393, -0.0053910305723547935, -0.0057700579054653645, 0.019276272505521774, -0.016412628814578056, -0.02020876109600067, 0.03025670163333416, -0.03292746841907501, 0.008405200205743313, -0.009575201198458672, 0.04336879774928093, -0.0068671382032334805, -0.026265710592269897, -0.003255374962463975, 0.021731702610850334, -0.004700672347098589, 0.011371648870408535, -0.02404429204761982, -0.0023112271446734667, 0.01670903153717518, -0.039730191230773926, -0.010069042444229126, -0.016681773588061333, -0.01938478834927082], [-0.040407441556453705, -0.007665911689400673, 0.006918805185705423, 0.03390468657016754, -0.02516622096300125, 0.005733405705541372, 0.015732835978269577, -0.010873466730117798, 2.4360566385439597e-05, -0.01636647991836071, -0.02629242278635502, -0.006570898927748203, 0.0006251501035876572, 0.010043255053460598, 0.008107371628284454, 0.008575355634093285, 0.011771101504564285, -0.019750472158193588, -0.0068290093913674355, -0.008465534076094627, -0.006137049291282892, 0.0015333560295403004, -0.041474007070064545, 0.002175970235839486, 0.0011157869594171643, -0.007003661710768938, 0.0324951708316803, -0.012684573419392109, -0.005229721777141094, 0.0063920519314706326, -0.01732281967997551, 0.03462064266204834], [-0.03641902655363083, 0.01906963624060154, -0.008486446924507618, 0.010194720700383186, -0.03630148246884346, -0.02068164013326168, 0.022724568843841553, 0.007500817999243736, -0.010592268779873848, -0.004504983779042959, 0.014321567490696907, 0.010379946790635586, 0.019447941333055496, 0.0255584716796875, 0.02710127830505371, 0.012638443149626255, -0.0028234636411070824, -0.04485875368118286, 0.01900901086628437, -0.015930622816085815, 0.0018283954123035073, 0.046043574810028076, 0.030269039794802666, 0.019786905497312546, 0.008301007561385632, -0.01899193786084652, 0.010650609619915485, 0.02083543688058853, 0.006928666029125452, 0.002295614220201969, 0.026864878833293915, -0.005386957898736], [0.016431434080004692, -0.03133605793118477, 0.006583681330084801, 0.029266830533742905, -0.01887597143650055, -0.004393826704472303, -0.016823818907141685, -0.011234091594815254, 0.006836878135800362, 0.003312166780233383, 0.004175055772066116, -0.011905618943274021, 0.0010812794789671898, -0.02406102418899536, 0.031767215579748154, -0.026556216180324554, 0.005739902146160603, 0.008161204867064953, 0.03235502541065216, -0.01049325056374073, -0.007858897559344769, -0.005430880002677441, -0.02396923489868641, -0.004141021985560656, -0.03194442018866539, 0.009175511077046394, -0.014748025685548782, -0.03845575079321861, 0.024731997400522232, -0.01342307310551405, 0.025099296122789383, -0.005822538398206234], [0.013669122941792011, 0.021802395582199097, 0.008379088714718819, -0.048032183200120926, -0.010327920317649841, -0.0183182992041111, 0.011983449570834637, -0.015027495101094246, -0.012455952353775501, -0.0017113324720412493, -0.018517673015594482, 0.0023067325819283724, -0.06316092610359192, 0.012867823243141174, 0.02494615502655506, -0.03831049054861069, -0.0012466731714084744, 0.03824356570839882, -0.021331842988729477, 0.029956208541989326, 0.00633943360298872, -0.016026990488171577, 0.029463496059179306, 0.001672660931944847, 0.01205100305378437, 0.0019556900952011347, 0.006188948638737202, -0.011335229501128197, 0.00390362786129117, 0.010199117474257946, 0.04354051873087883, -0.000828753225505352], [0.011233399622142315, 0.023063763976097107, 0.01709594950079918, -0.008896859362721443, -0.0012585071381181479, -0.021138569340109825, -0.02811148762702942, -0.011798233725130558, 0.01725788228213787, -0.010448490269482136, -0.029149217531085014, 0.018998010084033012, 0.0139694195240736, 0.011229578405618668, 0.016370028257369995, 0.008941324427723885, 0.004954061005264521, 0.00863745715469122, 0.020691828802227974, 0.04365277662873268, -0.04499834030866623, -0.012438838370144367, -0.012183526530861855, 0.023451553657650948, 0.008335912600159645, 0.003902897471562028, -0.003513000439852476, 0.009410650469362736, -0.00808339286595583, -0.004884038120508194, 0.03973124921321869, 0.005893007852137089], [-0.008678816258907318, 0.01090343575924635, -0.022116772830486298, -0.0013882562052458525, -0.0031345610041171312, 0.021365618333220482, 0.028457872569561005, 0.029270242899656296, -0.01680739037692547, -0.001640123431570828, -0.004056944046169519, -0.013894830830395222, -0.015476024709641933, 0.0005390684236772358, -0.0023686587810516357, -0.03364105150103569, 0.061550553888082504, -0.00824942160397768, 0.029103722423315048, 0.004592602141201496, -0.01225053146481514, 0.006819823756814003, -0.0007240551640279591, 0.0042656646110117435, 0.004293506033718586, -0.02283758856356144, -0.013360602781176567, 0.04262066259980202, 0.008708617649972439, -0.018836436793208122, 0.0027431666385382414, 0.030592838302254677], [-0.003707987256348133, 0.009079443290829659, 0.032600004225969315, 0.0043916585855185986, -0.05484088882803917, -0.009312091395258904, -0.011408231221139431, -0.00414178567007184, 0.011753354221582413, -0.02578580565750599, 0.005299720447510481, 0.024474995210766792, -0.0037309809122234583, -0.002938544610515237, 0.022066716104745865, 0.03711637109518051, -0.014834758825600147, -0.008302557282149792, -0.0008210145751945674, -0.004483575001358986, -0.0160877276211977, 0.017832688987255096, -0.003841342171654105, 0.018121065571904182, -0.003875029506161809, 0.0223055612295866, 0.013636059127748013, 0.016916796565055847, -0.04681495204567909, -0.02847990207374096, -0.035976242274045944, 0.00043392134830355644], [0.00791053008288145, -0.03237924352288246, 0.0006934127886779606, 0.01264155562967062, 0.018767099827528, 0.024221301078796387, -0.010789268650114536, -0.02542605996131897, 0.04826507344841957, -0.010041854344308376, 0.019818812608718872, -0.011874551884829998, -0.017646754160523415, -0.007661358918994665, -0.012731323018670082, -0.01365844439715147, -0.010796187445521355, 0.006790501996874809, -0.023127948865294456, -0.0018556202994659543, 0.0029391837306320667, -0.013618477620184422, -0.0009414131054654717, -0.008656810037791729, 0.0064182523638010025, -0.020325032994151115, 0.021324940025806427, 0.0021920171566307545, -0.024516576901078224, -0.0035475275944918394, -0.03918660432100296, 0.01376036275178194], [-0.026209866628050804, 0.0004940649960190058, -0.009469723328948021, -0.0063473922200500965, -0.001719488063827157, -0.00014469990856014192, -0.018578168004751205, -0.02455586940050125, 0.026368355378508568, -0.0017393887974321842, -0.00045024981955066323, 0.004046829417347908, 0.014612254686653614, 0.014483444392681122, 0.024387935176491737, 0.0038909774739295244, 0.004693474154919386, 0.013469487428665161, -0.00216346001252532, -0.003961519338190556, -0.020586885511875153, 0.01059640385210514, -0.03288167715072632, -0.01967509835958481, -0.03134625405073166, 0.013202366419136524, 0.02476068213582039, -0.008264025673270226, -0.015698814764618874, 0.039586082100868225, 0.002299972577020526, 0.017829399555921555], [-0.0034776569809764624, -0.03384602814912796, 0.017315110191702843, 0.013623062521219254, 0.0015328372828662395, -0.003910342697054148, 0.0026616465765982866, 0.015538820996880531, 0.000893252610694617, 0.007207114715129137, 0.00011367721162969247, 0.010841213166713715, 0.006698491517454386, 0.023476261645555496, 0.005575244780629873, -0.012258052825927734, 0.013823051936924458, -0.02193249948322773, -0.01645824685692787, 0.01744188368320465, -0.007512619253247976, 0.009402030147612095, -0.0008500653202645481, -0.054879553616046906, -0.026513902470469475, -0.013851750642061234, 0.013732603751122952, -0.003291871165856719, 0.008787136524915695, 0.04353072866797447, 0.009704722091555595, 0.0050825271755456924], [0.011225386522710323, -0.00962790660560131, -0.002212676452472806, -0.010101336054503918, 0.002526185242459178, 0.007787668611854315, -0.024720722809433937, 0.05344744399189949, -0.006872286554425955, -0.003449665615335107, -0.016025003045797348, 0.03039252944290638, 0.017122894525527954, 0.010042115114629269, -0.003599343588575721, -0.00848564226180315, -0.00865963101387024, 0.01118206325918436, 0.00975012592971325, 0.019174393266439438, -0.007970358245074749, 0.03892989456653595, 0.014667294919490814, 0.01872098259627819, 0.005331759341061115, -0.019983448088169098, -0.027219781652092934, -0.016452167183160782, 0.009473327547311783, -0.01366592850536108, -0.014408471062779427, -0.002468742663040757], [-0.02498520538210869, 0.0005038264789618552, -0.031337711960077286, -0.03807410970330238, -0.01610906980931759, -0.011777724139392376, -0.01320000272244215, 0.017643652856349945, 0.011051315814256668, 0.018320322036743164, 0.010481629520654678, 0.013594026677310467, -0.0020770032424479723, -0.005175310652703047, -0.0010040164925158024, 0.008675389923155308, -0.02335447259247303, -0.003053139429539442, -0.001808531116694212, 0.018356790766119957, -0.02668187953531742, 0.03178522363305092, -0.006974631920456886, -0.003417943138629198, 0.02536609023809433, 8.339045598404482e-05, -0.004786012228578329, 0.013666964136064053, -0.0018845847807824612, -0.016620129346847534, -0.00926812645047903, 0.028735101222991943], [-0.020376846194267273, 0.022774238139390945, 0.012713795527815819, -0.0010801489697769284, 0.01765792816877365, -0.03434351459145546, 0.016361253336071968, 0.002630371367558837, -0.008166595362126827, 0.009094875305891037, 0.0242892038077116, 0.022840874269604683, 0.03293300420045853, -0.0066691492684185505, 0.0019234801875427365, 0.002715000184252858, 0.02398797683417797, -0.013613766990602016, -0.05532677471637726, -0.023403117433190346, -0.013016484677791595, -0.0004744738107547164, -0.030068814754486084, 0.027735847979784012, -0.039197977632284164, -0.03209004923701286, 0.012460798025131226, 0.001752561191096902, 0.02207343280315399, -0.04004177823662758, 0.0345231369137764, 0.0029149213805794716], [-0.003945949487388134, -0.01333807036280632, 0.0005883622216060758, -0.010338515043258667, -0.01810966432094574, 0.023142827674746513, 0.0026232353411614895, 0.013693096116185188, -0.0055393013171851635, 0.006478255148977041, -0.02928360551595688, -0.001481850747950375, 0.0033768608700484037, 0.017804229632019997, 0.011591439135372639, 0.01924101449549198, 0.003638578811660409, -0.03551340475678444, -7.155873026931658e-05, -0.01415869127959013, 0.013601385988295078, -0.02731679379940033, 0.003222985891625285, 0.04292941093444824, -0.014759833924472332, 0.03758327290415764, -0.0323009230196476, 0.012752683833241463, 0.023180868476629257, 0.015100753866136074, 0.0021270352881401777, -0.0021946635097265244], [-0.03564296290278435, 0.005947926547378302, -0.002424331381917, 0.005655210465192795, -0.025253325700759888, 0.008785353042185307, 0.004651186056435108, 0.013734018430113792, 0.020207272842526436, -0.0015936951385810971, 0.03369476646184921, -0.0013501569628715515, -0.02706063725054264, 0.026316331699490547, 0.02218269556760788, 0.030240092426538467, -0.024245325475931168, 0.012290386483073235, -0.010335853323340416, 0.033277466893196106, 0.03169494494795799, 0.0055610002018511295, -0.0021871752105653286, 0.03228776529431343, 0.012597208842635155, -0.021592717617750168, -0.023837320506572723, 0.02079022116959095, 0.002600841224193573, 0.006631845608353615, 0.03983832895755768, -0.0020118476822972298], [0.023450762033462524, -0.008097493089735508, -0.023621294647455215, 0.0063082147389650345, 0.008028890006244183, 0.011547403410077095, 0.028965558856725693, -0.02107606828212738, -0.028158731758594513, 0.019442331045866013, 0.03209991008043289, 0.028286589309573174, -0.007412004750221968, 0.002465486526489258, -0.013340160250663757, 0.02155243791639805, 0.024494649842381477, 0.014322295784950256, -0.02733793668448925, -0.028022393584251404, 0.012557859532535076, 0.029839346185326576, 0.0019437369192019105, 0.002767859725281596, -0.005534819792956114, -0.0266373660415411, -0.007129114121198654, -0.02162312902510166, -0.03030458651483059, -0.011838252656161785, -0.03592173382639885, -0.007281504105776548], [0.019932489842176437, 0.02856682427227497, 0.033327702432870865, -0.01704932376742363, -0.035754766315221786, 0.041807401925325394, -0.03458014503121376, 0.023100784048438072, -0.052611421793699265, -0.02678872086107731, 0.004370504524558783, 0.0038879162166267633, -0.02461816556751728, 0.004487012047320604, -0.05946919322013855, 0.014171600341796875, 0.003643760224804282, 0.029213756322860718, 0.02823556400835514, 0.002507637022063136, -0.0038283865433186293, -0.036863505840301514, 0.016426898539066315, -0.009766759350895882, -0.04834405332803726, 0.014780441299080849, -0.003318238537758589, -0.01792416162788868, -0.01442727167159319, 0.025083307176828384, -0.013366867788136005, 0.019716335460543633], [0.01642940193414688, 0.0060790651477873325, 0.00824289582669735, -0.0004200002586003393, -0.01823071762919426, 0.006886230781674385, 0.007582665421068668, -0.021496810019016266, -0.027824321761727333, -0.0249131228774786, -0.008433048613369465, -0.006070626899600029, -0.017430245876312256, -0.011429560370743275, 0.013760636560618877, 0.022324446588754654, -0.01595623604953289, 0.003505618777126074, -0.0024402395356446505, -0.003963373601436615, -0.022163446992635727, 0.03413804620504379, -0.007492749486118555, 0.00640064338222146, -0.02681419998407364, 0.018979106098413467, -0.012503748759627342, 0.01712595485150814, -0.010753249749541283, -0.001828619628213346, -0.04131019115447998, 0.05054472014307976], [0.00454094260931015, -0.006120491307228804, 0.007923442870378494, -0.03570765629410744, -0.01991652511060238, -0.03449171781539917, -0.01043938659131527, -0.012278414331376553, -0.012112388387322426, -0.010476326569914818, -0.028542429208755493, 0.007749705109745264, 0.03000122681260109, 0.024642476812005043, 0.024582048878073692, -0.003129508113488555, 0.030817249789834023, 0.002932557137683034, 0.01386415958404541, -0.012827367521822453, -0.00956659484654665, 0.019938886165618896, -0.03678857535123825, 0.011641355231404305, -5.176447666599415e-05, 0.026490673422813416, -0.010628314688801765, 0.03625126928091049, 0.01336678396910429, -0.032860103994607925, -0.010276191867887974, 0.018922070041298866], [-0.010501091368496418, -0.01952560804784298, 0.008384289219975471, 0.007442818488925695, -0.03032773733139038, 0.03496716544032097, -0.016347341239452362, -0.03926553577184677, -0.03197389096021652, -0.0036357275675982237, 0.01120708603411913, -0.003529560286551714, 0.010961746796965599, 0.006468882784247398, 0.004136322531849146, 0.015468042343854904, 0.01378302089869976, 0.022051529958844185, -0.008510718122124672, 0.001008412567898631, -0.0017271224642172456, -0.016657939180731773, 0.001764739747159183, -0.008972150273621082, 0.01671457290649414, -0.003982658497989178, 0.007047961000353098, 0.008923929184675217, -0.0007034048321656883, 0.0016984641551971436, -0.025776833295822144, 0.0001578788214828819], [-0.003683018032461405, -0.02560919150710106, -0.042996831238269806, -0.015833720564842224, 0.021608710289001465, 0.00027593295089900494, 0.0048094745725393295, 0.021467791870236397, -0.0015345572028309107, 0.02842598780989647, -0.0044635082595050335, 0.00789863895624876, -0.03531527519226074, 0.03474731370806694, 0.02569865807890892, 0.027793487533926964, -0.0013791953679174185, -0.0007760223816148937, -0.0436023473739624, 0.002945531625300646, 0.010297385044395924, -0.01999763958156109, 0.03391558676958084, -0.03127565607428551, -0.011987498961389065, -0.011953108012676239, -0.000503963849041611, 0.022585496306419373, 0.0012047872878611088, -0.012419075705111027, -0.02824375405907631, 0.00044285773765295744], [0.005903927143663168, 0.018579993396997452, 0.032076478004455566, 0.03347161412239075, -0.004783415701240301, -0.01601560227572918, 0.034113429486751556, -0.00833324994891882, -0.004378595855087042, -0.003603727323934436, -0.0012607888784259558, -0.011774188838899136, -0.006392472889274359, -0.014525777660310268, 0.0032997517846524715, -0.01990458555519581, -0.00862754788249731, 0.002978309988975525, -0.02033388987183571, 0.0001151451506302692, 0.017650380730628967, 0.004425702150911093, 0.020678799599409103, 0.00880784634500742, -0.013220284134149551, -0.009246683679521084, -0.002615481149405241, -0.024492796510457993, -0.035039372742176056, 0.020793210715055466, 0.004725094884634018, -0.012693454511463642], [-0.02635526843369007, 0.0019532269798219204, -0.024205561727285385, 0.01328603457659483, 0.020672384649515152, -0.005907627288252115, 0.014493291266262531, 0.004455516580492258, -0.010354076512157917, 0.003631212515756488, 0.02512255683541298, -0.012051352299749851, 0.010120691731572151, -0.01943816803395748, 0.013635165058076382, -0.012583631090819836, 0.004453203175216913, 0.03237223997712135, -0.03714488446712494, -0.01853742077946663, -0.024282202124595642, -0.010084765963256359, -0.001967055257409811, 0.00655613886192441, -0.024375056847929955, 0.031773973256349564, 0.010676804929971695, 0.01156461052596569, -0.030351903289556503, -0.007159884553402662, -0.011385823599994183, -0.0047762468457221985], [0.011663603596389294, 0.039191678166389465, -0.013329080305993557, -0.03300263732671738, -0.007475713733583689, 0.004548314027488232, 0.003421911271288991, 0.015030644834041595, -0.0029017706401646137, -0.014173636212944984, -0.012255745939910412, 0.0038760178722441196, 0.030987901613116264, -0.034277237951755524, -0.007184086367487907, -0.023229457437992096, 0.035869624465703964, 0.001982962479814887, 0.004214183427393436, 0.008283532224595547, -0.0008756598690524697, 0.02893071062862873, -0.027289483696222305, -0.029147619381546974, -0.026444558054208755, -0.02109520323574543, -0.008332713507115841, -0.006301135756075382, -0.013041164726018906, 0.012702807784080505, 0.003445320762693882, 0.02811504155397415], [0.019982099533081055, -0.037037163972854614, 0.03251112997531891, -0.017677664756774902, -0.020437095314264297, 0.00040531589183956385, -0.013300811871886253, 0.03372114896774292, 0.013981725089251995, -0.036703865975141525, 0.03659656271338463, 0.0043633682653307915, 0.014224993996322155, -0.0075391195714473724, -0.007250271271914244, -0.0010397664736956358, 0.0030854304786771536, 0.055525921285152435, 0.026580631732940674, -0.054273203015327454, -0.01915121078491211, 0.00789280328899622, -0.005628481507301331, 0.03298264741897583, 0.015783874318003654, 0.027400953695178032, -0.005107563454657793, 0.012273266911506653, -0.009492643177509308, 0.021990470588207245, 0.031054595485329628, 0.001236048643477261], [0.015485593117773533, -0.03188673034310341, -0.01451325137168169, -0.014719974249601364, 0.04258161783218384, -0.002295218873769045, -0.020688483491539955, 0.028326699510216713, 0.013721713796257973, -0.02546638250350952, 0.013791881501674652, 0.022729074582457542, 0.01037086546421051, 0.022980161011219025, -0.04204094782471657, 0.0156507920473814, -0.032577626407146454, -0.00881602056324482, -0.009891465306282043, 0.003102585906162858, 0.009461029432713985, -0.05195514112710953, 0.010342529974877834, 0.00908859446644783, 0.01309873629361391, 0.009682546369731426, 0.015274066478013992, 0.01187229249626398, -0.0015378360403701663, -0.001231844536960125, 0.004704492632299662, -0.017095239832997322], [-0.01510352548211813, 0.026155149564146996, -0.026432354003190994, -0.028616348281502724, 0.004754057619720697, -0.03204943239688873, 0.00605860585346818, -0.01036838535219431, -0.014749965630471706, 0.03268703073263168, 0.0027242035139352083, 0.0003349649196024984, -0.00973933283239603, -0.008901318535208702, 0.015696439892053604, -0.005146359093487263, 0.0073068952187895775, 0.019441217184066772, 0.004422081168740988, 0.014811159111559391, 0.02055673860013485, 0.01164928451180458, 0.007220278028398752, -0.03781098499894142, -0.010047074407339096, 0.009066587314009666, 0.015766210854053497, 0.040103111416101456, 0.016808124259114265, 0.01484429370611906, 0.03126852959394455, -0.028319282457232475], [-0.017300764098763466, -0.012541319243609905, 0.005011001601815224, 0.018050381913781166, -0.006387647241353989, -0.006192983128130436, -0.009493906050920486, -0.011557864025235176, -0.0174648966640234, 0.011590641923248768, 0.0050570061430335045, 0.021687448024749756, -0.011539329774677753, -0.027577728033065796, 0.0430152602493763, -0.02847900241613388, -0.009786495938897133, 0.03907906264066696, 0.005502477753907442, 0.0013169137528166175, 0.0003895708068739623, 0.0045331628061831, 0.007822128012776375, 0.012370727024972439, -0.026842573657631874, 0.025899091735482216, -0.0023981216363608837, 0.012901038862764835, 0.004380628000944853, 0.02283807471394539, -0.0162555780261755, -0.004432976245880127], [-0.00010042509529739618, -0.022342709824442863, 0.04405199736356735, -0.007260135840624571, 0.049525197595357895, -0.019775375723838806, 0.001818424672819674, -0.0289132259786129, 0.0017907071160152555, -0.025272764265537262, 0.00415471475571394, -0.015778057277202606, -0.025675952434539795, -0.025775227695703506, -0.0019883776549249887, 0.03672757372260094, 0.0011379875941202044, -0.013839074410498142, -0.01735003851354122, 0.0019185099517926574, -0.026685936376452446, 0.02571626380085945, -0.021350445225834846, -0.031358156353235245, -0.002632284304127097, -0.0122830206528306, 0.010267059318721294, 0.029962770640850067, -0.0042484477162361145, -0.008885235525667667, -0.0057157729752361774, -0.030999263748526573], [-0.03605448082089424, 0.015451795421540737, 0.009915368631482124, 0.015363261103630066, 0.005568595603108406, -0.02147042192518711, -0.011628912761807442, -0.016482016071677208, 0.0010964523535221815, -0.0034789734054356813, -0.018214356154203415, -0.004882697016000748, 0.008295435458421707, 0.02347084879875183, -0.014443181455135345, 0.0006681322702206671, -0.009882132522761822, -0.012329772114753723, -0.009340700693428516, -0.007638908457010984, -0.0008503716089762747, 0.006927670910954475, -0.010052252560853958, -0.004833272658288479, 0.03677057847380638, 0.02509819157421589, 0.010279894806444645, 0.006741155404597521, 0.01301662065088749, 0.009235935285687447, -0.0005073667853139341, 0.010833816602826118], [0.03603142499923706, 0.02441485784947872, 0.021652409806847572, 0.011942777782678604, 0.0022621515672653913, 0.015989763662219048, 0.012241805903613567, 0.00756173487752676, 0.051462773233652115, 0.03462719917297363, -0.0022014561109244823, 0.009714947082102299, -0.0008246979559771717, -0.014839010313153267, 0.04873133450746536, 0.007047560531646013, 0.00671742856502533, 0.023875299841165543, 0.016848409548401833, 0.009610606357455254, 0.013157782144844532, 0.013351249508559704, -0.009999037720263004, -0.015002068132162094, 0.005279299337416887, -0.038419000804424286, 0.0010512946173548698, -0.05264991149306297, -0.0030530353542417288, 0.028067102655768394, 0.004737424198538065, 0.030238084495067596], [0.021005403250455856, -0.00926057156175375, 0.017402224242687225, -0.01873011514544487, -0.011318909004330635, -0.013904419727623463, 0.0023345358204096556, -0.0038304729387164116, 0.009282342158257961, -0.00725511834025383, 0.025220118463039398, -0.005235957447439432, 0.022520193830132484, 0.028651880100369453, 0.02202296443283558, -0.0285250972956419, 0.021454403176903725, -0.006380598992109299, -0.01110660657286644, 0.03421976417303085, 0.026415672153234482, -0.013817017897963524, -0.009531852789223194, 0.006557462736964226, 0.005793565884232521, -0.012470203451812267, 0.019439293071627617, 0.004359861370176077, 0.011331464163959026, 0.03293237090110779, -0.01768401265144348, -0.011311450973153114], [0.05287306010723114, -0.004258710891008377, 0.006010799203068018, -0.003859975840896368, -0.0033384570851922035, 0.033734336495399475, 0.0480734147131443, -0.025733206421136856, -0.031956996768713, -0.019244657829403877, 0.0362514965236187, -0.0009445131872780621, -0.007001971825957298, 0.06098078191280365, 0.029551323503255844, -0.012890971265733242, 0.012854665517807007, 0.006147425621747971, 0.013738072477281094, -0.024736156687140465, -0.00026046502171084285, 0.011619356460869312, -0.010783843696117401, -0.022551676258444786, -0.014268199913203716, -0.014441488310694695, -0.022400954738259315, -0.004210170358419418, -0.011103912256658077, -0.020405534654855728, -0.017795342952013016, -0.0006571178091689944], [0.004914942663162947, 0.02053477056324482, 0.009413578547537327, 0.022507240995764732, -0.014975951984524727, 0.012257931753993034, -0.005295780953019857, 0.015376120805740356, -0.01583993062376976, -0.016533138230443, -0.0027900265995413065, 0.024374214932322502, 0.009520357474684715, 0.02250644937157631, 0.03267255797982216, -0.026606615632772446, -0.004964665975421667, -0.0311833918094635, -0.008523362688720226, -0.029590105637907982, 0.027879463508725166, 0.0015163940843194723, 0.023933609947562218, 0.03871830552816391, -0.020435966551303864, -0.0005074880900792778, -0.02525433897972107, 0.018848687410354614, 0.01781364344060421, -0.0042708939872682095, -0.015592720359563828, -0.003943472635000944], [-0.009940664283931255, 0.002523735398426652, 0.017277296632528305, 0.03276309743523598, 0.017384527251124382, -0.02762765623629093, 0.014754020608961582, -0.01855243183672428, 0.005157961044460535, -0.019311726093292236, -0.025207241997122765, 0.0010487197432667017, 0.024703605100512505, -0.009125235490500927, 0.010507559403777122, -0.011179902590811253, -0.037826716899871826, -0.016400111839175224, 0.012107362039387226, 0.020605284720659256, -0.0005936138331890106, 0.007034224923700094, 0.015807019546628, 0.016990846022963524, -0.006769221741706133, 0.03863148018717766, 0.0005924512515775859, -0.0302579402923584, 0.04562218114733696, -0.01778459921479225, 0.02038501389324665, -0.003812706796452403], [-0.00012647117546293885, 0.008625871501863003, 0.01911071687936783, 0.006378738675266504, 0.040996283292770386, 0.041118793189525604, -0.025315390899777412, 0.020262163132429123, -0.019108494743704796, -0.009541948325932026, -0.018071983009576797, 0.02617863193154335, -0.009105436503887177, 0.05608475208282471, 0.008859039284288883, 0.008879519999027252, -0.018077271059155464, -0.039857733994722366, -0.022135617211461067, -0.002937806537374854, -0.0005739305051974952, -0.0005144581082277, -0.003812591079622507, 0.03569858521223068, 0.00789730530232191, 0.013525944203138351, 0.00785047560930252, 0.023085959255695343, 0.021902743726968765, -0.039875734597444534, 0.0145584000274539, -0.01278296485543251], [-0.0012492216192185879, 0.015890436246991158, 0.006264624651521444, -0.0036850539036095142, 0.00676529947668314, 0.005626482889056206, 0.00445789098739624, -0.0026127584278583527, 0.03525503724813461, -0.0325917974114418, 0.004681240301579237, -0.021502481773495674, 0.02484157308936119, -0.014838284812867641, 0.01032156404107809, -0.013532796874642372, 0.05289078503847122, -0.002794084371998906, 0.03349899873137474, -0.025541450828313828, -0.014981129206717014, 0.03189869970083237, -0.022778647020459175, 0.035362400114536285, -0.0012952612014487386, -0.010209355503320694, 0.044789984822273254, 0.001222995575517416, -0.01742345094680786, 0.020099200308322906, 0.018217964097857475, 0.029966391623020172], [-0.0010175536153838038, 0.0020895011257380247, 0.0034254889469593763, 0.010110646486282349, 0.025492040440440178, 0.0072380914352834225, 0.025767067447304726, 0.005200822371989489, 0.005153288133442402, 0.014138289727270603, 0.016792740672826767, 0.015425649471580982, -0.0008349914569407701, 0.025873934850096703, -0.019258076325058937, -0.01694430410861969, -0.006492189597338438, -0.020669078454375267, -0.020956026390194893, 0.004330469761043787, -0.025208577513694763, -3.7921618059044704e-06, -0.001045827055349946, 0.0014375402824953198, 0.015751074999570847, -0.00841212272644043, 0.010388549417257309, -0.0014256773283705115, 0.008213973604142666, 0.0017260988242924213, -0.03336947783827782, -0.01061607338488102], [0.019968248903751373, -0.0036917426623404026, 0.00840072426944971, -0.012063579633831978, -0.027244729921221733, -0.009243403561413288, -0.01559345331043005, -0.01422139536589384, 0.005069999024271965, -0.011398340575397015, 0.021522875875234604, 0.03060704842209816, 0.006080097984522581, -0.0038143103010952473, -0.012820386327803135, 0.016570797190070152, -0.016349144279956818, -0.014424973167479038, -0.01291106641292572, -0.007784801069647074, -0.03085361234843731, -0.010751980356872082, 0.016407126560807228, -0.006273389328271151, -0.03648291900753975, -0.0088485237210989, 0.0002478459500707686, -0.0347251258790493, -0.05355208367109299, 0.011998648755252361, 0.004467752296477556, -0.018437858670949936], [0.0029351094271987677, -0.025753788650035858, 0.013858132064342499, -0.007723666727542877, -0.024007024243474007, -0.007982953451573849, 0.02471817657351494, 0.038954827934503555, 0.008174434304237366, -0.02363894321024418, 0.003999914042651653, -0.00996639858931303, -0.004843405447900295, 0.030793514102697372, 0.0017028138972818851, 0.02539905533194542, 0.021678216755390167, -0.010048500262200832, 0.014826572500169277, 0.01830841414630413, 0.0019519407069310546, -0.03379128500819206, -0.006311813835054636, -0.03560381382703781, 0.010368424467742443, 0.011627390049397945, -0.011401941068470478, -0.03383592888712883, 0.03542109951376915, 0.009456774219870567, 0.002364964224398136, -0.02438267506659031], [-0.01253492571413517, -0.0008876561187207699, -0.028051583096385002, -0.014513250440359116, -0.0024053379893302917, -0.005951344966888428, -0.01776297204196453, -0.0016347153577953577, -0.036999162286520004, 0.002197301248088479, -0.0001396226871293038, -0.0060880547389388084, -0.03384838625788689, -0.018046408891677856, 0.015496757812798023, 0.021267475560307503, 0.0044851447455585, 0.014207730069756508, -0.0018745929701253772, -0.006002726033329964, 0.0030109237413853407, 0.04694740101695061, -0.016481546685099602, -0.010340207256376743, -0.0051254890859127045, 0.01970413699746132, 0.021849190816283226, 0.01815941371023655, -0.006821079645305872, -0.007923092693090439, -0.005421726033091545, 0.011190061457455158], [-0.00855089072138071, -0.0009057644638232887, -0.029442446306347847, -0.008950999937951565, 0.013663187623023987, 0.009776202961802483, -0.008064812049269676, 0.00036422855919227004, -0.019687775522470474, -0.017415791749954224, -0.004021635744720697, -0.009483805857598782, 0.025000495836138725, 0.01178582850843668, 0.03368312120437622, 0.016690203920006752, -0.00043855499825440347, -0.002461279509589076, 0.013527844101190567, 0.017878511920571327, -0.000577830127440393, 0.0022769286297261715, -0.007962265983223915, -0.017460746690630913, -0.01568940281867981, 0.01664566807448864, 0.018790870904922485, 0.004346252419054508, -0.031757209450006485, -0.020122475922107697, 0.0012979275779798627, 0.015090927481651306], [-0.014928334392607212, -0.009776843711733818, -0.02680250070989132, -0.014629165641963482, -0.012934421189129353, -0.010958927683532238, -0.034682560712099075, 0.03175855427980423, -0.035508666187524796, -0.006753859575837851, 0.025823136791586876, 0.032039690762758255, -0.02736803889274597, 0.013898649252951145, -0.004649911541491747, 0.019038530066609383, -0.01928042434155941, 0.024360258132219315, -0.0030693907756358385, -0.029447874054312706, -0.0067436047829687595, -0.028241656720638275, -0.006840550806373358, -0.030206257477402687, -0.027023732662200928, -0.003464415203779936, -0.015508143231272697, -0.01164095290005207, -0.008430506102740765, -0.006052113603800535, -0.0062114582397043705, 0.012538792565464973], [-0.0004915760364383459, 0.027491029351949692, 0.0075919232331216335, 0.011432022787630558, -0.015245894901454449, -0.002714247675612569, 0.03160742297768593, -0.007536090444773436, 0.009555802680552006, 0.007341613061726093, -0.014771765097975731, -0.011877791956067085, 0.023094477131962776, -0.02037745714187622, 0.014139162376523018, -0.01755998283624649, -0.012462268583476543, 0.014428156428039074, -0.008219471201300621, 0.021741680800914764, -0.009387141093611717, 0.03240107372403145, 0.014809136278927326, -0.0028141364455223083, -0.026785561814904213, 0.014635314233601093, 0.0007777632563374937, 0.013255849480628967, -0.0064626941457390785, 0.02139507234096527, -0.020979346707463264, 0.018386920914053917], [0.026400834321975708, 0.007879852317273617, -0.027868155390024185, -0.010799111798405647, 0.011278579011559486, 0.052940987050533295, 0.0075085056014359, 0.02454475872218609, -0.024143774062395096, -0.014793984591960907, -0.0029957571532577276, 0.021000413224101067, 0.0013620024546980858, -0.029911741614341736, 0.03612077981233597, 0.01289155799895525, -0.010888868011534214, 0.01703248918056488, 0.00991055928170681, -0.015988359227776527, -0.001959621673449874, 0.00997178815305233, -0.03664923086762428, -0.026040496304631233, -0.007459800690412521, -0.015231351368129253, 0.02035578526556492, -0.02656831592321396, 0.009312399663031101, -0.011709129437804222, 0.031138187274336815, -0.01454259641468525], [-0.0019098477205261588, 0.023781081661581993, -0.007752579171210527, 0.004151165019720793, 0.010752848349511623, 0.0023389440029859543, -0.027075283229351044, -0.0028770514763891697, 0.02794034220278263, 0.003711818950250745, -0.03465283662080765, 0.012164908461272717, -0.015039084479212761, -0.004898685496300459, 0.01710047759115696, 0.010343053378164768, -0.024143561720848083, 0.013007390312850475, -0.013776336796581745, -0.0032100293319672346, -0.011888866312801838, 0.029304778203368187, -0.02580263838171959, -0.0036133776884526014, -0.04526715353131294, -0.004468674771487713, 0.012294706888496876, 0.01823027990758419, 0.005171043798327446, 0.002631442155689001, -0.013958621770143509, -0.013488064520061016], [-0.009291389025747776, -0.02989099733531475, 0.016904562711715698, 0.026147929951548576, 0.006058747414499521, -0.017697282135486603, -0.029385032132267952, -0.009338014759123325, -0.021079206839203835, 0.005832596682012081, -0.004300988744944334, -0.016115063801407814, 0.01014432031661272, -0.005155263934284449, -0.00874353852123022, 0.02329263463616371, -0.011007317341864109, 0.012170940637588501, -0.01712842658162117, -0.0065248585306108, 0.014243323355913162, 0.0013619160745292902, 0.017089780420064926, -0.015937071293592453, 0.02005910873413086, 0.022456707432866096, 0.003956070635467768, -0.00326528656296432, 0.004422650672495365, 0.036455146968364716, 0.008467227220535278, 0.01393449492752552], [-0.021540898829698563, 0.009402534924447536, 0.00537204509600997, 0.04468512907624245, -0.01014968566596508, 0.008019629865884781, 0.014212029986083508, -0.00642515579238534, -0.012278545647859573, 0.01986384205520153, -0.00039960150024853647, 0.00387619249522686, -0.018332136794924736, -0.019939519464969635, -0.012013789266347885, -0.03624892979860306, 0.02782534249126911, 0.032223887741565704, 0.006850192788988352, -0.001052026986144483, -0.012421361170709133, 0.021040456369519234, -0.013336468487977982, -0.01348915696144104, 0.006883743219077587, -0.025173135101795197, -0.015403355471789837, -0.01317472942173481, -0.009158042259514332, 0.020556433126330376, -0.0059064170345664024, 0.042818378657102585], [0.03862976282835007, 0.0018822329584509134, 0.002890542382374406, 0.009409618563950062, -0.022561287507414818, -0.012424636632204056, 0.004155883565545082, -0.015250706113874912, -0.01271397527307272, 0.0010481543140485883, -0.010986763052642345, 0.02502809464931488, 0.01667121797800064, -0.030897263437509537, 0.038585834205150604, -0.014430527575314045, -0.002730633830651641, 0.011824804358184338, 0.00478782644495368, -0.011771571822464466, 0.004175269044935703, 0.005990937352180481, 0.026180317625403404, -0.0009517598082311451, -0.019792815670371056, -0.023188335821032524, -0.005074216052889824, 0.003934500273317099, -0.0145413251593709, -0.050340116024017334, 0.03546964004635811, 0.010009676218032837], [0.016634495928883553, 0.01845572516322136, 0.0020615344401448965, 0.006977370008826256, 0.032668888568878174, 0.0055420491844415665, -0.01153947226703167, 0.01099098939448595, -0.017284180968999863, -0.004277610685676336, -0.023498790338635445, -0.02407507598400116, 0.028099924325942993, 0.018058788031339645, 0.01764318346977234, 0.011654512956738472, -0.009470092132687569, -0.007366047706454992, -0.036154817789793015, -0.01010507345199585, 0.025755729526281357, -0.013151982799172401, 0.007321082055568695, 0.014230766333639622, -0.004189361818134785, 0.018412966281175613, -0.025156114250421524, -0.015195915475487709, 0.032878316938877106, 0.012530584819614887, 0.020855071023106575, -0.000382813363103196], [-0.027229081839323044, 0.022192392498254776, -0.010383602231740952, -0.004556757863610983, 0.02089563012123108, 0.0073982481844723225, 0.03444758057594299, -0.0379892997443676, 0.008737161755561829, -0.0004615081998053938, -0.018261253833770752, -0.007929782383143902, 0.012803940102458, 0.031473271548748016, -0.013330142945051193, 0.04234156012535095, 0.011877917684614658, -0.021232180297374725, 0.011229568161070347, 0.007460280321538448, 0.025765761733055115, 0.002081942744553089, 0.010549898259341717, -0.0033855719957500696, 0.002304747235029936, 0.023403681814670563, -0.04055996984243393, -0.0030341381207108498, -0.028019709512591362, -0.01777493953704834, 0.01744130067527294, 0.02910628169775009], [-0.0013068522093817592, 0.010307610966265202, 0.020586634054780006, -0.005569905042648315, 0.010836330242455006, 0.015076696872711182, 0.022490989416837692, 0.014797339215874672, -0.01992114447057247, 0.014575771987438202, -0.026084700599312782, -0.016804665327072144, -0.008765462785959244, -0.007209026254713535, 0.021465932950377464, -0.021237850189208984, 0.012020125053822994, 0.024839023128151894, 0.0016018594615161419, 0.038460228592157364, -0.02309899777173996, -0.010042255744338036, -0.011852537281811237, 0.03543001785874367, -0.01603284478187561, -0.006582535803318024, 0.013349270448088646, -0.011642963625490665, -0.002435508416965604, 0.0019839773885905743, -0.022525940090417862, 0.020897425711154938], [0.03252849355340004, 0.02691476233303547, -0.03829487785696983, 0.028498990461230278, 0.017641590908169746, 0.020746197551488876, -0.0003917965805158019, -0.004457155242562294, 0.011139513924717903, 0.02545046992599964, -0.02517583593726158, -0.020870313048362732, -0.0024596110451966524, -0.012570385821163654, -0.01824570633471012, 2.01479433599161e-05, -0.00032134627690538764, 0.006100027356296778, -0.019310196861624718, 0.026353511959314346, -0.013431120663881302, -0.003021141281351447, -0.01732408069074154, -0.007951821200549603, 0.004448498133569956, 0.00416935421526432, 0.013922114856541157, -0.03202349692583084, 0.009354433976113796, 0.019931824877858162, -0.01423848606646061, 0.008887015283107758], [0.026767853647470474, 0.0019192058825865388, 0.02198788896203041, 0.01045636273920536, -0.01068988535553217, -0.029618460685014725, 0.013565171509981155, -0.0026603899896144867, -0.0030388645827770233, 0.054555729031562805, -0.020785441622138023, 0.02789527177810669, -0.008932503871619701, 0.002161335200071335, -0.0019541801884770393, 0.016181785613298416, -0.009508056566119194, -0.03702422231435776, -0.008798416703939438, -0.06373944878578186, -0.016766143962740898, -0.06005195528268814, 0.013666818849742413, 0.0566507913172245, 0.016657743602991104, 0.015521415509283543, 0.040575526654720306, -0.017260247841477394, 0.007068768609315157, 0.021425077691674232, -0.021322397515177727, 0.03762158378958702], [-0.002187122590839863, -0.02204854227602482, -0.009215030819177628, -0.005597051233053207, 0.0016858420567587018, -0.03135809674859047, -0.018301013857126236, 0.005757147911936045, 0.03659018501639366, 0.024088196456432343, -0.02627016045153141, -0.004082435742020607, -0.00015795251238159835, -0.007490918040275574, -0.01859183795750141, 0.00411087553948164, -0.000847676070407033, 0.011448035947978497, -0.004886082839220762, 0.020612411201000214, -0.04093465581536293, 0.018103839829564095, 0.0029712729156017303, -0.016648054122924805, 0.013227555900812149, 0.04605747014284134, -0.013403084129095078, -0.002606746507808566, -0.02956082671880722, -0.04750413820147514, 0.014424673281610012, -0.02546522580087185], [0.025593945756554604, -0.020847370848059654, -0.008883669972419739, -0.005197717342525721, -0.00460040895268321, -0.013818193227052689, 0.0068713161163032055, 0.003860898781567812, -0.014221925288438797, 0.006137832999229431, 0.002059501362964511, 0.025003109127283096, -0.005530353635549545, 0.0479251928627491, -0.045784786343574524, 0.033085741102695465, -0.017737114802002907, 0.01971268467605114, 0.014858833514153957, -0.01892036944627762, 0.019963566213846207, -0.0013886287342756987, -0.03473474830389023, -0.0010754617396742105, 0.0046018934808671474, 0.009510110132396221, 0.004653935320675373, -0.004164640326052904, -0.01217317208647728, 0.024911394342780113, -0.016026156023144722, -0.01757068559527397], [0.0018836501985788345, -0.018750138580799103, -0.04505174234509468, -0.02233988419175148, -0.007439813576638699, -0.02313915453851223, -0.016644859686493874, 0.010434126481413841, -0.002355701057240367, 0.019549734890460968, 0.0023768453393131495, 0.021947190165519714, -0.002657841658219695, 0.016028037294745445, -0.0162215419113636, -0.030711213126778603, -0.023583535104990005, 0.006462623365223408, -0.001641011331230402, 0.0009506986243650317, -0.017523135989904404, 0.024455243721604347, -0.025362471118569374, -0.0006228614365682006, 0.0020162092987447977, -0.005713967140763998, -0.008200675249099731, 0.026749031618237495, -0.004911195021122694, 0.0014676476130262017, -0.019041890278458595, -0.022427354007959366], [-0.01893417164683342, 0.0003640141512732953, 0.002729319967329502, -0.015383150428533554, -0.012985143810510635, 0.03172632306814194, 0.015260926447808743, 0.03428931534290314, -0.019435565918684006, -0.009746677242219448, -0.02760644070804119, 0.021433150395751, -0.004245351999998093, 0.01481568068265915, 0.002941299695521593, 0.011777603067457676, -0.0007941385265439749, 0.012585718184709549, 0.006566003896296024, -0.017551369965076447, -0.016178645193576813, 0.006889341399073601, -0.0033888276666402817, -0.006611937656998634, -0.006170112174004316, 0.013543469831347466, -0.034258630126714706, 0.008784938603639603, -0.015267365612089634, -0.014982689172029495, 0.005576502997428179, -0.02353472262620926], [-0.02565910294651985, 0.010971211828291416, 0.013620276935398579, -0.014836926944553852, 0.01692432351410389, -0.011997356079518795, 0.02947407402098179, -0.015726221725344658, 0.01644962467253208, -0.02577758952975273, 0.042488131672143936, 0.05521246790885925, -0.006264312192797661, -0.0068574524484574795, -0.007214617449790239, -0.01784537360072136, -0.01933535747230053, -0.022484976798295975, 0.000544079695828259, 0.018740009516477585, 0.018395429477095604, -0.052114613354206085, -0.01603526994585991, -0.041481807827949524, -0.017510168254375458, 0.015578978694975376, -0.006449638865888119, 0.003885067068040371, -0.009408312849700451, -0.0026453882455825806, -0.010491465218365192, -0.01536307018250227], [0.009493859484791756, -0.014514153823256493, -0.00025507761165499687, 0.02268139086663723, 0.0034106646198779345, 0.01835925132036209, 0.00806908868253231, -0.0003643218951765448, -0.018293889239430428, -0.02455592155456543, -0.00023957576195243746, -0.024856891483068466, 0.011594206094741821, 0.009217989630997181, -0.04015132039785385, -0.012790651991963387, -0.009083959273993969, -0.003112462116405368, 0.012424545362591743, 0.017991142347455025, -0.010493773967027664, 0.013368272222578526, 0.028092486783862114, -0.00965923722833395, 0.013186362572014332, 0.02457897923886776, 0.01582298055291176, 0.01396782323718071, 0.002883587032556534, -0.002703593811020255, 0.029084712266921997, 0.01258137822151184], [-0.0038820786867290735, -0.011426709592342377, -0.024811474606394768, -0.020132314413785934, -0.01590983383357525, -0.022463129833340645, -0.0035660131834447384, -0.005305042956024408, -0.02844175510108471, -0.0025082086212933064, 0.008416106924414635, -0.00019785115728154778, -0.04337203875184059, 0.020923029631376266, 0.0009913562098518014, -0.0037808134220540524, 0.01790609210729599, 0.020391041412949562, 0.045966293662786484, 0.013193966820836067, 0.06373648345470428, 0.02806904725730419, -0.013896695338189602, 0.010986781679093838, -0.0037997497711330652, -0.015853170305490494, 0.009509495459496975, -0.019523145630955696, -0.002229172270745039, 0.010139692574739456, -0.01516641303896904, -0.03043222986161709], [0.01232084445655346, 0.004643701016902924, 0.046179890632629395, 0.002866897266358137, -0.02790612354874611, 0.0047897640615701675, -0.011582992039620876, -0.022731391713023186, 0.002333552809432149, 0.009964902885258198, 0.02490995265543461, -0.01925739459693432, -0.012211250141263008, 0.007042893674224615, 0.006389890797436237, 0.034009333699941635, -0.021584955975413322, -0.032808490097522736, 0.005654286593198776, 0.009383407421410084, 0.02563258819282055, 0.03030071035027504, -0.01510719582438469, 0.02765682339668274, -0.001966556068509817, 3.790330811170861e-05, -0.003611782332882285, -0.01670307107269764, 0.037783391773700714, 0.011240258812904358, 0.024633590131998062, 0.00987302791327238], [0.010825077071785927, -0.005789517425000668, -0.029972199350595474, 0.01255286205559969, 0.011054334230720997, 0.010584937408566475, 0.00012960832100361586, 0.04771355539560318, -0.01424764096736908, -0.010216587223112583, -0.01871459186077118, 0.014112010598182678, 0.012851826846599579, -0.009196287952363491, -0.0066604712046682835, -0.03520979732275009, 0.0013573060277849436, -0.0188291035592556, -0.04753663390874863, 0.009799102321267128, -0.003940346650779247, -0.017278240993618965, 0.0042653935961425304, 0.012167857959866524, 0.006464192643761635, 0.018735896795988083, -0.03864070028066635, 0.008429570123553276, -0.0039039491675794125, 0.0028035291470587254, 0.02207479253411293, 0.019260376691818237], [0.008977794088423252, 0.018862592056393623, 0.007879671640694141, -0.022784586995840073, 0.00040618161438032985, -0.014121764339506626, 0.004838025663048029, -0.02000611647963524, 0.017391858622431755, -0.023233341053128242, -0.0019394459668546915, -0.025777706876397133, -0.0028002874460071325, -0.00572693208232522, 0.00734772440046072, -0.015143816359341145, -0.009442604146897793, -0.005324546713382006, 0.005809236783534288, -0.018670260906219482, -0.02894648164510727, 0.007653550710529089, -0.007132320664823055, -0.010426084510982037, 0.03550168499350548, -0.004163146018981934, -0.001433763769455254, 0.005217498634010553, 0.02450055070221424, -0.007848108187317848, 0.02345956489443779, -0.0006926110945641994], [0.024942632764577866, 0.009365490637719631, 0.006822631694376469, -0.0023518705274909735, -0.008076652884483337, -0.002797325374558568, 0.00762023264542222, -0.05143965780735016, 0.0008334040176123381, 0.013543397188186646, 0.0031630757730454206, 0.019394440576434135, 0.01820024847984314, -0.024812478572130203, -0.014013664796948433, 0.014740953221917152, 0.029695967212319374, -0.000947533524595201, 0.012017590925097466, 0.017105503007769585, -0.0023283157497644424, 0.011577827855944633, -0.010478599928319454, 0.008077279664576054, -0.004782299045473337, -0.0040547605603933334, -0.03301796689629555, -0.014929435215890408, -0.00745757482945919, 0.02054602839052677, 0.0104361055418849, -0.022875064983963966], [0.0022809128277003765, -0.019418878480792046, 0.01531719509512186, 0.0006337033119052649, 0.006320650223642588, 0.026336826384067535, 0.011058677919209003, 0.017056051641702652, 0.01628289930522442, -0.02895825169980526, 7.993169128894806e-05, -0.020726006478071213, -0.010546199046075344, 0.024621445685625076, 0.01334146037697792, 0.0014589921338483691, -0.030502786859869957, 0.018097219988703728, 0.01686161197721958, 0.0010270897764712572, -0.01474386639893055, -0.01481875590980053, 0.008327311836183071, -0.023358741775155067, -0.023851463571190834, -0.02750830352306366, -0.015423639677464962, -0.021575376391410828, 0.030986031517386436, 0.007064550183713436, 0.009014321491122246, 0.006610494572669268], [-0.022282235324382782, 0.013284128159284592, -0.013227557763457298, 0.023201601579785347, -0.0246658343821764, 0.015809856355190277, 0.006602879147976637, 0.028398782014846802, 0.030400974676012993, 0.028500208631157875, 0.006899927277117968, 0.039332106709480286, 0.005454646423459053, 0.02820371836423874, -0.021294038742780685, -0.017261788249015808, 0.014520108699798584, -0.019592639058828354, -0.008176635950803757, -0.0037120026536285877, 0.012480691075325012, 0.0012368358438834548, 0.019037509337067604, -0.03990441560745239, -0.00689641572535038, -0.00543737318366766, 0.01960894837975502, 0.004605302587151527, 0.004900588188320398, 0.009905381128191948, 0.007408480625599623, -0.03404158353805542], [-0.0005635424167849123, -0.032138410955667496, 3.4690343454713e-05, 0.009445770643651485, 0.007387619465589523, 0.016083436086773872, 0.010223297402262688, -0.030734797939658165, -0.005420449655503035, 0.024471746757626534, 0.007411479018628597, -0.023265715688467026, 0.016126930713653564, 0.002783215371891856, 0.00792363565415144, -0.0005954419611953199, 0.0212508887052536, -0.03962895646691322, 0.04854012280702591, -0.01072278805077076, -0.013958974741399288, -0.0009620182681828737, 0.03469090536236763, 0.012012036517262459, -0.0400419645011425, -0.0034862628672271967, -0.007289320696145296, 0.003623663680627942, 0.0030220395419746637, 0.03675053268671036, 0.02306196838617325, 0.016862286254763603], [0.009012938477098942, -0.013250595889985561, 0.006781283300369978, -0.03929395228624344, -0.012650925666093826, -0.0008511512423865497, 0.0012112654512748122, 0.0015332723269239068, 0.03613746911287308, -0.0020291325636208057, -0.018556945025920868, 0.037552207708358765, 0.026264464482665062, 0.017435485497117043, 0.02894425392150879, -0.01565214805305004, 0.050447337329387665, 0.007552335038781166, -0.0063706859946250916, 0.0034163305535912514, -0.04122104123234749, 0.0013575907796621323, 0.02110406756401062, 0.02135195955634117, -0.03443603962659836, 0.010896231979131699, 0.03700486943125725, -0.019760556519031525, -0.006791680119931698, 0.05546294152736664, 0.042987652122974396, -2.9878718123654835e-05], [0.014672786928713322, -0.009354469366371632, -0.02572590485215187, 0.0014871845487505198, -0.021952640265226364, 0.022528046742081642, -0.02258588746190071, -0.020414309576153755, 0.00042606392526067793, -0.0015462046721950173, -0.013480492867529392, 0.017092524096369743, -0.0003807813918683678, 0.004451530985534191, -0.01720954291522503, -0.03514686971902847, -0.004564005881547928, -0.0055047194473445415, 0.0017734488938003778, -0.00405467301607132, -0.00891826767474413, -0.0478861927986145, 0.04421183839440346, 0.014061221852898598, -0.0003715978527907282, 0.010486820712685585, 0.016265979036688805, -0.04432445019483566, 0.0037115104496479034, -0.022184712812304497, -0.014550468884408474, -0.02126704901456833], [0.03422839939594269, -0.01934514008462429, -0.02356993407011032, 0.014928819611668587, -0.0003620337520260364, -0.030973190441727638, -0.004037920385599136, -0.00947033241391182, 0.0035989200696349144, -0.012659367173910141, 0.018277404829859734, 0.01583498902618885, 0.011570471338927746, 0.006513888016343117, 0.019239038228988647, 0.011599913239479065, -0.006150955334305763, 0.008602508343756199, -0.004690006375312805, -0.01333101000636816, 0.018703928217291832, -0.010098275728523731, -0.00774129293859005, -0.005665428936481476, -0.01649441383779049, 0.03828618675470352, -0.00790281780064106, -0.006152217276394367, 0.001383502036333084, -0.00024969750666059554, 0.02068014070391655, 0.0023420359939336777], [0.012041105888783932, -0.0010142899118363857, 0.02340962179005146, -0.03327970951795578, 0.027664868161082268, -0.02691248431801796, 0.008128324523568153, -0.028619252145290375, 0.03172976151108742, 0.04389369860291481, -0.011413894593715668, 0.005118972156196833, 0.010059056803584099, -0.01758710667490959, -0.005223533604294062, -0.02165740728378296, 0.03880094364285469, -0.000825395283754915, 0.003319632960483432, -0.011560456827282906, 0.013073219917714596, 0.017577549442648888, -0.0240150336176157, -0.014005739241838455, -0.02132868766784668, 0.015679707750678062, -0.006687759421765804, 0.01653970032930374, 0.009290693327784538, 0.001735797501169145, 0.0023393414448946714, 0.04066958278417587], [0.023215100169181824, 0.030286526307463646, -0.02765781432390213, -0.009944271296262741, -0.017980681732296944, 0.007115191780030727, 0.0031178060453385115, 0.01972324401140213, -0.012130087241530418, 0.022430650889873505, 0.004261973779648542, 0.00023672358656767756, 0.0027054313104599714, -0.03907565400004387, 0.01807653345167637, -0.005511088762432337, -0.0017738696187734604, 0.0017504588468000293, 0.002640507649630308, 0.015066173858940601, -0.008245802484452724, 0.02207128517329693, 0.003458125749602914, -0.021164316684007645, -0.015369335189461708, -0.038120776414871216, 0.04138138145208359, -0.006729430519044399, 0.02546880580484867, 0.03410612419247627, 0.035161733627319336, -0.03757166117429733], [-0.04178273677825928, -0.01169472187757492, 0.01415547076612711, -0.032693080604076385, 0.02839484065771103, 0.04245133325457573, 0.054375309497117996, 0.00249148509465158, -0.01132167223840952, 0.02564239501953125, 0.010651079006493092, 0.04480677470564842, -0.010650336742401123, -0.0276099294424057, -0.009906014427542686, -0.02397208660840988, -0.016983743757009506, -0.0015859516570344567, -0.020467529073357582, -0.007816432975232601, -0.0012118157465010881, 0.008903846144676208, -0.005857819225639105, 0.002554219914600253, -0.008710828609764576, -0.001104728551581502, 0.02594655752182007, 0.010741123929619789, 0.040521569550037384, 0.028627941384911537, 0.015781603753566742, 0.009550339542329311], [0.02563578262925148, 0.014029269106686115, -0.03346141800284386, -0.009022601880133152, 0.021935531869530678, 0.03529711812734604, 0.010358141735196114, 0.0014759217156097293, -0.012110005132853985, -0.0005867630825378001, 0.021165672689676285, 0.008699596859514713, -0.02027646079659462, 0.004386420827358961, -0.01769804023206234, -0.0016912991413846612, -0.013047663494944572, 0.022914167493581772, 0.026683466508984566, -0.011595970019698143, -0.02733432874083519, -0.013349316082894802, -0.037739019840955734, 0.03131754696369171, -0.012483113445341587, 0.014959203079342842, 0.04335610195994377, -0.02254810929298401, -0.028180837631225586, 0.004772903397679329, 0.005379704758524895, -0.0038604431319981813], [-0.01717386767268181, -0.0065972572192549706, 0.011488553136587143, -0.01878044568002224, -0.054295964539051056, -0.039122480899095535, 0.005312995053827763, -0.025602206587791443, -0.0175897479057312, -0.07148788124322891, 0.004512918647378683, -0.010327046737074852, -0.0010730138747021556, 0.00692409323528409, -0.015577390789985657, -0.007111006882041693, -0.005531894043087959, 0.02830011025071144, -0.007895281538367271, -0.021660400554537773, 0.0032066511921584606, 0.02821645699441433, 0.020400144159793854, -0.0150715671479702, 0.02343958616256714, 0.022152654826641083, 0.025724492967128754, -0.022656287997961044, 0.027458587661385536, 0.0014384869718924165, -0.00709634181112051, -0.029748747125267982], [-0.012087180279195309, -0.005674238782376051, 0.017544284462928772, 0.014001868665218353, -0.02596871554851532, -0.030976053327322006, 0.026175780221819878, -0.019448278471827507, -0.0133127486333251, 0.015118710696697235, -0.010381410829722881, 0.003058853093534708, 0.0032383676152676344, 0.03761417418718338, -0.03039826825261116, 0.0018624564399942756, 0.028773555532097816, 0.004729732871055603, -0.002356389071792364, 0.029041463509202003, -0.005203495733439922, -0.0068352725356817245, 0.04305051267147064, -0.010585150681436062, -0.003126376774162054, 0.03250647336244583, -0.009039852768182755, -0.013831679709255695, -0.013492271304130554, -0.0019846586510539055, 0.0027348750736564398, 0.00959949754178524], [-0.009546546265482903, -0.010188847780227661, 0.004953241907060146, -0.0009738643420860171, 0.005412386730313301, -0.0027357551734894514, -0.00012647801486309618, 0.012394796125590801, 0.013741018250584602, 0.025447549298405647, -0.017820755019783974, 0.010901656933128834, -0.0012266391422599554, 0.005806305445730686, -0.02084735594689846, -0.0006318825180642307, 0.021928051486611366, 0.032214682549238205, 0.027307996526360512, -0.008600558154284954, -0.008024411275982857, -0.013161950744688511, -0.025618834421038628, 0.005290906876325607, 0.00861045066267252, 0.04235750436782837, -0.020333727821707726, 0.02096637524664402, 0.001586174825206399, -0.01177634671330452, -0.013794946484267712, -0.021320989355444908], [0.005401195026934147, -0.031375858932733536, 0.013431181199848652, 0.012423059903085232, -0.0035719319712370634, 0.032547835260629654, 0.0076625472865998745, -0.0009237226913683116, 0.00454383110627532, -0.01993388682603836, 0.027248546481132507, -0.0077929687686264515, -0.007682777009904385, -0.006265030242502689, 0.009110501036047935, -0.013486123643815517, -0.02130264788866043, 0.015676002949476242, -0.013479280285537243, 0.03435457497835159, 0.035095714032649994, -0.0013023338979110122, -0.020048202946782112, 0.006749287247657776, -0.023915216326713562, -0.011580834165215492, 0.0037573406007140875, -0.011627859435975552, -0.005427280440926552, -0.011050260625779629, 0.025029553100466728, 8.445842831861228e-05], [0.025624053552746773, -0.007605915889143944, 0.02096976898610592, -0.0016924480441957712, 0.01999868080019951, -0.00899660587310791, -0.028454843908548355, 0.0031194135081022978, -0.03234217315912247, -0.013208416290581226, -0.01522909291088581, -0.013730375096201897, 0.011518994346261024, 0.0002990027132909745, 0.002001325599849224, -0.011446106247603893, 0.06301643699407578, -0.01444320660084486, 0.002890528179705143, 0.0110643170773983, -0.002744493307545781, -0.006055083591490984, -0.0022630279418081045, 0.0022198588121682405, -0.012954896315932274, -0.0032424191012978554, 0.0013174323830753565, 0.005380650050938129, 0.03524297475814819, 0.042444758117198944, 0.0002362202067160979, 0.005749010480940342], [0.004954500123858452, 0.023403504863381386, -0.02671460248529911, -0.019148897379636765, 0.035203441977500916, 0.004827416036278009, -0.009722188115119934, -0.001272622961550951, -0.026065289974212646, 0.023026568815112114, -0.008777430281043053, -0.01809493824839592, -0.023521024733781815, -0.03170209378004074, -0.0016502054641023278, -0.02622239850461483, -0.012605413794517517, 0.0009614181471988559, 0.011877383105456829, -0.012395484372973442, -0.020119737833738327, -0.016665028408169746, 0.00850076973438263, 0.009162673726677895, -0.008245875127613544, -0.02261609584093094, -0.014806323684751987, -0.04109945148229599, 0.001931705977767706, -0.025190193206071854, 0.00020852609304711223, 0.019191762432456017], [0.03326049819588661, -0.028995424509048462, 0.024341309443116188, -0.03537057340145111, -0.001608426682651043, -0.017126839607954025, -0.005214381031692028, -0.020184287801384926, -0.0220798347145319, -0.025985926389694214, -0.037608180195093155, 0.01771100051701069, -0.0071989260613918304, 0.01183788850903511, -0.02912367694079876, 0.04007989168167114, -0.040017250925302505, 0.028779271990060806, -0.0031712378840893507, -0.01701739802956581, -0.007607708219438791, 0.023656563833355904, 0.0031359237618744373, 0.002175126224756241, -0.007638106122612953, -0.0027345754206180573, -0.011071920394897461, -0.018012654036283493, 0.0018129914533346891, -0.02163092792034149, -0.006637069396674633, 0.01672724261879921], [-0.005983521696180105, -0.004699333570897579, 0.0009050943772308528, -0.0003677900822367519, 0.034473955631256104, -0.05673842877149582, -0.011809274554252625, 0.008872659876942635, 0.023429090157151222, -0.0016494980081915855, -0.008200925774872303, 0.01638239435851574, 0.013342099264264107, 0.019936578348279, 0.03378704562783241, 0.02867315709590912, 0.0010662777349352837, -0.009499074891209602, -0.011884338222444057, 0.012682045809924603, 0.0005255043506622314, 0.0028873500414192677, -0.0011377842165529728, 0.011974969878792763, 0.01794176548719406, 0.01572658307850361, 0.028246019035577774, -0.02070409245789051, -0.017944643273949623, 0.010351048782467842, 0.04448409751057625, -0.03356438875198364], [0.03484399989247322, -0.0002866714494302869, -0.030052056536078453, 0.044278111308813095, 0.023380573838949203, 0.0056166681461036205, 0.01251163799315691, -0.012376867234706879, 0.004727239720523357, -0.002271668054163456, 0.020168330520391464, 0.02509763464331627, -0.0034578528720885515, 0.002170315245166421, -0.015105079859495163, -0.04864704981446266, 0.0025281314738094807, 0.018989048898220062, -0.009785681962966919, 0.009982455521821976, -0.013079720549285412, -0.023543382063508034, 0.008221598342061043, 0.025996744632720947, 0.013895753771066666, -0.005768931470811367, 0.004531153943389654, -0.0002780068025458604, -0.02525286190211773, -0.015378318727016449, -0.018984053283929825, -0.015290257520973682], [0.015227647498250008, 0.03557521104812622, -0.022075898945331573, -0.013635636307299137, -0.015981491655111313, 0.013619247823953629, 0.01748150959610939, -0.028584055602550507, -0.043729886412620544, -0.03746522217988968, 0.010831749066710472, 0.007142729591578245, -0.01021313015371561, -0.04143570363521576, 0.020859628915786743, 0.0157096516340971, 0.01645364798605442, -0.025993572548031807, -0.026956528425216675, -0.04007357358932495, -0.008501365780830383, -0.0016020364128053188, 0.013336732052266598, 0.022179709747433662, 0.023682206869125366, 0.01918763853609562, -0.01214404683560133, -0.03086126782000065, 0.0033185456413775682, -0.013204425573348999, 0.005812698509544134, 0.010303070768713951], [-0.01731465384364128, -0.00359926070086658, 0.04384452849626541, 0.03520945459604263, -0.012957003898918629, 0.015256266109645367, -0.00746759632602334, -0.015465103089809418, -0.02693646401166916, -0.0031178744975477457, -0.021719766780734062, -0.0007145385025069118, -0.014011195860803127, -0.0028368416242301464, -0.014865599572658539, 0.031104978173971176, -0.02143237367272377, -0.022342316806316376, -0.007659546565264463, -0.007949449121952057, 0.011544981971383095, 0.00860361848026514, -0.045194003731012344, -0.02109048143029213, 0.01832285337150097, 0.012647049501538277, -0.011058541014790535, -0.008329845033586025, 0.02805502898991108, 0.025394750759005547, 0.06526445597410202, 0.013779022730886936], [-0.005187166389077902, -0.007505977060645819, -0.049017906188964844, 0.019231067970395088, 0.003142596920952201, 0.011126771569252014, 0.022109929472208023, 0.002765234326943755, -0.006051624193787575, 0.017259757965803146, -0.003206639550626278, -0.014926491305232048, -0.02440062165260315, -0.013857666403055191, 0.04168808460235596, 0.014243160374462605, 0.0258332509547472, -0.01286875456571579, -0.019317137077450752, 0.007358051836490631, -0.015726471319794655, -0.04333814978599548, 0.02172762155532837, -0.000335473072482273, -0.0045817578211426735, -0.020918013527989388, 0.049501948058605194, -0.018256304785609245, 0.0072394367307424545, 0.030613580718636513, -0.005016553681343794, -0.010834877379238605], [-0.007389644626528025, 