{"weight": [[0.09170321375131607, 0.1118759736418724, 0.22016218304634094, 0.1725735068321228, 0.05540389195084572, -0.2683214247226715, 0.08581704646348953, 0.1297248899936676, -0.22764833271503448, 0.292951762676239], [-0.24800437688827515, 0.13219989836215973, 0.1842438280582428, 0.05265798419713974, -0.09013421088457108, 0.2768395245075226, 0.3145763874053955, 0.18510177731513977, 0.0710805356502533, -0.27848565578460693], [-0.24105304479599, -0.18922805786132812, -0.2731146812438965, -0.20571590960025787, -0.10629002749919891, 0.21163897216320038, 0.03898242488503456, 0.30014756321907043, 0.25624707341194153, -0.0605255588889122], [-0.2944343090057373, 0.09116221964359283, -0.28574690222740173, -0.28646227717399597, 0.30941709876060486, -0.2703007459640503, -0.28790202736854553, 0.06635706126689911, 0.06506242603063583, 0.1848517805337906], [0.0960153266787529, -0.28861185908317566, -0.28489914536476135, 0.2683415114879608, -0.28734204173088074, -0.13618774712085724, -0.286385715007782, 0.14032132923603058, 0.2020556926727295, 0.30038541555404663], [0.09333192557096481, -0.10285045206546783, 0.19888311624526978, -0.1640615314245224, 0.02576511539518833, -0.0784672424197197, 0.2574467360973358, 0.11116062849760056, -0.0007783359033055604, 0.06654807925224304], [-0.007402314804494381, 0.13197307288646698, -0.24058476090431213, 0.05789730325341225, 0.14987973868846893, 0.29099544882774353, 0.0924948900938034, 0.17551815509796143, -0.1921549141407013, 0.14677748084068298], [0.19210876524448395, 0.3079525828361511, -0.29880452156066895, -0.13260138034820557, -0.2111375331878662, -0.16137409210205078, 0.1576131135225296, -0.18405798077583313, 0.07835927605628967, -0.2654424011707306], [0.026658616960048676, 0.30358436703681946, -0.04082288220524788, -0.08386240154504776, -0.008325936272740364, -0.0878078043460846, 0.2404821515083313, -0.22927068173885345, 0.06558279693126678, 0.12246197462081909], [-0.11224623769521713, -0.05560055747628212, -0.25040027499198914, 0.15299488604068756, -0.13941030204296112, -0.0246001947671175, -0.26389279961586, -0.22752989828586578, -0.24474801123142242, 0.2130630612373352], [0.21986576914787292, -0.3053542375564575, -0.27214914560317993, -0.2627822756767273, 0.29833847284317017, -0.0042709894478321075, -0.2066570520401001, -0.25883251428604126, 0.1190112754702568, 0.2620958685874939], [-0.22043782472610474, -0.07584807276725769, -0.006653759628534317, -0.013253687880933285, -0.19935189187526703, -0.12992791831493378, 0.0687645673751831, -0.24600420892238617, -0.036316510289907455, -0.16343900561332703], [-0.2089521437883377, 0.061133239418268204, 0.25948366522789, 0.1640244424343109, -0.25137004256248474, 0.09602430462837219, 0.09048064798116684, -0.07745156437158585, 0.05851489678025246, -0.0069112698547542095], [-0.05839147791266441, -0.14720654487609863, -0.031224437057971954, 0.060460906475782394, -0.10253454744815826, 0.22726404666900635, 0.2616998851299286, 0.25743183493614197, -0.006439111195504665, 0.2983464002609253], [-0.001568357925862074, 0.04697636142373085, 0.04838801175355911, -0.303431898355484, 0.02741358056664467, 0.08672766387462616, 0.0471358597278595, -0.16973067820072174, 0.04910987615585327, 0.29387667775154114], [0.013778509572148323, 0.05523398891091347, -0.2696225941181183, -0.15433627367019653, 0.24447749555110931, -0.18157905340194702, -0.30599743127822876, 0.28912127017974854, -0.24193903803825378, 0.1486615091562271], [-0.06543868035078049, -0.039409611374139786, 0.024704577401280403, 0.13214881718158722, -0.27866995334625244, 0.1633349508047104, -0.09225660562515259, 0.12658032774925232, 0.11113269627094269, 0.2672806680202484], [0.050784882158041, -0.08157236874103546, -0.16076046228408813, -0.16759225726127625, -0.09181743860244751, 0.052506592124700546, 0.062364693731069565, 0.03735092282295227, 0.034114159643650055, -0.02549927495419979], [-0.10594110190868378, -0.12913484871387482, -0.26791736483573914, 0.044836513698101044, -0.3117625117301941, -0.28434866666793823, 0.27686262130737305, -0.24479758739471436, 0.2634049952030182, -0.0859277993440628], [0.04146697744727135, -0.1730193942785263, -0.19944888353347778, -0.1461677998304367, 0.205540269613266, -0.17540928721427917, -0.2768586277961731, -0.24478428065776825, -0.1544000208377838, -0.28941982984542847]], "bias": [-0.16693991422653198, 0.2164534479379654, 0.18385189771652222, -0.14763905107975006, -0.2515917420387268, 0.03463901951909065, -0.1009872630238533, 0.28243935108184814, -0.2190600335597992, 0.145257368683815, 0.28586098551750183, 0.2660982012748718, -0.13749690353870392, -0.10672139376401901, 0.18980437517166138, 0.2542901337146759, -0.04367980733513832, -0.19546759128570557, -0.27648627758026123, 0.08410189300775528]}