{"0.weight": [[0.14759939908981323, -0.11275040358304977, 0.16642579436302185, 0.19477501511573792, -0.21118701994419098, 0.1512727588415146, -0.06334909051656723, 0.061478883028030396, -0.217325359582901, -0.1804201453924179, 0.013561190105974674, -0.16367559134960175, -0.08864996582269669, 0.17689643800258636, 0.058073095977306366, -0.04576138034462929, 0.1273609846830368, -0.07242295891046524, -0.13823238015174866, 0.07673099637031555], [-0.02918502315878868, -0.13801248371601105, 0.1476050615310669, 0.07230780273675919, 0.21904395520687103, -0.038610268384218216, -0.035009466111660004, 0.0989387258887291, 0.07926630228757858, 0.12307606637477875, 0.14370831847190857, -0.04402418062090874, 0.04684270918369293, -0.15738429129123688, -0.1332838535308838, -0.17972584068775177, -0.07448805123567581, -0.1988915055990219, 0.021528618410229683, 0.20573879778385162], [0.2235352247953415, 0.02940528094768524, 0.18466322124004364, -0.1672716736793518, -0.018263602629303932, 0.20502163469791412, -0.14856615662574768, 0.20156030356884003, -0.14011114835739136, -0.21131783723831177, -0.18299834430217743, -0.21569585800170898, -0.13511312007904053, 0.08981456607580185, 0.126645028591156, -0.059971749782562256, -0.06922639906406403, -0.07563655078411102, 0.1684093475341797, -0.08226259797811508], [0.03389868512749672, 0.10602160543203354, 0.1051650419831276, -0.1431848704814911, -0.011741545051336288, -0.14930883049964905, 0.14079967141151428, 0.030648676678538322, 0.1726773977279663, 0.18663541972637177, 0.0015188859542831779, -0.10367203503847122, -0.13758452236652374, -0.10413483530282974, -0.20644205808639526, 0.1650930494070053, -0.12892930209636688, 0.12038233876228333, -0.21755382418632507, 0.18573983013629913], [-0.11927089095115662, 0.1245141550898552, 0.06351383030414581, 0.07517868280410767, 0.09319798648357391, -0.14565835893154144, 0.03635945916175842, -0.12566569447517395, -0.16790755093097687, -0.1192396804690361, -0.19223739206790924, 0.17462505400180817, 0.1544744372367859, -0.007099160924553871, -0.16134721040725708, 0.05218478664755821, -0.04459723085165024, 0.16611498594284058, 0.04888799786567688, -0.15685060620307922], [0.14384517073631287, 0.06670378148555756, 0.14719007909297943, -0.023879943415522575, 0.029096204787492752, 0.2055581957101822, 0.07239587604999542, 0.10263663530349731, -0.14099609851837158, 0.07391119003295898, 0.16717791557312012, 0.06657369434833527, 0.11096002906560898, -0.027513638138771057, 0.06227573752403259, -0.051801230758428574, -0.15637506544589996, -0.04747514799237251, -0.053395792841911316, 0.10804540663957596], [-0.20247164368629456, -0.04098968952894211, 0.06533142179250717, 0.0879431813955307, -0.012818846851587296, -0.07826494425535202, -0.2213667780160904, 0.029186967760324478, -0.16858306527137756, -0.1403636634349823, -0.0952964499592781, -0.18048785626888275, -0.19375334680080414, 0.14449594914913177, 0.16492308676242828, 0.0064781829714775085, 0.08736877143383026, 0.18077842891216278, 0.07425875961780548, -0.16593649983406067], [-0.18909379839897156, 0.11821576952934265, -0.019762523472309113, 0.1908203661441803, 0.03119445964694023, 0.11276906728744507, 0.04187234863638878, -0.0171109177172184, -0.0962291732430458, 0.17603622376918793, -0.11723858118057251, 0.21762028336524963, 0.15230029821395874, 0.08186203986406326, -0.14135459065437317, 0.10850410163402557, 0.1875009983778, -0.1394040733575821, 0.12461475282907486, 0.0472450815141201], [-0.1051967591047287, -0.1257363110780716, -0.1686670035123825, -0.19735300540924072, 0.06889823824167252, -0.03170916065573692, 0.07360539585351944, 0.19975411891937256, -0.010905532166361809, 0.19384357333183289, -0.13612942397594452, -0.1520095318555832, 0.11672244220972061, -0.06974917650222778, 1.999200503632892e-05, -0.09309530258178711, -0.13336819410324097, -0.1912824660539627, 0.1637279987335205, -0.016491245478391647], [0.10907313227653503, -0.21464760601520538, 0.04826118052005768, 0.1463402509689331, -0.12420841306447983, 0.051765114068984985, -0.15849512815475464, 0.21864864230155945, 0.03329753875732422, -0.0823730081319809, 0.17086198925971985, 0.12458545714616776, -0.15397396683692932, -0.14850391447544098, 0.11994317919015884, -0.11007259786128998, -0.040361274033784866, -0.21134375035762787, 0.027384329587221146, 0.017610637471079826], [0.027603069320321083, -0.002530907979235053, -0.1136767566204071, 0.032475441694259644, -0.046511586755514145, 0.16333626210689545, 0.15929456055164337, 0.10050404816865921, -0.10904314368963242, 0.024342238903045654, 0.09112377464771271, 0.05312584713101387, -0.052746959030628204, -0.14604058861732483, -0.2154112160205841, 0.20372919738292694, 0.12622976303100586, 0.042421143501996994, -0.005208530463278294, 0.022742372006177902], [-0.10111359506845474, 0.19295598566532135, 0.08353517949581146, -0.20085600018501282, 0.09999912977218628, 0.2100396603345871, -0.007108250632882118, -0.15572519600391388, -0.1349053531885147, -0.07758534699678421, 0.05032997950911522, -0.08019747585058212, -0.14021235704421997, 0.10165657848119736, -0.06162199750542641, 0.11548872292041779, -0.21837249398231506, 0.16725604236125946, -0.21151942014694214, 0.012922645546495914], [0.04123977571725845, 0.12099737673997879, 0.16813689470291138, 0.12805937230587006, -0.02625187486410141, 0.05452803522348404, 0.14088483154773712, 0.10083823651075363, 0.04495919495820999, -0.11783074587583542, -0.19963392615318298, -0.14264151453971863, 0.16299377381801605, 0.06601773202419281, 0.18662907183170319, 0.18095235526561737, -0.1285306066274643, 0.21433860063552856, 0.19541990756988525, 0.018417755141854286], [0.1310535967350006, 0.11523730307817459, 0.11713798344135284, 0.078156478703022, -0.20657354593276978, -0.00920312013477087, -0.22054819762706757, 0.10071087628602982, -0.16480065882205963, 0.049291808158159256, -0.14454451203346252, 0.10422341525554657, 0.10505598783493042, -0.040300872176885605, -0.09493182599544525, -0.18894217908382416, -0.023089753463864326, 0.07304516434669495, 0.11504991352558136, -0.00020471813331823796], [-0.16619057953357697, -0.04970511049032211, 0.049317292869091034, -0.10415488481521606, -0.0918712317943573, -0.015295296907424927, -0.2197689712047577, -0.17237310111522675, 0.023872533813118935, 0.15286588668823242, -0.18578578531742096, -0.014406852424144745, 0.019334347918629646, -0.1448424756526947, 0.11642757803201675, 0.12983335554599762, -0.1421901285648346, -0.0025167001876980066, 0.06509669125080109, -0.043527472764253616], [0.1494775265455246, -0.17135758697986603, 0.1363098919391632, -0.027530670166015625, -0.05214586853981018, 0.17403653264045715, -0.10182727873325348, -0.031758181750774384, 0.04757537320256233, 0.18334896862506866, 0.12290541082620621, 0.18380111455917358, 0.058387503027915955, -0.10285846889019012, -0.03917982429265976, 0.19973979890346527, 0.2141937017440796, -0.22265301644802094, -0.014931336045265198, -0.13064943253993988], [0.050844840705394745, 0.03568415716290474, -0.10091274231672287, -0.11121709644794464, -0.10184670984745026, 0.0008521659183315933, 0.07639704644680023, 0.1715392917394638, 0.16592274606227875, 0.07504542917013168, -0.2004995346069336, -0.08725260198116302, 0.22036515176296234, -0.12669377028942108, -0.08134539425373077, -0.19825157523155212, 0.12098324298858643, -0.03330252319574356, -0.20935238897800446, -0.017574919387698174], [-0.16304202377796173, 0.12166686356067657, 0.05307464301586151, -0.2019086480140686, -0.09718335419893265, 0.055341895669698715, 0.0842030718922615, 0.021208452060818672, 0.199961319565773, 0.12822659313678741, 0.11524298042058945, -0.10516266524791718, -0.06765489280223846, -0.13669253885746002, 0.07998447120189667, 0.01006354857236147, -0.18943126499652863, -0.0329667367041111, 0.11260273307561874, -0.17786447703838348], [0.159153550863266, 0.14876365661621094, -0.035292528569698334, 0.171722874045372, 0.15199081599712372, -0.07329482585191727, -0.04036524519324303, 0.10046148300170898, -0.06114960089325905, 0.20064131915569305, 0.21768556535243988, -0.1883942037820816, 0.16576653718948364, -0.022307105362415314, 0.22280500829219818, 0.12152772396802902, -0.05441911891102791, -0.003209169954061508, -0.046376895159482956, -0.033560365438461304], [0.1475130170583725, 0.174775630235672, -0.10003501176834106, 0.06181776151061058, -0.12290405482053757, 0.047584597021341324, 0.03291632980108261, 0.023063337430357933, -0.09683562070131302, 0.19421283900737762, -0.04678083956241608, 0.0036901775747537613, 0.15631429851055145, -0.03658323734998703, -0.18581995368003845, 0.025954021140933037, 0.21872927248477936, 0.09032878279685974, 0.1963992416858673, -0.045461393892765045], [0.09863082319498062, -0.03812349960207939, -0.1048441007733345, 0.20576174557209015, 0.016053181141614914, 0.07380016893148422, -0.038921501487493515, 0.07977596670389175, 0.19948062300682068, -0.09434821456670761, -0.07247515022754669, -0.08005102723836899, -0.04575132951140404, 0.1382165104150772, -0.05217724293470383, -0.19914378225803375, 0.02472168765962124, 0.09956655651330948, -0.09845593571662903, 0.01974087953567505], [-0.07476300746202469, 0.18456481397151947, 0.15121473371982574, 0.0733909159898758, 0.06392243504524231, -0.21089473366737366, 0.1293475329875946, 0.11016682535409927, -0.20273293554782867, 0.04365803673863411, 0.005348660983145237, -0.15667448937892914, -0.19960005581378937, -0.05810479074716568, -0.20898544788360596, 0.049970708787441254, 0.18267102539539337, 0.023570414632558823, -0.17609286308288574, -0.003202372696250677], [0.09532593190670013, 0.04415031895041466, -0.05749362334609032, -0.1361108273267746, 0.15947803854942322, -0.1831148862838745, -0.137201189994812, -0.160892516374588, 0.18723374605178833, 0.20417171716690063, 0.06489183753728867, -0.14685136079788208, -0.13879145681858063, 0.1225375309586525, -0.16773846745491028, -0.21098025143146515, -0.1487455815076828, 0.08531686663627625, -0.046163592487573624, 0.16701963543891907], [0.1282927542924881, 0.03224841132760048, -0.03485774248838425, -0.1397377997636795, 0.10165531933307648, -0.19157670438289642, 0.15716654062271118, 0.17592684924602509, -0.21797049045562744, 0.18258120119571686, 0.155752494931221, -0.09164465963840485, 0.06099419668316841, -0.14265993237495422, 0.15590879321098328, 0.15794673562049866, -0.00604206370189786, -0.11633960902690887, -0.20383454859256744, -0.09686814248561859], [0.21642784774303436, -0.07909519970417023, -0.1143168956041336, -0.149052694439888, 0.1313646137714386, 0.045535072684288025, 0.21128185093402863, 0.22263625264167786, -0.05121522769331932, 0.061784278601408005, -0.11778881400823593, -0.03308810293674469, 0.16158322989940643, -0.08583338558673859, 0.1708855777978897, 0.1492781788110733, -0.0915195643901825, -0.07576216012239456, -0.08297887444496155, 0.20067818462848663], [0.08749236911535263, -0.045878078788518906, 0.17810386419296265, 0.09079241007566452, 0.13108569383621216, 0.0738639310002327, -0.03505723550915718, 0.0968502014875412, -0.212716743350029, 0.10509298741817474, -0.21634356677532196, -0.03520144149661064, -0.1991100311279297, 0.010150367394089699, 0.15971152484416962, -0.2234489619731903, -0.05000675097107887, -0.022606080397963524, -0.029461737722158432, 0.11514315754175186], [-0.02908540889620781, -0.056823890656232834, -0.22315481305122375, -0.2098025232553482, -0.12607818841934204, -0.22023041546344757, 0.14279931783676147, 0.15810532867908478, 0.18248145282268524, -0.19825871288776398, 0.1541333794593811, -0.21340741217136383, 0.08527176827192307, -0.2137029618024826, 0.1993342936038971, 0.09583698213100433, 0.17146670818328857, 0.12657351791858673, -0.14660270512104034, -0.022774333134293556], [-0.10099806636571884, -0.10688096284866333, -0.014631802216172218, -0.12486358731985092, 0.05092771351337433, -0.04234591871500015, -0.21640361845493317, -0.014983661472797394, 0.03258723393082619, 0.01669364422559738, -0.13310031592845917, -0.06520675122737885, -0.027833562344312668, -0.12411623448133469, 0.10688938945531845, 0.1349492371082306, 0.19854140281677246, 0.02448703534901142, 0.0664939433336258, -0.12324857711791992], [0.009590857662260532, 0.031412556767463684, 0.08057644218206406, -0.08483711630105972, 0.1357884258031845, 0.10830794274806976, 0.007199627812951803, -0.058249931782484055, -0.14035256206989288, -0.202078714966774, -0.15898074209690094, 0.04094615951180458, 0.14325714111328125, -0.12154315412044525, 0.0939670130610466, -0.1257055252790451, 0.052791155874729156, -0.09899166971445084, 0.0683082565665245, -0.0347028411924839], [-0.03499285876750946, 0.13030962646007538, 0.006675703916698694, 0.19283562898635864, 0.026613891124725342, -0.025123126804828644, 0.20558451116085052, -0.011515314690768719, -0.15414078533649445, 0.0005906971055082977, -0.16841529309749603, 0.14390315115451813, -0.05058459937572479, 0.04958955571055412, -0.18479987978935242, 0.02716921456158161, 0.009283620864152908, 0.0863419771194458, -0.2032751441001892, 0.11203114688396454]], "0.bias": [0.008334560319781303, -0.07336489856243134, -0.19370529055595398, -0.21278618276119232, 0.04204875975847244, -0.17654702067375183, 0.21960186958312988, -0.0435287281870842, 0.2034147083759308, -0.06455224007368088, -0.06673824787139893, 0.20812658965587616, 0.1153450757265091, 0.10787003487348557, -0.21603289246559143, -0.07394160330295563, -0.2180880904197693, -0.04453914985060692, 0.2180791050195694, 0.2216268628835678, -0.02520008198916912, -0.015525737777352333, 0.13643813133239746, 0.11374805867671967, 0.19745337963104248, -0.22032083570957184, -0.10524482280015945, -0.13264943659305573, -0.16206449270248413, 0.18410061299800873]}