{"embeddings.word_embeddings.weight": [[0.004903437569737434, 0.02935079112648964], [-0.0014102444984018803, -0.013683457858860493], [0.014875362627208233, -0.007213750388473272], [0.003379887668415904, -0.0349571518599987], [-0.01631714589893818, -0.006079625803977251], [-0.0027515252586454153, 0.00467709731310606], [0.003970735240727663, 0.00013604176638182253], [0.0005377905908972025, -0.00276061799377203], [-0.014629172161221504, -0.04180726036429405], [0.009536303579807281, 0.054108936339616776], [-0.014086776413023472, 0.012452413327991962], [0.010109957307577133, 0.0007501748623326421], [0.008817877620458603, -0.006186578888446093], [0.01509182620793581, -0.013401394709944725], [-0.02014927752315998, -0.017232073470950127], [-0.016883831471204758, -0.03986123949289322], [-0.02126304991543293, -0.021776238456368446], [-0.009747890755534172, 0.013764387927949429], [-0.01865687593817711, -0.0018686818657442927], [0.0013361633755266666, 0.013129116035997868], [0.010388730093836784, -0.010810148902237415], [0.002209410071372986, 0.021617423743009567], [0.006616838276386261, 0.002441243501380086], [-0.01045645959675312, -0.012244769372045994], [0.025297949090600014, -0.037853874266147614], [-0.032920952886343, 0.01203826442360878], [-0.000504016934428364, 0.036775872111320496], [0.031172683462500572, -0.03325117751955986], [-0.03140490874648094, -0.02647940069437027], [-0.009938258677721024, 0.04329022392630577], [0.011806274764239788, 0.01229587011039257], [-0.007105216383934021, 0.004344695247709751], [0.00505429832264781, -0.026151670143008232], [-0.02740185707807541, -0.00590611482039094], [-0.005197054240852594, 0.01698489673435688], [0.010281127877533436, 0.03322437033057213], [-0.0068153622560203075, -0.021625444293022156], [-0.009833553805947304, 0.008529841899871826], [0.01719728484749794, 0.006967253051698208], [0.015362135134637356, 0.02155066840350628], [0.021697403863072395, -0.007845702581107616], [0.024634048342704773, 0.004489686340093613], [0.0054688225500285625, -0.010810736566781998], [-0.006136847194284201, -0.013727462850511074], [0.0095550287514925, -0.015020070597529411], [0.005930715706199408, -0.012545284815132618], [0.0002314190351171419, 0.018423881381750107], [-0.004024642985314131, -0.00793172512203455], [-0.013326309621334076, -0.003307714592665434], [-0.025039570406079292, -0.01600230112671852], [0.011481971479952335, 0.013248070143163204], [0.0020534670911729336, 0.003387395292520523], [-0.007691813167184591, -0.005601099226623774], [0.0027606284711509943, -0.03303113207221031], [0.035563599318265915, 0.006239972077310085], [-0.015593982301652431, -0.03090350329875946], [0.028628701344132423, -0.007484941277652979], [0.010034601204097271, -0.0038747803773730993], [0.04651395604014397, 0.03648862615227699], [0.0006122691556811333, 0.030197231099009514], [0.020829346030950546, 0.027313493192195892], [-0.010185285471379757, 0.027123473584651947], [0.026953110471367836, 0.017696844413876534], [0.0035418150946497917, -0.002659916877746582], [0.00804807897657156, 0.018106460571289062], [0.0338933952152729, -0.03169146552681923], [-0.005252173636108637, 0.032594386488199234], [0.022212127223610878, 0.0314006507396698], [0.024480730295181274, -0.028432181105017662], [0.04166562855243683, 0.02313270792365074], [0.013543730601668358, 0.01878942735493183], [-0.008166736923158169, 0.007954196073114872], [0.01977553218603134, 0.0218951553106308], [-0.031943678855895996, 0.009077749215066433], [-0.0068453471176326275, -0.023937933146953583], [-0.01791571080684662, -0.01011972688138485], [0.028790822252631187, 0.005915147718042135], [-0.008017472922801971, 0.022322092205286026], [0.005012874025851488, 0.02198920026421547], [0.012456989847123623, -0.019978541880846024], [-0.021406710147857666, -0.003949291072785854], [0.016116293147206306, -0.025288185104727745], [0.018895667046308517, 0.010460828430950642], [0.02288985252380371, 0.0044417912140488625], [-0.026011478155851364, -0.02889253944158554], [-0.0013969040010124445, 0.0008081458508968353], [0.020814452320337296, 0.0045103575102984905], [-0.006951647344976664, -0.03330236300826073], [0.009647088125348091, -0.003970704041421413], [0.015184327960014343, -0.04253682866692543], [-0.03257838264107704, 0.012924309819936752], [-0.010742023587226868, 0.04961540549993515], [0.02748130075633526, -0.001189470523968339], [0.027688350528478622, 0.020676791667938232], [-0.04997941479086876, 0.03026166930794716], [0.013050113804638386, 0.014673052355647087], [-0.022301869466900826, 0.024726392701268196], [-0.007783528883010149, -0.016683340072631836], [0.008563103154301643, -0.012942294590175152], [0.011097969487309456, -0.005490774288773537], [-0.028397424146533012, 0.015251790173351765], [-0.05832928046584129, 0.03373921290040016], [0.016816018149256706, -0.0033720158971846104], [-0.004951871000230312, 0.013597680255770683], [-0.00044250927749089897, -0.010080819018185139], [0.00776079623028636, -0.010199262760579586], [0.018711000680923462, 0.012854066677391529], [-0.006397863384336233, 0.024107949808239937], [0.0001200124024762772, 0.021434353664517403], [-0.006124921143054962, 0.018110960721969604], [-0.03566156327724457, 0.001244029263034463], [0.025547180324792862, 0.03112584538757801], [-0.011239323765039444, -0.005850608926266432], [0.015002346597611904, -0.01713782176375389], [-0.018381129950284958, -0.01974600926041603], [-0.01931171305477619, 0.023311929777264595], [0.020545775070786476, -0.03526695445179939], [0.01625162735581398, 0.028046581894159317], [0.020826715975999832, -0.008600443601608276], [0.03017900325357914, 0.023218702524900436], [-0.02246987447142601, -0.007611544337123632], [0.009434199891984463, 0.013125257566571236], [-0.007129684556275606, -0.0032343976199626923], [-0.0106447022408247, 0.012521694414317608], [0.00618403498083353, 0.007544452790170908], [-0.0036255919840186834, -0.018228374421596527], [-0.01720486953854561, -0.019534682855010033], [-0.007941003888845444, 0.02405724860727787], [0.005739977117627859, 0.0069158608093857765], [0.03382955864071846, 0.01859489642083645], [-0.00866719614714384, 0.009730817750096321], [0.029605567455291748, 0.03387000784277916], [0.02382391318678856, -0.01184175070375204], [0.014900939539074898, -0.0030982177704572678], [-0.01898614875972271, 0.02147655189037323], [-0.00882644858211279, -0.003508900525048375], [-0.01175322849303484, 0.010956723242998123], [-0.0035219925921410322, 0.0037871268577873707], [0.0011366982944309711, 0.002097958931699395], [-0.029240863397717476, -0.011711657978594303], [0.0026876013725996017, 0.05307922884821892], [-0.010414176620543003, -0.015956776216626167], [-0.02172846905887127, 0.02265636809170246], [0.008408778347074986, 0.008946550078690052], [-0.036186810582876205, -0.022751638665795326], [0.024308079853653908, 0.01803024858236313], [-0.025739995762705803, 0.016902338713407516], [0.016714241355657578, 0.04145020991563797], [0.01744748093187809, -0.000338570011081174], [-0.019201338291168213, -0.00895580556243658], [0.0031858542934060097, 0.028545457869768143], [-0.023832930251955986, -0.007638690993189812], [0.01600022427737713, -0.015349277295172215], [-0.0011579556157812476, -0.006209390703588724], [-0.0037944589275866747, 0.014920461922883987], [-0.025790199637413025, 0.01326027512550354], [0.0031793410889804363, -0.010979005135595798], [0.008462595753371716, -0.01742585189640522], [-0.028240980580449104, -0.011826413683593273], [-5.417995998868719e-05, -0.026272796094417572], [0.0031239809468388557, 0.03735729306936264], [0.01419471949338913, 0.001025466131977737], [-0.01714096963405609, 0.037398744374513626], [-0.026260869577527046, 0.0036765027325600386], [0.0066346824169158936, 0.017185784876346588], [0.027713000774383545, 0.013850516639649868], [-0.020701242610812187, 0.008980427868664265], [0.013503841124475002, -0.01804092340171337], [-0.026842018589377403, -0.0029139758553355932], [-0.014985619112849236, -0.01788341999053955], [0.010695844888687134, -0.01669558696448803], [-0.026935819536447525, 0.003992237150669098], [-0.012501426972448826, 0.014689847826957703], [-0.03443393111228943, -0.004128470551222563], [0.014150233007967472, 0.0035610967315733433], [-0.001006823848001659, 0.025897707790136337], [-0.0348694808781147, -0.031651344150304794], [0.036451056599617004, 0.03122902102768421], [0.022711971774697304, 0.014557908289134502], [0.015520760789513588, -0.035482387989759445], [-0.021173181012272835, -0.027805225923657417], [0.006853259168565273, 0.019434740766882896], [-0.0035896603949368, 0.03868184611201286], [-0.000965670682489872, -0.00405602203682065], [-0.019694242626428604, 0.012316117994487286], [-0.011530124582350254, 0.029370373114943504], [-0.020079033449292183, 0.013702104799449444], [-0.00285633048042655, 0.03359931707382202], [-0.007972873747348785, 0.00013509090058505535], [0.051483772695064545, 0.011452224105596542], [0.030109962448477745, 0.0037085702642798424], [-0.01709599979221821, 0.01079508289694786], [0.005693542305380106, 0.005530327558517456], [0.021396934986114502, 0.011293770745396614], [-0.032230544835329056, -0.01248367503285408], [-0.03185770660638809, 0.01516338437795639], [-0.003253097180277109, -4.392028131405823e-05], [0.00842265784740448, -0.024229560047388077], [0.0065685659646987915, -0.01497628167271614], [0.006262157578021288, 0.029247870668768883], [0.0003378413966856897, 0.02204628847539425], [0.004404110834002495, -0.0053658257238566875], [0.0247893538326025, 0.00923329871147871], [0.022885501384735107, -0.0011643525213003159], [0.010117028839886189, 0.027704082429409027], [0.012868400663137436, -0.005752793047577143], [-0.0453772246837616, 0.020806007087230682], [-0.04136176407337189, 0.002384498482570052], [0.010611110366880894, 0.023358020931482315], [-0.006132322363555431, -0.00867509562522173], [0.015576337464153767, 0.020754124969244003], [-0.03183246776461601, 0.04032600298523903], [0.03051171638071537, 0.002224186435341835], [-0.005492709577083588, 0.03741781786084175], [0.02335902862250805, -0.008086754940450191], [-0.011673671193420887, -0.019835062325000763], [0.032389264553785324, -0.024211613461375237], [0.0007731039077043533, -0.03322405368089676], [-0.013853606767952442, 0.016366535797715187], [-0.028076788410544395, 0.02275601029396057], [0.019581491127610207, 0.0049413228407502174], [0.0024895556271076202, 0.040062498301267624], [0.027754519134759903, -0.00048632457037456334], [-0.004906425252556801, -0.017781175673007965], [-0.052063316106796265, 0.025572631508111954], [0.00035652201040647924, 0.0005172016099095345], [0.0069684418849647045, -0.00012143581989221275], [-0.0014299568720161915, -0.01780930534005165], [-0.0009540398023091257, 0.0020510617177933455], [0.01946365460753441, 0.03179099038243294], [0.014937599189579487, 0.0015449648490175605], [0.01499031763523817, 0.019566472619771957], [0.038232289254665375, 0.005568161606788635], [-0.002824353286996484, -0.023463444784283638], [0.01342022605240345, -0.00601737666875124], [-0.01622750237584114, 0.03092724271118641], [0.017452744767069817, -0.008664867840707302], [-0.02046075090765953, -0.005123928654938936], [-0.012009277939796448, -0.02062831073999405], [-0.004365186206996441, -0.04480390623211861], [0.021551942452788353, -0.011342904530465603], [0.03187375143170357, 0.03324423357844353], [-0.05208160728216171, 0.04463658109307289], [-0.028391366824507713, 0.012638147920370102], [-0.005945147015154362, 0.042451873421669006], [-0.00764097273349762, 0.03352370113134384], [0.010111101903021336, -0.004821885842829943], [0.019686512649059296, 0.04834363982081413], [-0.0014008876169100404, -0.05502575635910034], [0.00494632450863719, -0.008308526128530502], [-0.008230963721871376, -0.012423932552337646], [0.0037084876094013453, -0.008657480590045452], [0.008218038827180862, 0.023001840338110924], [0.01741781085729599, 0.003805366111919284], [0.003848146414384246, 0.009026623331010342], [-0.004050595220178366, 0.02373310551047325], [0.0042028483003377914, 0.023249492049217224], [0.01346910186111927, -0.01824966073036194], [0.002478877315297723, -0.021063871681690216], [-0.007978323847055435, 0.001949902973137796], [0.015730898827314377, -0.00048243775381706655], [0.018542727455496788, 0.022233569994568825], [0.004836928099393845, -0.03719848394393921], [-0.011643673293292522, 0.008246144279837608], [0.01790551096200943, 0.009832371957600117], [0.02345484122633934, -0.011009814217686653], [0.0167325921356678, -0.006678802892565727], [0.0020547211170196533, -0.024266526103019714], [-0.03674830496311188, 0.0034796674735844135], [0.03205587714910507, -0.037005193531513214], [0.024478282779455185, 0.011491904966533184], [-0.0001822644262574613, 0.0036971326917409897], [-0.02936921827495098, -0.00462562358006835], [-0.006733514368534088, -0.010428166948258877], [-0.020063230767846107, 0.004201442934572697], [0.011874863877892494, 0.004236414562910795], [-0.02192884311079979, -0.04174687713384628], [-0.006860352121293545, 0.05531124025583267], [-0.0076293181627988815, 0.004246770404279232], [0.008189767599105835, 0.009309299290180206], [-0.03387937322258949, -0.005863550119102001], [0.004977847449481487, -0.014221090823411942], [-0.024068938568234444, 0.017715608701109886], [-0.023173945024609566, -0.005293595604598522], [0.009642423130571842, 0.007257017772644758], [-0.004703886341303587, -0.023927045986056328], [0.0012874816311523318, -0.00415835389867425], [0.0016701399581506848, -0.02107210084795952], [0.014221583493053913, -0.01093979086726904], [-0.013274150900542736, 0.03877915441989899], [0.026253411546349525, -0.010200181044638157], [0.0034732769709080458, 0.025147411972284317], [0.023523811250925064, -0.010940472595393658], [-0.003849236061796546, 0.040401019155979156], [0.017666956409811974, -0.005156988278031349], [0.009590470232069492, 0.014307714067399502], [0.009863778948783875, -0.03291303664445877], [-0.024409497156739235, -0.014858034439384937], [-0.011283619329333305, -0.007311169523745775], [-0.0017463581170886755, 0.008277532644569874], [0.014576245099306107, 0.033579323440790176], [-0.016673721373081207, -0.05211106315255165], [-0.020449407398700714, -0.00154579384252429], [-0.01723015122115612, -0.013940314762294292], [0.003044636221602559, 0.004217904526740313], [0.025761492550373077, -0.006032590754330158], [0.0005574704264290631, 0.02209070324897766], [0.019290607422590256, -0.008243664167821407], [0.033132877200841904, 0.015257935039699078], [0.017058830708265305, 0.03264496102929115], [-0.009658459573984146, 0.00270074512809515], [-0.04214348644018173, 0.029598431661725044], [-0.022915005683898926, 0.016141248866915703], [0.01214248314499855, -0.006971949711441994], [0.0025402395986020565, -0.027614615857601166], [-0.005277940537780523, 0.007436802145093679], [-0.0208902470767498, 0.059842996299266815], [-0.020924005657434464, 0.04618079587817192], [0.012995818629860878, -0.03454116731882095], [-0.025107162073254585, -0.012860536575317383], [-0.003364604664966464, -0.006922081578522921], [-0.011096673086285591, -0.0036681215278804302], [-0.020437585189938545, 0.022664355114102364], [-0.00044286836055107415, 0.00032983420533128083], [0.018510980531573296, -0.0015124271158128977], [0.0006013244274072349, -0.010769321583211422], [0.02645154669880867, -0.003349818754941225], [0.005016558803617954, 0.04824454337358475], [-0.005451112985610962, -0.017323985695838928], [-0.012945221737027168, -0.03379909321665764], [0.007252610754221678, 0.000614617601968348], [-0.0008145247702486813, 0.008880781009793282], [-0.046535395085811615, 0.0051710233092308044], [-0.0316803976893425, 0.007541295140981674], [-0.012131107039749622, -0.006669030524790287], [-0.013249526731669903, -0.012244371697306633], [-0.0385725237429142, -0.029085589572787285], [-0.003422820707783103, -0.05841248854994774], [-0.017871983349323273, -0.004345143213868141], [0.044277358800172806, -0.006730667781084776], [0.008223611861467361, 0.030256638303399086], [-0.0025992332957684994, 0.017450302839279175], [0.02313372865319252, -0.030319100245833397], [-0.012543044053018093, -0.010864895768463612], [-0.030189011245965958, -0.010486368089914322], [0.04841553047299385, -0.025044657289981842], [0.0037262379191815853, -0.033920347690582275], [0.02434718608856201, -0.00024254355230368674], [-0.03679535910487175, 0.016846580430865288], [0.008799740113317966, 0.02370697259902954], [-0.0033446233719587326, -0.00424603745341301], [-0.00533443596214056, -0.009923114441335201], [0.015986353158950806, 0.010175378061830997], [-0.0037984391674399376, -0.01685217209160328], [0.019087888300418854, 0.027548927813768387], [-0.006378557067364454, -0.034638453274965286], [-0.034151218831539154, -0.02147560939192772], [0.00753888301551342, 0.03886142373085022], [-0.038384322077035904, 0.007273433264344931], [0.009496577084064484, 0.0011491605546325445], [0.03739151731133461, -0.015987522900104523], [-0.013000299222767353, -0.001406685565598309], [-0.013041113503277302, 0.024539032950997353], [0.0378594808280468, 0.031886763870716095], [-0.008075237274169922, -0.03411858528852463], [-0.02430178038775921, -0.004441155586391687], [-0.03053152747452259, 0.026022693142294884], [-0.02846013568341732, -0.034477077424526215], [-0.0032956514041870832, 0.010049675591289997], [-0.01725418120622635, 0.003344947239384055], [0.020668931305408478, -0.02027338743209839], [0.032239001244306564, 0.013378536328673363], [-0.03555751219391823, 0.01893671788275242], [0.0014599417336285114, 0.018023667857050896], [0.0017378309275954962, -0.020838018506765366], [0.009109570644795895, 0.02470640279352665], [-0.02823304571211338, -0.02118080109357834], [-0.013131622225046158, -0.021094080060720444], [-0.009273780509829521, -0.018083635717630386], [-0.013624931685626507, 0.0422828383743763], [0.030585292726755142, -0.004343527369201183], [0.02889792062342167, -0.0265208650380373], [0.029393678531050682, -0.013528138399124146], [0.017727185040712357, 0.004483730066567659], [0.019222570583224297, 0.02863774634897709], [-0.02248162031173706, -0.015072654001414776], [0.009107725694775581, 0.017642710357904434], [-0.02056320197880268, 0.0028653889894485474], [0.03332033008337021, -0.025595184415578842], [-0.008422380313277245, -0.02064022421836853], [-0.03041858784854412, -0.01209982018917799], [-0.03367071971297264, -0.011594421230256557], [-0.017949866130948067, 0.03588441014289856], [-0.0041132718324661255, -0.0037090512923896313], [0.01342837419360876, -0.00957033596932888], [-0.006244400050491095, 0.004462419543415308], [0.02840077504515648, 0.032077811658382416], [-0.019669773057103157, -0.01818438060581684], [-0.0013014492578804493, -0.00566740520298481], [0.017998704686760902, -0.011063454672694206], [-0.03346363082528114, 0.03128978610038757], [-0.03087163157761097, -0.0027387216687202454], [0.021907925605773926, 0.012947331182658672], [0.028374873101711273, -0.004058326594531536], [0.014020516537129879, 0.023429539054632187], [-0.007991205900907516, -0.003935131710022688], [0.039751410484313965, -0.004992682486772537], [0.0025066828820854425, -0.01312890276312828], [0.03737958148121834, -0.017870379611849785], [0.03211984410881996, -0.010662475600838661], [-0.013769472949206829, 0.006988827604800463], [-0.019827352836728096, -0.032280586659908295], [-0.0016440126346424222, 0.03445648029446602], [0.013498557731509209, -0.01651867665350437], [0.0036041815765202045, -0.060112323611974716], [0.02797716110944748, -0.0007656657253392041], [-0.02227177657186985, 0.0019698364194482565], [0.0015730438753962517, -0.015199214220046997], [0.008922576904296875, 0.01395772397518158], [0.0002007439616136253, 0.011435174383223057], [0.017390556633472443, 0.0022375162225216627], [0.02993958443403244, 0.013057614676654339], [0.0287347212433815, -0.003911097999662161], [0.005142848007380962, -0.03568275272846222], [0.007414359133690596, 0.024528341367840767], [0.02192244678735733, 0.012963688001036644], [0.005228742025792599, 0.0010463219368830323], [-0.027039991691708565, 0.008049930445849895], [-0.006541220471262932, -0.02294355072081089], [-0.00903579592704773, 0.05959253013134003], [0.008554323576390743, -0.03536556288599968], [0.012036381289362907, 0.006122909020632505], [-0.017238270491361618, -0.004070345778018236], [-0.0023028806317597628, -0.004367738962173462], [0.012913759797811508, -0.03869679942727089], [-0.013111294247210026, 0.022164229303598404], [0.023585883900523186, -0.008829590864479542], [0.019480541348457336, 0.03650785982608795], [0.004013391211628914, -0.019803976640105247], [0.0020090301986783743, 0.010885844938457012], [-0.008033203892409801, 0.01700972579419613], [-0.025947878137230873, -0.004172789864242077], [0.008599687367677689, -0.026446232572197914], [0.011121227405965328, -0.022294525057077408], [-0.023003721609711647, 0.008641337975859642], [0.00017089485481847078, -0.029122209176421165], [-0.046849463135004044, -0.004268731456249952], [0.006541071925312281, 0.017767032608389854], [0.018931608647108078, 0.020083513110876083], [-0.0003528636007104069, 0.0014262200566008687], [-0.025798019021749496, 0.013925920240581036], [0.011797938495874405, 0.009508992545306683], [-0.007781702559441328, 0.0060769193805754185], [0.03084411472082138, 0.007073820102959871], [0.018512951210141182, 0.013103805482387543], [-0.000627047847956419, -0.02439119480550289], [0.0032403164077550173, -0.003174206241965294], [-0.013463296927511692, -0.02218860760331154], [-0.02983526699244976, -0.014528319239616394], [-0.001417276100255549, 0.04204165190458298], [0.005387374199926853, 0.006340717431157827], [0.013259926810860634, -0.010925060138106346], [-0.025116385892033577, 0.004556980449706316], [-0.017333941534161568, 0.011035469360649586], [-0.0017201561713591218, 0.02497006393969059], [-0.01804027520120144, -0.02034652605652809], [-0.01276901364326477, 0.013215769082307816], [0.004125603474676609, -0.022776441648602486], [0.014481746591627598, -0.0007340855663642287], [0.028922781348228455, -0.04297257214784622], [-0.022742947563529015, 0.041288990527391434], [-0.037913791835308075, 0.012854648754000664], [-0.016700901091098785, 0.007902350276708603], [0.007165913935750723, -0.010205257683992386], [0.0030860179103910923, 0.0037172017619013786], [0.017284534871578217, -0.01364968903362751], [0.00042916429811157286, 0.06175091490149498], [0.00017488753655925393, 0.015321092680096626], [0.0032732535619288683, 0.04271255433559418], [0.0006312537007033825, -0.014682610519230366], [0.014049021527171135, 0.006883940659463406], [0.011900247074663639, -0.0006951145478524268], [-0.01085335947573185, -0.002649537054821849], [0.03491484001278877, -0.008056656457483768], [-0.012748087756335735, -0.00981368962675333], [0.03425474092364311, 0.02669699862599373], [0.025537172332406044, -0.013701211661100388], [-0.06483059376478195, -0.00041093191248364747], [0.0011811540462076664, 0.01983048766851425], [0.017987189814448357, -0.013794326223433018], [0.021145999431610107, -0.002654043957591057], [-0.012748729437589645, 0.01897568069398403], [-0.014270518906414509, 0.015252159908413887], [-0.006913673132658005, 0.015702882781624794], [0.030056016519665718, 0.020955724641680717], [-0.01937808096408844, 0.02355828508734703], [0.009315193630754948, 0.008683223277330399], [-0.025366606190800667, 0.02460433356463909], [-0.019552649930119514, -0.04260837286710739], [-0.014815487898886204, 0.006171988323330879], [0.005767475347965956, 0.019506914541125298], [-0.013362668454647064, -0.031224731355905533], [-0.001320982351899147, -0.02637212723493576], [-0.014896206557750702, -0.02384907379746437], [-0.009822137653827667, -0.03659874573349953], [0.01621061936020851, -0.011315377429127693], [0.013547954149544239, 0.01667245849967003], [-0.02703312411904335, 0.01180234644562006], [0.0009714557090774179, -0.01619289629161358], [0.02257527969777584, -0.044781263917684555], [-0.02618676796555519, -0.024334074929356575], [-0.00300778029486537, 0.006747493986040354], [0.016278980299830437, 0.012388558126986027], [0.04201243817806244, 0.011019804514944553], [0.012688886374235153, -0.0216399896889925], [-0.0027630615513771772, 0.020533813163638115], [-0.005572872702032328, 0.014749927446246147], [0.027628185227513313, 0.011458289809525013], [-0.009324551559984684, 0.032954320311546326], [-0.00034736975794658065, 0.009514771401882172], [-0.004195757210254669, -0.05228889361023903], [-0.017332224175333977, -0.01302847359329462], [-0.023297959938645363, -0.0038174677174538374], [0.007977318949997425, -0.0067615145817399025], [-0.040983933955430984, -0.03264586254954338], [0.01313201617449522, -0.02182902581989765], [0.03538401424884796, 0.008963970467448235], [-0.034271370619535446, -0.014908771961927414], [0.008090329356491566, -0.021602759137749672], [-0.013831431977450848, -0.02662269026041031], [0.015057492069900036, -0.03487230837345123], [-0.04149072989821434, -6.063118780730292e-05], [0.0001436377060599625, -0.012027853168547153], [0.013300308957695961, 0.00343038490973413], [0.019469719380140305, 0.025178704410791397], [-0.02255755104124546, 0.006641958840191364], [0.03491571918129921, 0.005536507815122604], [0.006323729641735554, -0.006979329977184534], [0.011578877456486225, 0.02325204759836197], [-0.022606248036026955, -0.0040867747738957405], [-0.010743954218924046, 0.00607665628194809], [0.008720475248992443, 0.009936589747667313], [-0.0008586785988882184, -0.012090074829757214], [-0.013300389982759953, 0.0185205340385437], [-0.03052295558154583, 0.019079633057117462], [0.007773757912218571, 0.02570783719420433], [0.011496394872665405, -0.0017590448260307312], [0.020637379959225655, -0.004466959275305271], [-0.013286571949720383, -0.04166661947965622], [-0.008143814280629158, -0.03580969572067261], [-0.01267881877720356, -0.018794972449541092], [0.006983816623687744, 0.0016161298844963312], [-0.014988014474511147, 0.009296431206166744], [0.029369305819272995, 0.009651761502027512], [-0.0015938441501930356, 0.01185639575123787], [0.010997905395925045, 0.00754968635737896], [-0.00203372398391366, -0.008580710738897324], [0.006683437153697014, 0.014362750574946404], [0.027119291946291924, 0.010650521144270897], [-0.005291906651109457, 0.0012906696647405624], [-0.018979186192154884, -0.02505546435713768], [-0.006789022590965033, -0.0013806667411699891], [0.03279265761375427, -0.003034528810530901], [0.020597955211997032, 0.007442297879606485], [-0.0007464394439011812, -0.017893776297569275], [-0.00029940775129944086, -0.017420995980501175], [-0.045153167098760605, 0.00508606294170022], [-0.034956932067871094, 0.016060788184404373], [0.01481456495821476, -0.009073606692254543], [-0.0019258358515799046, -0.013708342798054218], [-0.020050521939992905, 0.001936471089720726], [0.013186481781303883, 0.003840060206130147], [-0.017480812966823578, -0.024280615150928497], [0.015401791781187057, 0.00016719817358534783], [-0.01995447278022766, 0.005649740342050791], [0.004189301747828722, -0.005697212647646666], [0.02403998374938965, 1.6621559552731924e-05], [0.03107347898185253, 0.011654531583189964], [0.00392350135371089, 0.0071327886544167995], [0.05788879841566086, -0.0008091076742857695], [0.005943113937973976, 0.015784185379743576], [-0.023969685658812523, 0.0036804135888814926], [0.0019323591841384768, 0.03065348230302334], [-0.01733497530221939, 0.03472277894616127], [-0.013100029900670052, -0.031102491542696953], [-0.03233243525028229, 0.010786572471261024], [-0.016902195289731026, 0.01310198474675417], [-0.0013683781726285815, -0.030751017853617668], [0.030865389853715897, -0.0033236683811992407], [0.007271287497133017, 0.011817668564617634], [0.02882564626634121, -0.0056341588497161865], [-0.014769332483410835, -0.023115690797567368], [-0.021782394498586655, -0.014283129945397377], [-0.0014733378775417805, -0.008508867584168911], [0.03880827873945236, 0.04085404798388481], [0.024060897529125214, -0.004775557201355696], [0.009328030981123447, -0.003934219945222139], [-0.027265526354312897, -0.015466628596186638], [-0.010379678569734097, -0.0257745161652565], [-0.006038734223693609, -0.02545749768614769], [0.03426865115761757, -0.01045707892626524], [0.0008903172565624118, -0.0141008161008358], [0.0018410129705443978, -0.016029521822929382], [0.010230546817183495, 0.031449463218450546], [-0.0010069769341498613, -0.012389706447720528], [-0.010494210757315159, -0.029955696314573288], [0.010046236217021942, 0.0024671442806720734], [-0.008021296933293343, 0.046083759516477585], [-0.009189468808472157, -0.017399977892637253], [0.021180523559451103, 0.004182916600257158], [0.01785885915160179, -0.01836826466023922], [0.04635455459356308, 0.027688823640346527], [-0.0065969121642410755, 0.00569677259773016], [-0.010655766353011131, 0.030269037932157516], [-0.016565728932619095, 0.015433958731591702], [0.00338498642668128, 0.016171317547559738], [-0.02075621299445629, -0.03532731533050537], [-0.03183069825172424, 0.005541233345866203], [0.010647593066096306, 0.01276557520031929], [-0.010948564857244492, 0.003665010444819927], [-0.01868497207760811, 0.016635620966553688], [-0.030955186113715172, -0.007272616028785706], [0.0200511384755373, 0.00850482564419508], [0.000812668411526829, -0.04040133208036423], [-0.011422792449593544, -0.011901168152689934], [0.025033188983798027, 0.0030852763447910547], [0.02626725286245346, -0.019408773630857468], [-0.03364528715610504, 0.024335891008377075], [-0.019713766872882843, 0.03006756491959095], [-0.030316174030303955, -0.030426038429141045], [0.026558415964245796, 0.03315279260277748], [0.0003744556161109358, -0.016707994043827057], [0.02073475532233715, -0.02189120091497898], [-0.009809606708586216, 0.03815038502216339], [0.02153867483139038, 0.02464868314564228], [0.022130917757749557, 0.013055508956313133], [0.013724492862820625, -0.007410081569105387], [-0.0027143380139023066, -0.022545555606484413], [0.0051798890344798565, -0.02640201710164547], [-0.019458411261439323, -0.014934482984244823], [-0.02421565167605877, 0.006131371948868036], [-5.098018664284609e-05, -0.010822010226547718], [-0.023483511060476303, 0.006678365170955658], [-0.015284569934010506, 0.002641705796122551], [0.01248784177005291, -0.03057682141661644], [-0.0183731522411108, -0.0023773517459630966], [-0.009509618394076824, 0.032967448234558105], [-0.03513995185494423, -0.010715310461819172], [0.010573905892670155, -0.020023148506879807], [-0.007340393029153347, -0.001972332363948226], [-0.00019853304547723383, -0.00932907871901989], [0.031542565673589706, -0.01828969642519951], [0.02139747329056263, -0.006245425436645746], [0.029701875522732735, -0.021549042314291], [0.018461167812347412, -0.010524085722863674], [0.011557384394109249, -0.0010969812283292413], [0.0007771293167024851, -0.031381167471408844], [0.02300841361284256, 0.02972020022571087], [-0.011152081191539764, -0.01227449718862772], [-0.00968310795724392, 0.010964357294142246], [-0.016650233417749405, 0.03519919887185097], [0.020913140848279, 0.026465725153684616], [0.020372910425066948, -0.007964786142110825], [0.005605730693787336, 0.01533349696546793], [0.03308814391493797, 0.0037568137049674988], [0.010967114940285683, 0.011735028587281704], [0.01563025265932083, 0.01866942271590233], [0.0029008500277996063, 0.02772434614598751], [-0.004070675931870937, 0.0019494513981044292], [-0.005662016104906797, 0.013371812179684639], [0.030685707926750183, -0.007641838397830725], [0.022139811888337135, 0.01756676658987999], [0.022861894220113754, -0.011106284335255623], [-0.00524993147701025, 0.02543795295059681], [0.04533796384930611, -0.023609019815921783], [-0.014828925020992756, -0.017614323645830154], [0.02056712657213211, -0.0019814390689134598], [-0.017377803102135658, -0.008859550580382347], [-0.009392824955284595, -0.026077888906002045], [0.02762444131076336, -0.00014425622066482902], [-0.032029006630182266, 0.017464684322476387], [-0.02293930947780609, 0.024520015344023705], [-0.01004362478852272, -0.01051096897572279], [-0.009539990685880184, 0.02431211620569229], [0.048548564314842224, 0.025246569886803627], [-0.012418601661920547, -0.006073189899325371], [-0.00735065434128046, -0.002662395127117634], [0.004678500350564718, 0.02638763189315796], [-0.002944894367828965, 0.013218528591096401], [-0.00966881588101387, -0.02099125273525715], [0.0020018129143863916, 0.0026090682949870825], [0.008277054876089096, -0.011183265596628189], [0.0012256087502464652, -0.0024445862509310246], [0.01674310676753521, -0.0006973183481022716], [-0.009394734166562557, -0.009313633665442467], [-0.030313551425933838, -0.017089078202843666], [0.00039471860509365797, -0.011311178095638752], [-0.03071308508515358, 0.02777194418013096], [0.005438998341560364, -0.0014296307926997542], [0.013323950581252575, 0.013679740950465202], [-0.006312534213066101, -0.024142414331436157], [0.0075195180252194405, 0.020149869844317436], [-0.007396934553980827, -0.04777346923947334], [-0.013969131745398045, -0.021556993946433067], [-0.018771661445498466, 0.011572495102882385], [-0.018234727904200554, 0.023424888029694557], [-0.007862484082579613, 0.008451991714537144], [0.008262427523732185, -0.005041799042373896], [0.017659476026892662, 0.060354363173246384], [0.00884654838591814, -0.02504875510931015], [-0.013939746655523777, 0.00039374770130962133], [0.007703014649450779, -0.016925690695643425], [0.014894000254571438, -0.03402750939130783], [-1.838454591052141e-05, -0.007794369477778673], [-0.006809077691286802, -0.006182196084409952], [0.012879828922450542, -0.03873886168003082], [0.003933780360966921, -0.008399651385843754], [0.008233713917434216, 0.034197065979242325], [0.012098346836864948, 0.02067268081009388], [-0.016166135668754578, -0.0034065814688801765], [-0.02848776802420616, -0.003715759376063943], [-0.009130806662142277, 0.019558612257242203], [-0.00018710589210968465, -0.002564320107921958], [-0.024621369317173958, -0.005389363504946232], [-0.019639359787106514, -0.03343530371785164], [0.007581724319607019, 0.0007699521374888718], [0.019858846440911293, 0.02617960423231125], [-0.003702585818246007, 0.012877734377980232], [-0.020961454138159752, -0.04395364597439766], [-0.025004440918564796, -0.031024161726236343], [0.008166555315256119, 0.01693340204656124], [0.0029112505726516247, -0.01508159376680851], [0.036266110837459564, 0.05565844103693962], [0.022811608389019966, 0.01231719832867384], [-0.028682362288236618, 0.008514562621712685], [0.004871238488703966, -0.05130130797624588], [-0.00019695477385539562, 0.00010824499622685835], [0.014943182468414307, -0.01949351280927658], [0.01799984648823738, 0.02639731392264366], [0.012862403877079487, 0.035096630454063416], [0.013485824689269066, -0.005637248512357473], [0.014644172042608261, -0.01980568654835224], [0.006689280737191439, 0.0010667138267308474], [0.003139368025586009, 0.02582509070634842], [-0.04593741148710251, -0.009153973311185837], [0.008347036316990852, 0.00823361985385418], [0.002098361263051629, -0.027390198782086372], [-0.007640862371772528, 0.012975575402379036], [0.011281020008027554, 0.0013755863765254617], [-0.022100074216723442, -0.016494927927851677], [0.03947091102600098, 0.01345560047775507], [-0.005826202686876059, -0.03012232482433319], [0.005541456397622824, -0.0014618018176406622], [-0.013455066829919815, 0.0003697672800626606], [-0.01675649732351303, -0.01101415604352951], [0.019062118604779243, -0.014788428321480751], [-0.003425023751333356, 0.04276546463370323], [-0.00032831853604875505, 0.04904251545667648], [-0.006647198460996151, 0.006657104939222336], [-0.022621460258960724, -0.026804259046912193], [0.010708091780543327, 0.010067557916045189], [0.02929428033530712, 0.030450979247689247], [0.007640298455953598, -0.019973650574684143], [0.012924477458000183, 0.017920799553394318], [0.017479507252573967, 0.02145959995687008], [0.02100483328104019, 0.02002359740436077], [0.009080988354980946, 0.02674010954797268], [-0.012098667211830616, 0.01407688669860363], [0.014363573864102364, 0.009942427277565002], [-0.02243978902697563, 0.005873205605894327], [0.03632352501153946, -0.01943925768136978], [-0.013141556642949581, 0.017018020153045654], [0.0056666480377316475, 0.009392127394676208], [0.007652464788407087, -0.0074379160068929195], [0.022799402475357056, 0.04421815276145935], [0.006335768382996321, -0.005481289699673653], [-0.00672856904566288, 0.0127194719389081], [-0.010232510045170784, -0.023485634475946426], [-0.0029265321791172028, 0.004899089224636555], [-0.015032010152935982, 0.024214019998908043], [-0.0017021489329636097, -0.017602400854229927], [0.01876998320221901, -0.005397025961428881], [-0.020094210281968117, 0.022647656500339508], [0.03608355298638344, 0.0008490336476825178], [-0.02445027232170105, -0.012888696976006031], [-0.0024911786895245314, -0.005299967247992754], [0.00252513843588531, 0.011666706763207912], [0.046427786350250244, -0.020246367901563644], [-0.029608167707920074, 0.02945326454937458], [0.019272437319159508, 0.005503829102963209], [0.01731715351343155, -0.036164768040180206], [0.020757338032126427, 0.0020794167649000883], [-0.03874853625893593, 0.0029179200064390898], [-0.029619434848427773, 0.04201637953519821], [-0.003531040158122778, -0.0077998884953558445], [0.01672491431236267, -7.860599725972861e-05], [0.024276554584503174, -0.03651925548911095], [0.000938283686991781, 0.03467787429690361], [0.011361276730895042, 0.017232181504368782], [-0.02593890205025673, -0.020432379096746445], [-0.03476567193865776, 0.01937665417790413], [0.0013526310212910175, 0.01740032620728016], [0.01444723829627037, 0.011139590293169022], [0.013053442351520061, -0.01873517781496048], [0.016223985701799393, -0.01498264167457819], [0.024617023766040802, -0.026538649573922157], [0.003535260446369648, 0.022107986733317375], [-0.016967052593827248, 0.013024747371673584], [-0.01039935927838087, 0.0015093664405867457], [0.01453749742358923, 0.009605202823877335], [0.022646009922027588, -0.0233561173081398], [0.01847754791378975, -0.01585754193365574], [0.012216595001518726, 0.03273957595229149], [0.004579531028866768, 0.02163255214691162], [-0.0013251913478597999, 0.03267079219222069], [0.01854673959314823, 0.0141313336789608], [-0.00681203231215477, 0.013280410319566727], [0.0028107648249715567, -0.019182022660970688], [-0.005486282054334879, -0.001564021804369986], [-0.022379083558917046, 0.022912055253982544], [0.0014146273024380207, -0.00921967625617981], [-0.012752320617437363, 0.00602375902235508], [-0.02324332669377327, 0.0026486453134566545], [-0.021984679624438286, -0.0036076572723686695], [-0.014494478702545166, -0.008938319981098175], [0.0342213474214077, -0.044244345277547836], [0.0057702502235770226, -0.011009213514626026], [0.027862170711159706, 0.006650810595601797], [0.03796013072133064, 0.036110181361436844], [-0.011553201824426651, 0.004054894205182791], [-0.013118090108036995, -0.006538141053169966], [-0.05259740725159645, 0.025958627462387085], [-0.008175970055162907, 0.013184932060539722], [-0.008436917327344418, 0.02632097154855728], [0.005937269888818264, 0.007335994858294725], [-0.01571187563240528, -0.024708792567253113], [0.006318704225122929, 0.019176218658685684], [-0.006829164456576109, -0.0017811324214562774], [0.01816931739449501, -0.050736214965581894], [0.06175454333424568, 1.3293907613842748e-05], [-0.0017983822617679834, -0.001128181698732078], [0.018555128946900368, 0.03363611549139023], [-0.004543734714388847, -0.03559374809265137], [-0.013976153917610645, 0.00025023333728313446], [0.015880312770605087, -0.029766224324703217], [0.0045271385461091995, 0.011144825257360935], [0.011384258978068829, 0.020051350817084312], [-0.017218299210071564, 0.01914863847196102], [-0.01350159477442503, 0.012915011495351791], [0.03228424862027168, 0.04381415620446205], [0.003419614629819989, -0.013151228427886963], [0.024157706648111343, 0.001381210400722921], [-0.037905003875494, -0.00572411622852087], [-0.020438535138964653, -0.013003031723201275], [-0.002346556168049574, 0.01987736113369465], [-0.01595008745789528, 0.0045034391805529594], [-0.03581434488296509, -0.03359350562095642], [-0.0062111797742545605, 0.008722016587853432], [0.008231365121901035, -0.03653311729431152], [-0.008188231848180294, 0.022155968472361565], [-0.010503212921321392, 0.008492281660437584], [-0.025087885558605194, -0.012045102193951607], [-0.01995222084224224, 0.020359409973025322], [0.0023866179399192333, -0.014050323516130447], [0.034839875996112823, -0.017922425642609596], [0.0173089187592268, 0.006829037331044674], [0.0028794470708817244, -0.011269339360296726], [0.015829699113965034, 0.006411176640540361], [-0.016344469040632248, 0.02816760540008545], [-0.028507141396403313, 0.00043864143663085997], [-0.01579698547720909, 0.007884868420660496], [-0.040095310658216476, 0.029931670054793358], [-0.007954517379403114, -0.0025340181309729815], [-0.006592517718672752, -0.03754396736621857], [-0.004531152546405792, 0.02061464823782444], [-0.018309835344552994, 0.005531656090170145], [0.012498448602855206, 0.004871807061135769], [6.435480463551357e-05, -0.013390392996370792], [-0.022579584270715714, -0.00034369868808425963], [0.021391144022345543, -0.000922291656024754], [-0.010266570374369621, -0.01785123720765114], [-0.024693481624126434, 0.008197288028895855], [0.01680450513958931, -0.036330338567495346], [0.0013556466437876225, -0.03663723170757294], [-0.004025647416710854, 0.012891512364149094], [0.0042306226678192616, 0.028896979987621307], [-0.004141682293266058, 0.011695867404341698], [0.007088412530720234, 0.002010256052017212], [-0.008720907382667065, 0.027010947465896606], [-0.02475690096616745, -0.01682763732969761], [0.01170102134346962, -0.0007645418518222868], [0.012279707938432693, -0.013178631663322449], [-0.019713634625077248, -0.005987129639834166], [-0.017989162355661392, 0.015467998571693897], [-0.026036100462079048, 0.011188838630914688], [0.021163523197174072, 0.03005322627723217], [0.002373569877818227, 0.028615185990929604], [-0.015067405067384243, 0.00923192035406828], [-0.014669476076960564, -0.013033965602517128], [0.014763843268156052, -0.014340086840093136], [0.008207484148442745, 0.03671495243906975], [0.007414443884044886, 0.029815779998898506], [0.02368667721748352, 0.021780073642730713], [-0.026957478374242783, 0.00665320036932826], [-0.016468655318021774, 0.02297564409673214], [0.006663822568953037, -0.025607548654079437], [0.016725344583392143, -0.016716839745640755], [0.00926570687443018, -0.011842031963169575], [-0.03278254345059395, 0.008816060610115528], [-0.016632884740829468, 0.018715446814894676], [-0.006665457505732775, -0.016153233125805855], [0.0096038319170475, -0.013817891478538513], [0.024618497118353844, 0.00786200724542141], [0.03302641957998276, 0.029506133869290352], [0.0009427039185538888, 0.00353814335539937], [-0.022864218801259995, -0.0006569331744685769], [0.0014061997644603252, 0.0077498238533735275], [-0.016130356118083, 0.009820599108934402], [-0.026397982612252235, -0.01116971392184496], [0.002613420132547617, -0.018277209252119064], [0.015329214744269848, -0.040251389145851135], [0.02748713456094265, 0.010037451982498169], [0.00752316415309906, -0.04082158952951431], [0.023941807448863983, -0.008380002342164516], [0.0064465380273759365, -0.006704073399305344], [-0.02170035056769848, -0.0033460925333201885], [0.00017371993453707546, -0.018696950748562813], [-0.009921782650053501, -0.025115804746747017], [-0.00788481067866087, -0.0007675559027120471], [-0.016629299148917198, 0.0311399195343256], [0.029309051111340523, -0.04457760229706764], [0.03973610699176788, 0.008389746770262718], [-0.007671704050153494, -0.012853026390075684], [-0.0076929484494030476, 0.02073536068201065], [0.027222953736782074, 0.022444836795330048], [0.024565018713474274, 0.028115971013903618], [-0.04356326907873154, 0.026077307760715485], [0.014341937378048897, 0.005765318870544434], [-0.028206562623381615, -0.05985792353749275], [0.03635723143815994, 0.006929832976311445], [-0.019943010061979294, 0.01593216508626938], [-0.006904506590217352, -0.0018054499523714185], [0.03128216043114662, 0.011965850368142128], [-0.01155479159206152, -0.005623060278594494], [-0.029006170108914375, -0.017152786254882812], [0.009988764300942421, 0.02122180350124836], [0.011602615937590599, -0.015842167660593987], [0.027030058205127716, 0.027287526056170464], [-0.012045541778206825, 0.00869620218873024], [0.006026000250130892, -0.007241841871291399], [0.002470369916409254, 0.00483760004863143], [0.015747565776109695, -0.015124168246984482], [-0.004509633872658014, 0.016821157187223434], [0.009937671013176441, 0.008519494906067848], [0.026022586971521378, -0.006410073954612017], [0.02054511569440365, -0.001723507302813232], [2.0673320250352845e-05, 0.006836751475930214], [0.014294271357357502, 0.027571901679039], [0.020781023427844048, 0.01227607298642397], [-0.017478853464126587, 0.010546926409006119], [8.188995707314461e-05, -0.031123226508498192], [-0.0027572365943342447, -0.027788259088993073], [0.001854855683632195, 0.020223276689648628], [-0.019904419779777527, -0.007067669648677111], [0.021642956882715225, 0.0014185333857312799], [-0.015862906351685524, 0.006786269601434469], [-0.0016749928472563624, -0.0157241802662611], [-0.015886947512626648, 0.002154423389583826], [-0.02931545116007328, 0.02176791802048683], [0.022932277992367744, 0.011864225380122662], [-0.005661672912538052, 0.020017113536596298], [-0.03571860119700432, 0.0037683872506022453], [0.0013032222632318735, -0.0036875917576253414], [0.037339672446250916, -0.003922796342521906], [-0.04212619736790657, -0.020593037828803062], [0.011384806595742702, 0.001871376996859908], [0.021944280713796616, -0.019226975739002228], [-0.01825989969074726, -0.023817650973796844], [0.012466664426028728, -0.002726542064920068], [-0.007511940319091082, 0.005754249636083841], [-0.004218245856463909, 0.035169072449207306], [0.0022772790398448706, 0.020825259387493134], [0.025484584271907806, -0.021006256341934204], [0.024542517960071564, 0.02459137886762619], [-0.0023804199881851673, -0.0039709024131298065], [0.015357772819697857, 0.03009924851357937], [0.01980336382985115, -0.01851637102663517], [-0.010897956788539886, -0.02944967895746231], [0.0155886085703969, 0.004236758220940828], [0.017489571124315262, -0.03822134807705879], [0.007447619456797838, -0.03173947334289551], [-0.042661190032958984, 0.014833757653832436], [0.03141561523079872, -0.011040007695555687], [0.024363385513424873, 0.021805688738822937], [0.022642603144049644, 0.006737797521054745], [0.010475707240402699, 0.01838529109954834], [-0.022722909227013588, -0.030202435329556465], [0.02224978618323803, 0.020204799249768257], [0.01450792420655489, 0.006862544920295477], [0.028245683759450912, -0.005781866610050201], [-0.0008201026939786971, -0.006888189818710089], [0.027063922956585884, -0.00883689895272255], [-0.0035838307812809944, 0.0050049638375639915], [-0.039207909256219864, -0.001633689389564097], [-0.005700903479009867, 0.025605380535125732], [-0.018592244014143944, -0.02547645755112171], [-0.0310691986232996, 0.0001640381960896775], [-0.0023476285859942436, -0.0003651391889434308], [-0.020591391250491142, -0.007971711456775665], [0.008094372227787971, -0.026530250906944275], [-0.03600996732711792, 0.0032480244990438223], [-7.399896276183426e-05, -0.024318035691976547], [0.012044086121022701, -0.011708056554198265], [-0.01085751038044691, 0.011613788083195686], [0.043347619473934174, 0.030647100880742073], [0.011019810102880001, 0.013923938386142254], [0.013195966370403767, -0.02660207264125347], [0.031047476455569267, 0.004636882804334164], [0.008887247182428837, 0.0003644899989012629], [-0.004527601879090071, 0.007627367042005062], [0.004461613949388266, 0.004736398346722126], [0.0015030966605991125, 0.0010491299908608198], [0.013120167888700962, -0.022149110212922096], [0.028160836547613144, 0.02334596775472164], [0.025278769433498383, 0.014292649924755096], [-0.04024244099855423, -0.016655130311846733], [-0.05655161663889885, 0.009876405820250511], [0.0010247714817523956, -0.020282208919525146], [-0.002153857611119747, 0.0029935005586594343], [0.0101339565590024, -0.007300626020878553], [0.010455427691340446, 0.049121513962745667], [-0.02357858046889305, -0.018118049949407578], [0.004272649995982647, -0.027084413915872574], [0.010853315703570843, 0.02315673790872097], [0.0028226012364029884, 0.025815172120928764], [0.02234877459704876, 0.03247113898396492], [-0.03338901326060295, -0.031834352761507034], [0.009152599610388279, 0.036502525210380554], [-0.03426061198115349, 0.017875470221042633], [-0.015090424567461014, -0.0010131415911018848], [-0.030014773830771446, 0.025901934131979942], [5.431222598417662e-05, -0.005326816812157631], [-0.003653736552223563, -0.012210345827043056], [0.009472301229834557, -0.0009293974726460874], [-0.011366399005055428, -0.03195026144385338], [0.02114693634212017, -0.020117513835430145], [-0.029460005462169647, 0.003641001880168915], [-0.0016810779925435781, -0.00659959577023983], [-0.008907856419682503, -0.011713800951838493], [0.04370303079485893, 0.0018931941594928503], [0.01233588345348835, 0.01779957301914692], [-0.005505603272467852, 0.009296011179685593], [-0.0166727714240551, -0.016445575281977654], [0.010820931755006313, 0.020552117377519608], [-0.013119225390255451, 0.02898114174604416], [0.019556157290935516, 0.0026065984275192022], [-0.010499410331249237, -0.0010984312975779176], [0.017300762236118317, -0.022531459107995033], [0.009874177165329456, -0.0249400082975626], [0.025653144344687462, 0.005176784470677376], [0.0018109424272552133, 0.016813974827528], [-0.038662005215883255, 0.01899636909365654], [-0.00986226461827755, -0.023147689178586006], [0.007595718372613192, 0.022416533902287483], [-0.008454950526356697, -0.009707247838377953], [-0.011860966682434082, 0.004891868215054274], [-0.05854316055774689, -0.007334535475820303], [0.013711784966289997, 0.022057252004742622], [-0.011792498640716076, -0.009522934444248676], [0.004254399333149195, -0.01583832874894142], [0.018772076815366745, 0.009063568897545338], [0.027818741276860237, -0.031476326286792755], [0.0377926379442215, -0.024350369349122047], [0.003214389318600297, 0.045813459903001785], [0.019872987642884254, -0.002425732323899865], [-0.002071193652227521, -0.015461760573089123], [0.0029436256736516953, -0.016557950526475906], [0.0010951359290629625, 0.014706932939589024], [-0.004198420327156782, 0.013021212071180344], [0.008190035820007324, -0.02703423611819744], [-0.006276920437812805, -0.02178352326154709], [-0.026182126253843307, 0.019659927114844322], [0.013226788491010666, -0.0038129102904349566], [-0.011213657446205616, -0.03690934181213379], [-0.010614484548568726, -0.009229342453181744], [-0.0009934920817613602, 0.011710718274116516], [-0.009783756919205189, 0.010994932614266872], [-0.0074556972831487656, 0.004681991878896952], [-0.003387159900739789, -0.02131725661456585], [0.0038506081327795982, -0.0030543506145477295], [0.012017030268907547, -0.0027359197847545147], [0.008341952227056026, 0.011802725493907928], [0.03620445728302002, 0.0006365735898725688], [-0.006468927022069693, 0.023655680939555168], [0.03904644772410393, 0.013865271583199501], [-0.024921348318457603, -0.013148730620741844], [-0.0023870004806667566, -0.013268407434225082], [0.015559474937617779, -0.04917342588305473], [-0.0034297555685043335, -0.028256943449378014], [0.026915129274129868, 0.01949334144592285], [0.018359657377004623, -0.01565650850534439], [-0.0013849323149770498, 0.010713538154959679], [-0.0021191383711993694, 0.008430717512965202], [0.023132018744945526, -0.02013779617846012], [0.014502466656267643, 0.013253237120807171], [-0.017792750149965286, -0.013710705563426018], [-0.01589382253587246, -0.006229600869119167], [-0.006110591813921928, 0.009388662874698639], [-0.01761578768491745, 0.01591475121676922], [0.012481063604354858, -0.036933157593011856], [-0.001361973350867629, 0.03244319558143616], [0.006091184914112091, -0.035309165716171265], [-0.002993627917021513, -0.005975019186735153], [-0.0022004107013344765, 0.00530956219881773], [-0.004878898151218891, 0.015607248991727829], [-0.04290039464831352, 0.016203416511416435], [0.014543307945132256, -0.014622160233557224], [0.0001625248696655035, -0.00030320935184136033], [-0.017697136849164963, 0.003145212773233652], [0.00496762664988637, -0.009586324915289879], [-0.02386396750807762, -0.043915342539548874], [0.013230573385953903, -0.00939222052693367], [-0.05629631504416466, -0.026844393461942673], [-0.03576267510652542, -0.04485457018017769], [-0.014335381798446178, -0.042325086891651154], [0.02235645428299904, 0.02886176109313965], [0.01700839214026928, -0.027639206498861313], [-0.011182612739503384, -0.006860002875328064], [0.034616779536008835, 0.0011980237904936075], [-0.02986164018511772, 0.06662339717149734], [0.011375567875802517, 0.016370343044400215], [0.01343722827732563, 0.011444542557001114], [0.010370379313826561, 0.005961184855550528], [-0.021075746044516563, -0.010105924680829048], [0.022428106516599655, -0.004909600596874952], [-0.026725968345999718, 0.02719440869987011], [0.026084324344992638, -0.004372919909656048], [0.02273576520383358, -0.0027172460686415434], [-0.02173149585723877, 0.010651939548552036], [-0.0227119792252779, -0.02660639025270939], [-0.02643345296382904, -0.013736196793615818], [0.01391152199357748, 0.002683743368834257], [0.048335619270801544, 0.03188852593302727], [-0.004679794888943434, 0.012644997797906399], [0.01836986467242241, -0.05087666213512421], [-0.013105385936796665, 0.013997449539601803], [0.02685670368373394, 0.003987592179328203], [-0.01754583604633808, -0.025861850008368492], [0.02674575336277485, 0.013535997830331326], [-0.012933645397424698, 0.004759239964187145], [0.0014059558743610978, -0.006951093673706055], [-0.013205353170633316, -0.01992279291152954], [0.030142802745103836, -0.0005787679692730308], [0.0017960765399038792, -0.01713288202881813], [-0.0016555024776607752, -0.0034455894492566586], [-0.0189152043312788, 0.003948252648115158], [0.009383528493344784, -0.016656050458550453], [0.000976310227997601, -0.02391374297440052], [-0.010930144228041172, -0.0043950569815933704], [0.007163612637668848, 0.010511312633752823], [-0.01851562038064003, 0.014532890170812607], [0.02644144557416439, 0.006356691475957632], [0.025894617661833763, -0.036754682660102844], [0.0028091955464333296, 0.021174388006329536], [-0.022317880764603615, -0.007194604258984327], [-0.003965028095990419, -0.02515808492898941], [0.022316157817840576, -0.0067700110375881195], [0.017664089798927307, -0.02419082075357437], [0.005741884466260672, -0.0058061969466507435], [0.03292639181017876, -0.0019055730663239956], [0.009156758897006512, 0.014292740263044834], [0.009732237085700035, 0.0005355245666578412], [0.01192774623632431, 0.028413228690624237], [0.005775393918156624, -0.010067872703075409], [0.02520063892006874, -0.0027184193022549152], [0.008844788186252117, 0.010104170069098473], [-0.0035670434590429068, -0.008286445401608944], [-0.051366738975048065, -0.005648786202073097], [0.010375508107244968, 0.009610502049326897], [-0.014711407013237476, 0.011126749217510223], [-0.0017666014609858394, 0.0018121546600013971], [-0.014752713963389397, -0.010282053612172604], [0.007356399670243263, -0.009523080661892891], [-0.0004770232771988958, 0.011949715204536915], [-0.006631891708821058, -0.035125598311424255], [0.021087611094117165, -0.01923775114119053], [-0.0075281825847923756, -0.005000361707061529], [-0.010512792505323887, -0.0011290640104562044], [0.022698992863297462, -0.042429860681295395], [0.01946544460952282, -0.021352652460336685], [-0.01142884511500597, -0.013394170440733433], [-0.03385895490646362, -0.03380521759390831], [0.0326627753674984, -0.040304698050022125], [-0.023994123563170433, -0.02147386595606804], [-0.00958713423460722, 0.016143647953867912], [0.025431351736187935, 0.003803240368142724], [-0.007668026722967625, 0.04366275668144226], [0.01537668239325285, 0.01172325387597084], [0.033320169895887375, 0.005214713513851166], [-0.016121577471494675, -0.022386647760868073], [0.02030390501022339, 0.030443159863352776], [-0.018692415207624435, 0.0016261559212580323], [-0.02609088271856308, 0.018948614597320557], [-0.01732015050947666, -0.025017518550157547], [-0.025787748396396637, -0.0188311617821455], [-0.013914894312620163, 0.020164426416158676], [0.00989568792283535, -0.013254735618829727], [-0.0004592002078425139, -0.009820712730288506], [-0.009151977486908436, -0.004515939392149448], [0.05139860138297081, 0.030806580558419228], [-0.010464322753250599, -0.02084459736943245], [-0.01422620378434658, 0.0033378356602042913], [-0.03699040040373802, -0.016799170523881912], [-0.011552675627171993, -0.007967900484800339], [-0.017647933214902878, 0.020442795008420944], [-0.017622247338294983, -0.0035643645096570253], [0.0037131148856133223, 0.016929883509874344], [-0.027121281251311302, 0.014025292359292507], [0.014936160296201706, 0.003982166294008493], [-0.029836639761924744, -0.002844403265044093], [-0.002771072555333376, -0.03509388491511345], [-0.03523813560605049, -0.01814117655158043], [0.04725874215364456, 0.010191732086241245], [-0.009270218200981617, -0.03465307503938675], [0.012363184243440628, 0.02733178809285164], [-0.008866886608302593, -0.024206139147281647], [0.01593380980193615, -0.004734380170702934], [-0.0023094145581126213, -0.015493957325816154], [0.013932885602116585, -0.011627056635916233], [0.03669213131070137, 0.001552036963403225], [0.006546365562826395, -0.013454890809953213], [0.0053049237467348576, 0.02686438336968422], [0.009025761857628822, 0.032159384340047836], [0.023553170263767242, 0.007462821900844574], [-0.00406694645062089, -0.03487124666571617], [0.0030369125306606293, -0.041655562818050385], [-0.04375370219349861, -0.013987196609377861], [-0.011389341205358505, -0.04161510989069939], [0.030566304922103882, 0.008970068767666817], [0.001381002482958138, -0.017171189188957214], [0.0065796226263046265, 0.010595761239528656], [-0.016012033447623253, -0.004288719035685062], [-0.01217679213732481, 0.013026106171309948], [0.022284304723143578, 0.0231880284845829], [-0.004660534672439098, -0.0024477567058056593], [0.01521624531596899, 0.0010993535397574306], [0.023064156994223595, -0.013009462505578995], [-0.025195779278874397, 0.023124894127249718], [0.0044342647306621075, 0.024862445890903473], [-0.0017231368692591786, 0.011165786534547806], [0.01535467803478241, 0.017328990623354912], [-0.029384659603238106, 0.03270542621612549], [-0.020792700350284576, -0.004630431532859802], [0.022726476192474365, 0.02717849612236023], [0.01821925677359104, 0.005840175785124302], [0.021337559446692467, -0.006867692340165377], [0.016707701608538628, 0.01789524033665657], [-0.009729119017720222, -0.003745543072000146], [-0.0019782132003456354, 0.02830618992447853], [0.03282635286450386, 0.013133279979228973], [-0.0038165238220244646, 0.0017857748316600919], [0.01362756546586752, 0.023465663194656372], [-0.019145725294947624, 0.007678666617721319], [-0.0038017721381038427, -0.01965336501598358], [-0.007938244380056858, -0.019813768565654755], [-0.020390024408698082, 0.002592630684375763], [-5.926396625000052e-05, 0.015005560591816902], [0.0016869811806827784, 0.03174934163689613], [0.011180824600160122, -0.028095446527004242], [4.774658737005666e-05, 0.017940489575266838], [-0.029535673558712006, 0.008102165535092354], [-0.012829518876969814, -0.0026198318228125572], [0.019202185794711113, -0.003327739192172885], [-0.03111407905817032, 0.00497490493580699], [0.007900025695562363, -0.02150721102952957], [-0.014087804593145847, 0.015281411819159985], [-0.01721739023923874, -0.036972228437662125], [-0.010798255912959576, -0.00024578519514761865], [0.031527306884527206, -0.008076564408838749], [-0.005444852169603109, 0.023908335715532303], [-0.024755127727985382, -0.004923186264932156], [-0.014462255872786045, 0.0063991788774728775], [-0.01022900640964508, 0.02162129059433937], [-0.0029650728683918715, -0.021865708753466606], [-0.00996286328881979, -0.010890943929553032], [0.038826704025268555, -0.002541273133829236], [-0.00011495788203319535, 0.030855238437652588], [0.029108034446835518, -0.010410957038402557], [0.007490864023566246, -0.014440249651670456], [-0.010357538238167763, 0.018255526199936867], [-0.013159684836864471, -0.01946958899497986], [0.031784795224666595, 0.015458348207175732], [0.028880275785923004, 0.01738527975976467], [0.01924951747059822, 0.035336218774318695], [-0.0028720563277602196, -0.0448087640106678], [0.051063042134046555, 0.01758645661175251], [0.006047138478606939, 0.0238058939576149], [-0.015714002773165703, 0.042070500552654266], [-0.03178265690803528, -0.004069742280989885], [0.003519966034218669, 0.0028325046878308058], [-0.01830451190471649, -0.0005949059850536287], [-0.012319059111177921, 0.007452776655554771], [0.027949919924139977, -0.0015529930824413896], [0.018734944984316826, -0.031646959483623505], [0.03379945456981659, -0.018424777314066887], [-0.007965012453496456, 0.015538404695689678], [-0.006808354519307613, 0.004858879838138819], [-0.016612784937024117, -0.012624581344425678], [-0.02777775749564171, 0.002842887071892619], [-0.005851274821907282, -0.045147012919187546], [-0.028403393924236298, -0.06088961288332939], [-0.006917315535247326, 0.014010257087647915], [-0.01986924558877945, -0.021353960037231445], [0.01164927240461111, -0.0054694670252501965], [0.03758936747908592, 0.012206854298710823], [0.03782043606042862, 0.013804065994918346], [-0.012341959401965141, 0.023724181577563286], [0.0029803793877363205, -0.0050991009920835495], [-0.023539993911981583, 0.007561544422060251], [-0.01788659207522869, 0.06272423267364502], [-0.02144712209701538, -0.001254343194887042], [0.010332828387618065, -0.007266168016940355], [0.0007303040474653244, -0.013929725624620914], [0.002598223742097616, 0.0034765605814754963], [0.018151763826608658, -0.015878885984420776], [-0.003833294613286853, -0.00892082042992115], [0.010224714875221252, -0.041506078094244], [-0.056485481560230255, 0.046960849314928055], [0.01950841210782528, 0.008801370859146118], [-0.033084213733673096, 0.01026065181940794], [-0.008688217028975487, -0.008819722570478916], [-0.003190967720001936, 0.015528451651334763], [0.00026486741262488067, -0.009995433501899242], [-0.031173788011074066, 0.001928185229189694], [-0.01859089359641075, 0.0027130916714668274], [0.01286743488162756, 0.019056158140301704], [-0.010615823790431023, -0.010069942101836205], [-0.017533497884869576, 0.02364523336291313], [-0.023810889571905136, 0.008023849688470364], [-0.02097673900425434, -0.008871691301465034], [-0.0017544085858389735, -0.03581707179546356], [0.007758022285997868, 0.006731131114065647], [0.0013535625766962767, -0.02965063415467739], [0.013391848653554916, 0.02548551745712757], [0.04797021299600601, -0.03941336274147034], [-0.013898134231567383, 0.030373407527804375], [-0.0006496182177215815, 0.012596309185028076], [-0.029788557440042496, -0.002367722801864147], [0.008467431180179119, -0.0021604003850370646], [-0.013282328844070435, -0.0003447813505772501], [0.03122350201010704, 0.022125253453850746], [0.01475551724433899, -0.03605816140770912], [0.0026570232585072517, -0.014670681208372116], [-0.023804528638720512, -0.0037186213303357363], [0.0016840756870806217, 0.020120425149798393], [-0.005959306377917528, -0.012191727757453918], [-0.0070130303502082825, 0.0110095189884305], [-0.023273902013897896, 0.006263473071157932], [0.006626862566918135, 0.0176509078592062], [0.00996402744203806, -0.0019049841212108731], [-0.009284909814596176, -0.0013021077029407024], [0.02384328283369541, -0.02136269211769104], [0.012135494500398636, -0.011351451277732849], [-0.013738138601183891, 0.014585134573280811], [0.035679832100868225, -0.023494133725762367], [0.03324751928448677, -0.023913580924272537], [-0.006705759558826685, 0.009556163102388382], [-0.0014274033019319177, -0.0002546709147281945], [-0.012345830909907818, -0.0031342189759016037], [-0.008495784364640713, -0.011013714596629143], [-0.008393767289817333, -0.0033489156048744917], [0.029081959277391434, -0.015694323927164078], [0.023805273696780205, -0.030522793531417847], [0.00585371907800436, 0.0222435612231493], [0.04254293441772461, -0.02167433872818947], [-0.007263243198394775, 0.004225189797580242], [0.008807703852653503, -0.02870277501642704], [0.009661553427577019, -0.0034044727217406034], [-0.0065008411183953285, -0.03476925939321518], [-0.011112106963992119, -0.006842369679361582], [-0.001111416146159172, -0.00519900768995285], [-0.018462829291820526, -0.01253244373947382], [-0.008042546920478344, 0.007857496850192547], [0.01097035501152277, -0.019111130386590958], [0.029074594378471375, -0.04238146170973778], [-0.019110390916466713, 0.007885453291237354], [-0.020327966660261154, -0.024278981611132622], [-0.030535459518432617, -0.018655238673090935], [-0.044832877814769745, -0.013312894850969315], [-0.029170768335461617, -0.008327201940119267], [-0.030094685032963753, -0.014572677202522755], [-0.009377342648804188, -0.045317504554986954], [-0.004288243595510721, 0.02165907621383667], [0.0063544511795043945, -0.024064624682068825], [-0.013231415301561356, -0.004804801195859909], [-0.003727942705154419, 0.023256218060851097], [-0.010411998257040977, -0.048222679644823074], [-0.025606270879507065, 0.03890525549650192], [0.005782216787338257, 0.006264904513955116], [-0.005119977053254843, 0.013341251760721207], [0.0100815175101161, -0.02125786989927292], [0.02537459321320057, 0.018496058881282806], [0.009560586884617805, -0.01303888764232397], [0.018012234941124916, 0.011539367958903313], [-0.021727828308939934, -0.004766135010868311], [-0.0003444908943492919, 0.016022734344005585], [-0.0010475751478224993, 0.00018036854453384876], [0.0003440729924477637, -0.011718829162418842], [0.00578194297850132, -0.017983470112085342], [0.03136239945888519, -0.02487386390566826], [-0.022504283115267754, -0.0002887679438572377], [-0.015057030133903027, -0.012349852360785007], [-0.021098647266626358, -0.029308900237083435], [0.019923662766814232, 0.004799266345798969], [0.01018733810633421, -0.01335427537560463], [0.012823054566979408, 0.029563089832663536], [-0.024309152737259865, -0.031120415776968002], [0.01230957917869091, 0.02259574830532074], [-0.0009582081111148, 0.03582100197672844], [-0.00037915990105830133, 0.02553781494498253], [-0.01930607482790947, -0.0018862844444811344], [-0.009820541366934776, -0.03555640950798988], [-0.02991187572479248, -0.02766331657767296], [-0.026143454015254974, -0.011218949221074581], [-0.00031776560354046524, 0.00521675031632185], [-0.0008243154734373093, -0.027625693008303642], [-0.0027946215122938156, -0.019534114748239517], [-0.03573061525821686, -0.019375331699848175], [0.006640365347266197, -0.009151904843747616], [0.03889385238289833, -0.0020255243871361017], [-0.015442334115505219, -0.022719046100974083], [0.026069626212120056, 0.01377639826387167], [-0.022367434576153755, -0.03502368554472923], [0.02474161796271801, 0.05394946038722992], [0.026198267936706543, 0.040099725127220154], [0.0022725979797542095, 0.011274164542555809], [0.016601042822003365, -0.024825748056173325], [-0.055070456117391586, 0.03167269378900528], [0.029584715142846107, -0.014246804639697075], [-0.005031139589846134, -0.005255622323602438], [0.026685327291488647, 0.0037532334681600332], [-0.004147305618971586, -0.0255418848246336], [-0.01877649687230587, -0.006037993356585503], [0.0015546520007774234, 0.006698838900774717], [-0.015511476434767246, 0.029281314462423325], [-0.009939259849488735, 0.012695538811385632], [0.009295704774558544, 0.024485478177666664], [-0.008036247454583645, -0.00022991570585872978], [0.007599717006087303, 0.007866512052714825], [-0.003996105398982763, -0.019840609282255173], [0.008285620249807835, -0.021026087924838066], [-0.00010489072155905887, 0.0003804610460065305], [-0.011914440430700779, -0.02022724412381649], [0.0025673427153378725, -0.029682675376534462], [-0.007707119453698397, -0.02233709581196308], [0.021254492923617363, 0.0029279114678502083], [-0.046260569244623184, -0.0025135851465165615], [-0.04641403630375862, -0.02669697441160679], [0.02215939201414585, -0.022933270782232285], [-0.0054922811686992645, 0.02766050212085247], [0.02318691462278366, -0.024084536358714104], [0.015167648904025555, -0.014662079513072968], [0.006848338525742292, 0.004552219528704882], [-0.011618449352681637, -0.007809709757566452], [0.006862585432827473, -0.04716825857758522], [-0.014528876170516014, 0.01831725426018238], [0.01744801551103592, -0.029959678649902344], [-0.015796992927789688, 0.0018903495511040092], [0.0006662197993136942, 0.0215037539601326], [-0.016527406871318817, -0.008641080930829048], [-0.014212975278496742, 0.010572279803454876], [0.016010820865631104, -0.028165336698293686], [-0.0013623597333207726, 0.03507845848798752], [0.019217658787965775, -0.024649254977703094], [0.03937047719955444, 0.023685507476329803], [-0.028709696605801582, -0.011982464231550694], [0.0056401449255645275, -0.0013538397615775466], [0.012277429923415184, -0.007845309562981129], [-0.002516048261895776, -0.00576796242967248], [0.00010122751700691879, -0.00856421235948801], [-0.01925809495151043, -0.012453467585146427], [-0.023215724155306816, 0.03536029905080795], [0.0058898539282381535, 0.012479186058044434], [0.027576858177781105, 0.022191938012838364], [-0.016408808529376984, -0.00565424794331193], [0.03200984746217728, -0.0022610228043049574], [-0.02508886717259884, -0.006278319749981165], [0.030541805550456047, 0.0037826227489858866], [0.0033938856795430183, 0.0038143072742968798], [-0.023020464926958084, 0.028457297012209892], [0.0031226463615894318, 0.012465659528970718], [-0.008408505469560623, 0.04227471724152565], [-0.020980997011065483, -0.04570552706718445], [0.01954026333987713, -0.01781180500984192], [-0.00504340510815382, -0.003924944903701544], [-0.015560226514935493, -0.005221852567046881], [0.022699739784002304, -0.0009700747905299067], [-0.03283151611685753, -0.02438403107225895], [-0.002865200163796544, 0.023182008415460587], [0.014433933421969414, 0.02002427726984024], [-0.007348423358052969, -0.026599349454045296], [-0.017676973715424538, 0.0034817259293049574], [0.01799793541431427, -0.0035144484136253595], [0.01486254297196865, 0.0009082767646759748], [0.022264456376433372, 0.00501279765740037], [-0.0047969515435397625, -0.0353381372988224], [0.006853241939097643, 0.022701680660247803], [-0.013344954699277878, 0.017200730741024017], [0.018219631165266037, -0.02612311765551567], [-0.01319090649485588, 0.03108225017786026], [0.016303597018122673, -0.02328532002866268], [0.016971787437796593, -0.013498988002538681], [0.015196998603641987, 0.01989693194627762], [-0.015127699822187424, 0.004787855315953493], [-0.022166937589645386, -0.03042789362370968], [-0.005072347354143858, 0.007845656014978886], [-0.0031368236523121595, 0.004388532135635614], [-0.0016672463389113545, 0.009914293885231018], [0.004159506876021624, -0.001387610100209713], [0.011395835317671299, -0.009872961789369583], [0.0185147225856781, -0.021927565336227417], [0.015082595869898796, 0.0062135569751262665], [-0.012538408860564232, 0.01324197743088007], [-0.031251903623342514, -0.009064730256795883], [0.0166697409003973, -0.019785795360803604], [0.015474813990294933, 0.04844450205564499], [-0.018748106434941292, -0.008038275875151157], [0.0007918539340607822, -0.018023058772087097], [-0.005714613012969494, -0.009662232361733913], [-4.971001180820167e-05, 0.009076115675270557], [0.0027003213763237, 0.01580779440701008], [-0.016442472115159035, 0.01584765501320362], [-0.0013427023077383637, 0.013954470865428448], [0.019241834059357643, -0.002565850270912051], [-0.005040280055254698, -0.0092755276709795], [0.011618109419941902, -0.0018689028220251203], [-0.01428217813372612, -0.026912903413176537], [-0.009672865271568298, 0.01632707379758358], [-0.015631048008799553, -0.00779583677649498], [0.012174657545983791, 0.004314695484936237], [-0.019427314400672913, 0.020275602117180824], [0.0027185746002942324, -0.011572170071303844], [0.014784308150410652, -0.008903964422643185], [0.007233175914734602, -0.007930709980428219], [0.018374944105744362, -0.0024718132335692644], [0.02528972551226616, 0.015652528032660484], [0.016917547211050987, 0.006222103256732225], [-0.015310700982809067, -0.022397426888346672], [-0.02789468690752983, 0.013935924507677555], [-0.018555687740445137, -0.01809101738035679], [-0.053082212805747986, 0.02078208327293396], [-0.008232512511312962, -0.013010440394282341], [0.03881781920790672, 0.024838123470544815], [0.0020552489440888166, 0.01840255595743656], [-0.027904579415917397, -0.001209638430736959], [0.00608987919986248, 0.037221185863018036], [-0.00510656600818038, 0.0044771465472877026], [0.02523116208612919, 0.026368796825408936], [-0.002352842129766941, -0.03445272147655487], [0.0015027924673631787, 0.010841729119420052], [0.019717466086149216, -0.0039626844227313995], [-0.015055274590849876, -0.0009783682180568576], [0.038382865488529205, -0.0017828012350946665], [-0.0010993073228746653, 0.016658131033182144], [0.06220336630940437, 0.03230191767215729], [-0.0033119930885732174, 0.0005461604450829327], [-0.004863066598773003, -0.016709953546524048], [0.0012943096226081252, -0.006059443112462759], [-0.009250691160559654, -0.024029463529586792], [0.00043040121090598404, 0.005776021163910627], [0.03017658367753029, 0.011260087601840496], [0.02882212959229946, 0.00023936846992000937], [-0.014670574106276035, 0.004553673788905144], [-0.06233861669898033, 0.0008369336137548089], [-0.017276499420404434, 0.009501954540610313], [0.005908749997615814, -0.017087377607822418], [0.0030016035307198763, 0.0074668582528829575], [-0.004354271572083235, 0.05533910542726517], [0.025775007903575897, -0.01681109331548214], [-0.013446744531393051, -0.010180197656154633], [0.0003039359871763736, -0.03159533441066742], [-0.0017126782331615686, -0.024887103587388992], [0.0011233935365453362, 0.005879334639757872], [0.04279730096459389, 0.007332069333642721], [0.006592318881303072, 0.018219854682683945], [0.005054936744272709, -0.03099190630018711], [0.00048251639236696064, -0.06209763512015343], [-0.004799020942300558, -0.0300866961479187], [0.03772379457950592, -0.006161217112094164], [-0.017796050757169724, 0.021557750180363655], [-0.029507707804441452, 0.039037153124809265], [0.013233191333711147, -0.014833605848252773], [0.024361278861761093, 0.028443440794944763], [-0.018410829827189445, 0.022205933928489685], [0.024149397388100624, -0.00031168825807981193], [0.019696000963449478, -0.0007885493687354028], [-0.0014255649875849485, -0.01546435710042715], [-0.030342556536197662, 0.011717981658875942], [0.01779641956090927, 0.001160300918854773], [-0.02018013969063759, 0.013832326047122478], [0.002282162196934223, -0.048079054802656174], [0.047967810183763504, 0.018511969596147537], [-0.011582557111978531, -0.006117353681474924], [0.030151959508657455, -0.008238223381340504], [-0.007959265261888504, -0.005644571501761675], [0.0033250378910452127, -0.0024906988255679607], [0.016164543107151985, -0.01460106112062931], [-0.0068227145820856094, 0.0003202356456313282], [0.01789199560880661, -0.009091364219784737], [-0.02469027042388916, -0.013670317828655243], [-0.0017307423986494541, 2.102286998706404e-05], [0.0244742501527071, -0.002870638854801655], [0.03416132926940918, -0.011844444088637829], [0.016438573598861694, 0.004845908377319574], [0.011169974692165852, 0.005738073028624058], [-0.008973699063062668, 0.007926416583359241], [-0.0028073613066226244, 0.004067851230502129], [-0.004555250518023968, 0.017170190811157227], [-0.010970513336360455, -0.04953700304031372], [0.035694900900125504, -0.026477783918380737], [-0.008193190209567547, -0.01175258494913578], [0.012372616678476334, -0.03031815215945244], [-0.030535385012626648, 0.0056642829440534115], [0.04051213711500168, -0.007223006337881088], [-0.004330816213041544, -0.01658685877919197], [-0.026612205430865288, -0.03367992490530014], [0.01099681481719017, -0.009107640013098717], [0.005643857643008232, -0.0044762990437448025], [-0.016729865223169327, -0.029176391661167145], [-0.012878717854619026, 0.028326574712991714], [0.020297503098845482, 0.015832461416721344], [0.037820104509592056, -0.01994078978896141], [-0.006094173062592745, 0.02091067284345627], [0.013384221121668816, -0.026567455381155014], [0.015912113711237907, -0.027534306049346924], [0.0017000227235257626, 0.0019993900787085295], [0.056396372616291046, -0.00998619757592678], [0.007752022705972195, 0.027976684272289276], [-0.0005999050918035209, 0.018702851608395576], [-0.023931436240673065, 0.020641347393393517], [-0.00011809968418674543, 0.03582554683089256], [0.005404636263847351, -0.025698499754071236], [-0.002254063030704856, 0.005729692056775093], [-0.0010199774987995625, -0.012036442756652832], [0.005308430641889572, -0.018067236989736557], [-0.019228683784604073, 0.04344916343688965], [0.031192995607852936, 0.009706435725092888], [0.03586754947900772, 0.03415566310286522], [-0.052668776363134384, 0.007800929248332977], [0.009120222181081772, 0.02042013593018055], [0.004225858487188816, -0.017847903072834015], [0.016524627804756165, 0.012726733461022377], [-0.01708906702697277, -0.02573508955538273], [0.013685340993106365, -0.014193432405591011], [0.0044208308681845665, 0.00156141456682235], [0.002905923407524824, 0.033694203943014145], [0.040268249809741974, 0.0042055402882397175], [0.045696668326854706, 0.012721190229058266], [-0.010355102829635143, -0.005147602409124374], [0.047536540776491165, 0.000960859062615782], [0.002909508068114519, 0.029770178720355034], [-0.040770549327135086, 0.0018246143590658903], [-0.008535358123481274, -0.004604232031852007], [-0.00031745037995278835, 0.009493661113083363], [0.016362840309739113, 0.018868248909711838], [-0.00598845724016428, 0.006137453950941563], [-0.003858044045045972, -0.012024829164147377], [-0.0002976851537823677, -0.0031670306343585253], [-0.0023711479734629393, 0.02662467211484909], [-0.018502557650208473, 0.016201568767428398], [-0.025697730481624603, 0.0031634806655347347], [-0.03437076881527901, -0.023920027539134026], [-0.013379078358411789, -0.022171583026647568], [0.011058603413403034, 0.0005367023986764252], [0.024254100397229195, 0.019585611298680305], [0.018587183207273483, -0.019314609467983246], [-0.014685587957501411, -0.005736291874200106], [0.005250377580523491, 0.0016577106434851885], [-0.023109426721930504, -0.012227945029735565], [-0.04242037981748581, 0.005005547311156988], [0.0057675219140946865, -0.027502067387104034], [0.007560887839645147, 0.0003650943108368665], [-0.0191098190844059, 0.004235486034303904], [-0.006208214443176985, 0.005098741501569748], [-0.01598251797258854, 0.017872797325253487], [0.007978368550539017, 0.008582442998886108], [-0.028581051155924797, 0.022535528987646103], [0.014368760399520397, -0.004469904582947493], [0.0013499282067641616, -0.0038401708006858826], [0.007838325574994087, 0.011166227050125599], [-0.010290759615600109, 0.013877012766897678], [0.052510157227516174, -0.016811855137348175], [0.015903238207101822, 0.01589958928525448], [0.007021768484264612, -0.0057632336392998695], [0.038050852715969086, 0.004095228388905525], [-0.03690072149038315, -0.015006514266133308], [0.020693203434348106, -0.012421400286257267], [-0.02831793762743473, -0.017789792269468307], [0.007592559326440096, 0.008423288352787495], [0.0029553957283496857, -0.02779894508421421], [-0.0084180673584342, -0.013954182155430317], [-0.015145465731620789, -0.008297143504023552], [-0.002118355594575405, -0.030655795708298683], [0.01852751150727272, 0.021320777013897896], [-0.03208920732140541, -0.011137495748698711], [0.02511821687221527, -0.005685398355126381], [-0.005333989858627319, 0.01528376154601574], [-0.01752953976392746, -0.029954468831419945], [0.011343573220074177, 0.0037737800739705563], [-3.256190393585712e-05, -0.008438312448561192], [0.04428701847791672, -0.0026523119304329157], [0.012678892351686954, 0.017944710329174995], [-0.011840489692986012, 0.006728195585310459], [-0.0003450998920015991, -0.022657498717308044], [0.023499079048633575, -9.249454160453752e-05], [0.018692294135689735, 0.025324370712041855], [0.010385602712631226, -0.0019613606855273247], [0.029548369348049164, 0.008381362073123455], [-0.0059672207571566105, -0.0033849456813186407], [-0.02207884006202221, 0.02750682272017002], [-0.00681274151429534, 0.0020563106518238783], [0.03442654386162758, -0.03940616920590401], [0.007231311406940222, -0.0022513531148433685], [0.0179523266851902, -0.007621014956384897], [0.020897185429930687, 0.0033759786747395992], [0.021873435005545616, -0.016686856746673584], [-0.02560037560760975, 0.03351343795657158], [-0.012520859949290752, 0.029007956385612488], [-0.0009604640654288232, -0.015700262039899826], [-0.007058944087475538, -0.034537360072135925], [-0.019964125007390976, 0.007331393659114838], [0.011462617665529251, -0.006819838657975197], [-0.01057229470461607, -0.025445258244872093], [-0.016826700419187546, -0.012659038417041302], [-0.0030879806727170944, -0.010807577520608902], [0.01750926300883293, 0.018522124737501144], [0.010236341506242752, 0.00394959794357419], [-0.009207114577293396, 0.03584279119968414], [-0.020376332104206085, 0.04238284006714821], [0.02112720161676407, 0.03939250484108925], [-0.020359301939606667, 0.04056344926357269], [-0.006264674011617899, 0.004933658055961132], [-0.008902003988623619, -0.005071120336651802], [-0.030218422412872314, 0.013374678790569305], [-0.016639620065689087, -0.011209884658455849], [0.02359076775610447, 0.0306923296302557], [-0.038290806114673615, -0.012465575709939003], [0.02875564433634281, -0.005291607230901718], [-0.009295640513300896, -0.012074625119566917], [0.01911057159304619, -0.05093907192349434], [-0.012277328409254551, 0.0009599994518794119], [-0.005161105655133724, 0.005047421902418137], [-0.0036755381152033806, -0.013087053783237934], [0.01701793260872364, 0.008409624919295311], [-0.0062997411005198956, 0.00746857188642025], [0.008270660415291786, 0.02935393899679184], [0.007448643445968628, 0.024520166218280792], [0.03518072888255119, 0.034408796578645706], [-0.029011115431785583, 0.01685377024114132], [0.03607332706451416, -0.0359443798661232], [-0.001734224264509976, 0.02187173068523407], [0.02447020262479782, 0.007362563628703356], [0.013078924268484116, -0.003859015414491296], [0.030949121341109276, -0.007870282046496868], [-0.004544365219771862, 0.010072682984173298], [-0.021239668130874634, -0.028058122843503952], [-0.027820110321044922, -0.01877840980887413], [-0.006931861396878958, 0.018927717581391335], [-0.005858694203197956, -0.0024251018185168505], [-0.025615977123379707, -0.021277712658047676], [0.0013981892261654139, 0.007029589265584946], [-0.009334047324955463, -0.013157387264072895], [-0.013556101359426975, 0.00962814036756754], [-0.01724415086209774, 0.004957339260727167], [0.002105569001287222, -0.01674618199467659], [0.00889820046722889, 0.012784307822585106], [0.028898712247610092, -0.001969879260286689], [0.020021621137857437, 0.009543278254568577], [-0.02574918419122696, 0.020379435271024704], [-0.01206490769982338, 0.027312995865941048], [-0.044959280639886856, 0.011709780432283878], [0.007272158749401569, 0.016126343980431557], [-0.03935519605875015, 0.010844597592949867], [-0.004499317146837711, 0.029352648183703423], [0.026068231090903282, -0.00820733979344368], [-0.001028135884553194, 0.01977708376944065], [0.028278807178139687, 0.0031764719169586897], [-0.05140853673219681, -0.007832196541130543], [-0.0068220049142837524, -0.0017965709557756782], [0.009245307184755802, 0.025875113904476166], [-0.015989545732736588, -0.04286637529730797], [0.007946599274873734, 0.01997070573270321], [-0.028151512145996094, 0.031807903200387955], [-0.01047314889729023, 0.011651343666017056], [-0.03538743406534195, 0.007440412417054176], [0.027717584744095802, 0.012593441642820835], [0.0010567564750090241, 0.005275816190987825], [0.010929546318948269, -0.012596849352121353], [-0.0175540242344141, -0.011852717958390713], [0.021757449954748154, -0.004990654066205025], [0.013687382452189922, -0.028214795514941216], [0.0035942699760198593, -0.0017541665583848953], [-0.006511862855404615, -0.0031480444595217705], [0.02179018408060074, 0.001002626959234476], [-0.03561655804514885, 0.0007746098563075066], [-0.013004989363253117, 0.004697952885180712], [-0.02922211028635502, -0.03389143943786621], [-0.03544563055038452, 0.015182440169155598], [-0.013359065167605877, 0.0019431904656812549], [-0.0060587553307414055, -0.011957071721553802], [-0.004985059145838022, -0.019872289150953293], [-0.013506338000297546, 0.00758459372445941], [0.01293856743723154, -0.01117471233010292], [-0.006634342484176159, 0.004617038648575544], [-0.004301471635699272, 0.001705307513475418], [-0.030156373977661133, 0.028082074597477913], [0.016793474555015564, -0.015560989268124104], [-0.030050737783312798, 0.02588273398578167], [0.03089449740946293, 0.028109924867749214], [-0.012345719151198864, -0.0012063783360645175], [-0.009716328233480453, -0.009942268021404743], [-0.002056875266134739, 0.012079862877726555], [-0.012693383730947971, -0.000970028224401176], [0.012868840247392654, 0.0016260574338957667], [0.008204206824302673, 0.02661246806383133], [-0.003883823286741972, -0.003752979217097163], [-0.010726985521614552, -0.003968533128499985], [0.011997824534773827, 0.02664613351225853], [0.0009700137889012694, -0.0018137593287974596], [0.013957275077700615, 0.02408965863287449], [-0.0146099291741848, -0.0004950208822265267], [-0.026934798806905746, 0.01846218854188919], [0.011895564384758472, -0.03373086079955101], [-0.007133294828236103, 0.006368038710206747], [-0.014135899022221565, 0.0022398417349904776], [-0.01132342778146267, 0.0010289013152942061], [-0.00925983302295208, -0.01846962235867977], [-0.0019826083444058895, 0.020588979125022888], [-0.012423873879015446, 0.049892425537109375], [-0.006394112017005682, 0.027246274054050446], [-0.0030046142637729645, -0.03289571776986122], [0.002407738007605076, 0.03553741052746773], [-0.018649505451321602, -0.00848345272243023], [0.028775863349437714, 0.024148298427462578], [-0.007116501219570637, -0.0016126346308737993], [0.009416874498128891, -0.005749341566115618], [-0.038814056664705276, 0.001295855618081987], [-0.016535859555006027, 0.01814887300133705], [-0.010943915694952011, -0.0010294434614479542], [-0.028228335082530975, 0.01979048363864422], [0.004993778187781572, 0.008083847351372242], [0.016974128782749176, 0.007236268371343613], [-0.003864862024784088, -0.028753872960805893], [0.021677467972040176, -0.007717102766036987], [0.0028267274610698223, 0.0021877416875213385], [0.000512397033162415, 0.010453947819769382], [-0.05243559554219246, -0.002293460536748171], [0.034152109175920486, 0.013912271708250046], [-0.024286476895213127, -0.025430239737033844], [0.0015725382836535573, -0.006065488792955875], [0.025148844346404076, 0.005945359356701374], [0.008821135386824608, -0.013658588752150536], [0.016736339777708054, -0.0027424332220107317], [-0.032373130321502686, 0.0034156888723373413], [-0.005251844879239798, -0.0103688919916749], [0.029187271371483803, 0.016575001180171967], [-0.0061181215569376945, 0.016635295003652573], [0.018420128151774406, -0.021551761776208878], [-0.023178501054644585, 0.014023326337337494], [-0.003011535620316863, -0.05083371698856354], [0.011401401832699776, 0.04853954538702965], [-0.010947265662252903, 0.008375809527933598], [0.002384775085374713, 0.021625613793730736], [-0.0009251999435946345, -0.008959930390119553], [-0.03517154976725578, -0.0015957328723743558], [-0.015860965475440025, -0.006638210266828537], [0.0244456734508276, -0.03942682594060898], [0.01585862599313259, -0.006506824865937233], [-6.35320830042474e-05, 0.018301721662282944], [-0.02273087203502655, -0.017542708665132523], [0.0013838503509759903, -0.01034267246723175], [0.010109548456966877, -0.002729804255068302], [-0.032972924411296844, 0.016882136464118958], [-0.011888916604220867, -0.003791766706854105], [0.0006180087220855057, -0.02188222110271454], [-0.00811169482767582, -0.023863106966018677], [0.0024341142270714045, -0.05957094952464104], [0.0140687869861722, -0.02274390682578087], [0.019511034712195396, -0.00655739288777113], [0.010959620587527752, -0.0016813983675092459], [-0.011161607690155506, 0.037460632622241974], [0.030557380989193916, 0.01687944494187832], [-0.015956267714500427, -0.0025442829355597496], [0.02644524723291397, 0.01850227639079094], [-0.015039058402180672, -0.024402303621172905], [-0.005421563051640987, -0.023560781031847], [-0.0012595581356436014, -0.024543650448322296], [0.012144613079726696, -0.005624288227409124], [0.02519199065864086, 0.007363511715084314], [-0.006280539091676474, -0.014981466345489025], [0.012433343566954136, -0.03539382293820381], [-0.03925463557243347, 0.006860142573714256], [-0.022169839590787888, -0.013735096901655197], [0.027157539501786232, 0.01602020300924778], [-0.0314234122633934, -0.03684133291244507], [-0.02939649298787117, -0.007324764970690012], [-0.003150781849399209, 0.026318339630961418], [-0.016831209883093834, -0.013595996424555779], [-0.026979757472872734, 0.009509353898465633], [7.456283492501825e-05, 0.011969889514148235], [-0.002071860944852233, 0.005820881109684706], [0.008372939191758633, -0.011312941089272499], [0.043087445199489594, -0.0025895112194120884], [-0.0020385042298585176, -0.018650127574801445], [0.008172090165317059, 0.006341128144413233], [-0.003662085859104991, 0.0007686805329285562], [-0.040602702647447586, 0.03048371709883213], [0.01193639263510704, 0.003840600373223424], [0.007600714452564716, 0.018262775614857674], [-0.011518774554133415, 0.02943607047200203], [-0.002798406407237053, 0.005873194430023432], [-0.01528908684849739, 0.013209949247539043], [-0.0024176822043955326, -0.014859098941087723], [-0.004945850465446711, -0.021974259987473488], [-0.03447128087282181, 0.0022945012897253036], [0.014166578650474548, -0.023947451263666153], [-0.027398142963647842, -0.04607958719134331], [0.02106943354010582, 0.007532475516200066], [0.016705546528100967, -0.01549157127737999], [0.02082015760242939, 0.029727555811405182], [-0.015606346540153027, 0.011304563842713833], [0.014310821890830994, -0.018389906734228134], [-0.014770646579563618, -0.010892058722674847], [0.019467229023575783, -0.028967371210455894], [0.03787122294306755, 0.0051364777609705925], [0.009367984719574451, 0.022459549829363823], [-0.016085565090179443, -0.000581186031922698], [0.029333075508475304, -0.0010263966396450996], [-0.007151016499847174, -0.010474390350282192], [-0.004859594162553549, 0.015915315598249435], [-0.002619348466396332, -0.028704294934868813], [0.02763335593044758, -0.00573829235509038], [0.008584572933614254, 0.02742181532084942], [0.010023769922554493, -0.0059752995148301125], [0.019145740196108818, 0.017665637657046318], [-0.0051062628626823425, 0.0353713259100914], [0.009137202054262161, -0.008343948982656002], [0.015434704720973969, 0.01683931238949299], [-0.0006922883912920952, 0.05196769908070564], [-0.059568267315626144, 0.0009998969035223126], [-0.04218195006251335, 0.011732048355042934], [0.00030400193645618856, -0.019590405747294426], [-0.026475749909877777, -0.02056289091706276], [0.013816800899803638, 0.020423393696546555], [-0.016790270805358887, 0.02908310666680336], [0.016000164672732353, -0.03217674046754837], [-0.005835304502397776, 0.004567157942801714], [0.005365039687603712, 0.0026949667371809483], [-0.0096424650400877, 0.004984587896615267], [0.006345729809254408, 0.008009206503629684], [-0.020893381908535957, 0.03715192526578903], [0.004548406694084406, 0.011121024377644062], [-0.002994273556396365, 0.0013912527356296778], [0.0021249481942504644, -0.0044576749205589294], [-0.003618652233853936, 0.005296042654663324], [-0.018591158092021942, -0.03381751850247383], [-0.03029303438961506, -0.006028219126164913], [0.030329188331961632, -0.028353562578558922], [0.007177805528044701, 0.012707171961665154], [-0.027975808829069138, 0.0004961026133969426], [0.001772879739291966, 0.02202584221959114], [0.003634043736383319, -0.00309585384093225], [-0.0189798716455698, 0.005745914299041033], [-0.00031475076684728265, -0.01705152541399002], [-0.007240186911076307, 0.007118321489542723], [-0.04822281748056412, -0.021659892052412033], [-0.006500324234366417, -0.003140353597700596], [0.005716113839298487, 0.0036004148423671722], [0.0009728163131512702, 0.0514533706009388], [0.0019661681726574898, 0.011182436719536781], [-0.02461983822286129, -0.01697804220020771], [0.02632242813706398, 0.025013277307152748], [-0.009088655933737755, 0.03319171443581581], [0.03376167267560959, -0.01514013484120369], [0.019125308841466904, 0.0443592444062233], [-0.005388480145484209, 0.01244035828858614], [-0.024860911071300507, 7.050687418086454e-05], [-0.023123621940612793, -0.008754183538258076], [-0.04096530005335808, 0.026220908388495445], [-0.004917603451758623, 0.02002016268670559], [-0.0055391062051057816, 0.0007209171890281141], [-0.06575371325016022, -0.0012575776781886816], [0.0041863261722028255, 0.015474187210202217], [0.01089873444288969, 0.015249576419591904], [0.014479252509772778, 0.014171418733894825], [0.019412260502576828, -0.02383064664900303], [-0.004669760353863239, -0.005123363807797432], [0.029765639454126358, -0.01152745820581913], [0.005337862763553858, -0.019635438919067383], [0.00022138922940939665, -0.0006778203533031046], [0.029782483354210854, -0.015224751085042953], [-0.012848127633333206, -0.008214305154979229], [-0.013602683320641518, -0.04034070298075676], [0.013258087448775768, 0.017628297209739685], [-0.026324769482016563, -0.02001669444143772], [0.05594971030950546, 0.02042337693274021], [-0.013019033707678318, -0.009525340050458908], [0.01997198723256588, -0.0016256115632131696], [0.010313664563000202, 0.02553148940205574], [-0.033974818885326385, -0.013184131123125553], [-0.013497349806129932, -0.026201598346233368], [-0.016037996858358383, 0.005237944424152374], [-0.01176562998443842, 0.020962323993444443], [-0.01529791671782732, -0.031562741845846176], [0.027194451540708542, -0.020838724449276924], [0.031460847705602646, 0.00044986329157836735], [-0.00330471177585423, -0.008801089599728584], [-0.005648593883961439, -0.01524275355041027], [0.01513412781059742, -0.016680719330906868], [-0.01610562391579151, -0.014768696390092373], [-0.008939622901380062, -0.005971109960228205], [0.011439649388194084, 0.0025587116833776236], [-0.0034351139329373837, 0.029146326705813408], [0.016883641481399536, -0.005046154372394085], [-0.0010905537055805326, -0.0010079375933855772], [0.010631417855620384, -0.002578536281362176], [0.02292928658425808, -0.04182196035981178], [-0.026084380224347115, 0.004428239539265633], [-0.011325333267450333, -0.04417617991566658], [0.03639334812760353, -0.034998808056116104], [0.006924045737832785, 0.01670835353434086], [-0.02008453756570816, -0.0002589564537629485], [0.00954651553183794, -0.01290882471948862], [-0.002088564448058605, -0.0230796430259943], [-0.00581098860129714, -0.026439156383275986], [-0.006834166124463081, 0.013627682812511921], [0.06129089370369911, 0.053365662693977356], [-0.012681275606155396, 0.028898052871227264], [0.014052987098693848, -0.02712046168744564], [0.003711986355483532, -0.020595494657754898], [-0.0001892188302008435, 0.007483999710530043], [0.03853484243154526, 0.001352562103420496], [-0.033366892486810684, -0.021616756916046143], [0.006593099795281887, -0.038024380803108215], [-0.003233181079849601, 0.0031183494720607996], [-0.01751800812780857, -0.010375308804214], [-0.011196381412446499, -0.0031273241620510817], [-0.0010541138472035527, -0.011930005624890327], [-0.011663473211228848, -0.01536711398512125], [-0.02274002507328987, 0.03487047180533409], [-0.008065993897616863, 0.02070445753633976], [0.021450966596603394, 0.018645400181412697], [-0.01945444382727146, -0.028907982632517815], [-0.015364490449428558, 0.012041889131069183], [-0.00287761096842587, -0.01758507825434208], [0.009069960564374924, 0.015389719977974892], [0.00549972802400589, 0.02696262300014496], [-0.025036975741386414, -0.03289606422185898], [0.044355735182762146, -0.010031893849372864], [-0.023827018216252327, -0.027704600244760513], [0.010219691321253777, 0.016540633514523506], [0.007257559336721897, 0.0204243753105402], [-0.009381935000419617, -0.013298870995640755], [-0.019405735656619072, -0.029887797310948372], [-0.011147737503051758, 0.02755947969853878], [-0.0452185682952404, -0.018761370331048965], [-0.002869737334549427, -0.006118498742580414], [0.019344903528690338, 0.020114663988351822], [-0.014444048516452312, -0.03790201246738434], [0.007862121798098087, 0.03035532869398594], [0.013312041759490967, -0.013600076548755169], [0.0003718997468240559, 0.017273293808102608], [0.001640496077015996, -0.004025142639875412], [0.02355719543993473, 0.010802333243191242], [-0.04483930394053459, 0.025096479803323746], [-0.004770940635353327, -0.0007093673921190202], [-0.011580194346606731, 0.045384567230939865], [0.0012563250493258238, -0.016153650358319283], [-0.008781983517110348, -0.011543904431164265], [-0.022166596725583076, 0.023228313773870468], [-0.0016604758566245437, -0.017219526693224907], [0.009099154733121395, -0.026385409757494926], [-0.021460702642798424, 0.0030105405021458864], [-0.025960274040699005, 0.04302719980478287], [0.03005109541118145, -0.0005902315024286509], [0.006017346400767565, -0.027334604412317276], [0.00841524451971054, -0.005544252693653107], [-0.01925833337008953, 0.06506132334470749], [-0.02156919240951538, -0.028651120141148567], [-0.006933994125574827, 0.004447553306818008], [-0.0017405205871909857, 0.024348881095647812], [0.0030154725536704063, 0.018455637618899345], [0.024552874267101288, 0.024135364219546318], [0.0071230302564799786, 0.009362885728478432], [0.018498722463846207, -0.011856436729431152], [-0.012668521143496037, 0.007980034686625004], [0.014108995907008648, -0.014078384265303612], [-0.00343876238912344, -0.008523273281753063], [0.023207996040582657, 0.0099734365940094], [-0.014781791716814041, 0.026243004947900772], [0.017883209511637688, 0.02365884743630886], [-0.0012373111676424742, 0.015752391889691353], [0.001676440006121993, -0.0021210534032434225], [0.05842339247465134, 0.00035088727599941194], [0.004071567673236132, -0.015310420654714108], [-0.004509295336902142, -0.003009495558217168], [-0.03684999421238899, -0.002576352097094059], [-0.00020630963263101876, -0.00761376740410924], [0.009051376953721046, -0.017047805711627007], [0.03373444825410843, 0.0092850923538208], [0.016543684527277946, 0.001802673563361168], [-0.020181365311145782, 0.005564708728343248], [0.041339658200740814, -0.03579675033688545], [0.03333194926381111, 0.0043100048787891865], [0.02654314786195755, 0.013056837022304535], [-0.02996857278048992, -0.007710206788033247], [-0.01417793333530426, -0.02446421980857849], [0.012380102649331093, -0.03586648032069206], [-0.002788701793178916, 0.010128244757652283], [-0.022069497033953667, 0.014756853692233562], [0.04805538430809975, -0.039905015379190445], [-0.013708578422665596, -0.0029456529300659895], [0.0017731250263750553, 0.02678535133600235], [0.0018954003462567925, 0.01207186933606863], [0.029315916821360588, -0.013644547201693058], [-0.0013885397929698229, 0.0066334339790046215], [0.012424581684172153, -0.00036020728293806314], [-0.020674291998147964, -0.00455110939219594], [-0.018058305606245995, -0.01134230475872755], [-0.007077482063323259, 0.030682165175676346], [0.038267046213150024, -0.02441171370446682], [0.020786216482520103, 0.0077866301871836185], [-0.0236977469176054, -0.014491716399788857], [-0.03060285747051239, 0.00946537684649229], [0.013080049306154251, 0.006155355367809534], [0.012564350850880146, 0.033977556973695755], [-0.012130854651331902, -0.003699651686474681], [0.01072410587221384, 0.021593432873487473], [-0.021625759080052376, 